õn 0.007734 0.190431 -0.236616 0.207629 -0.565020 0.074250 0.093357 -0.089541 -0.071610 0.086975 -0.103311 -0.045140 -0.525538 0.188640 -0.287659 -0.145632 0.112101 0.036010 0.112452 0.033889 0.005235 -0.010223 0.402595 0.094563 -0.018641 0.148481 0.320131 -0.250288 -0.037346 0.321762 0.128240 -0.032576 0.387499 0.187542 0.069987 0.126788 -0.075412 -0.364597 0.059230 0.018676 0.160628 -0.177806 0.151915 -0.028027 0.146771 -0.077151 0.053167 0.275544 0.201864 -0.090914 -0.018977 0.119448 -0.007793 0.143939 -0.134560 -0.130729 -0.238317 -0.456488 -0.006195 -0.089050 -0.163584 0.089602 -0.036567 -0.309396 0.102456 -0.162795 -0.208690 0.287772 -0.128084 -0.223170 0.152435 0.290869 0.159339 0.024737 0.042465 -0.173331 -0.270336 0.511464 -0.197067 0.117856 0.103040 0.014039 -0.174205 0.285686 -0.023369 0.018397 0.043534 0.057698 -0.323291 -0.113655 -0.107797 -0.009989 0.136404 -0.200547 -0.000016 0.036622 0.316842 0.139499 0.208688 0.175517 -0.094503 -0.261553 -0.054056 -0.073229 -0.387811 0.234026 -0.424701 0.172148 0.026608 0.052206 -0.125416 -0.107941 -0.334807 0.206745 -0.045486 0.009262 0.124513 0.053111 0.021106 -0.136797 -0.147164 -0.041543 -0.013668 0.009353 0.005154 0.127486 0.003351 0.244548 0.233217 -0.210004 -0.081192 0.332933 -0.002799 0.249047 -0.256273 -0.027568 0.260329 0.111600 -0.118838 0.065263 -0.136733 0.291430 0.156689 -0.143297 0.036611 0.271904 0.146938 0.127423 -0.070730 0.166659 -0.131872 -0.199861 0.106451 -0.074234 -0.314781 -0.064709 -0.493915 -0.072402 -0.183650 -0.171992 0.085532 -0.076035 0.078868 0.043515 -0.187339 -0.037362 0.031919 0.027336 0.272209 0.020010 -0.015571 0.004470 0.121346 0.111959 -0.024080 0.065785 -0.028524 0.128219 -0.132058 -0.019142 0.058353 -0.023011 0.041186 -0.182959 0.034818 0.104052 -0.108805 -0.136400 -0.190153 -0.006135 0.129652 0.180818 -0.001524 0.252164 0.093828 0.105235 0.299546 0.038635 -0.197636 -0.005267 0.021264 0.004324 -0.194749 -0.033456 0.115983 -0.037580 0.095138 0.074107 0.216508 0.032674 -0.149963 0.063586 -0.443238 0.126450 0.197355 0.039806 -0.212734 -0.077113 0.227050 -0.178509 0.149246 0.102962 -0.100863 0.031170 -0.047307 -0.066062 0.014491 0.219199 -0.160963 -0.032862 0.017221 0.197138 0.150741 -0.066022 0.024600 -0.026633 -0.001222 -0.405928 -0.022505 -0.278384 0.177963 0.292816 -0.008671 -0.230710 -0.009691 0.048943 -0.001428 0.022839 0.459181 0.374297 0.090867 -0.178648 -0.008297 0.019432 -0.031804 0.112838 0.022053 -0.110307 -0.031207 -0.180622 0.342183 -0.385538 -0.380751 -0.069658 -0.013544 0.073716 0.054275 0.063521 -0.064914 -0.077368 -0.068166 -0.071483 -0.347459 -0.094981 0.059379 0.049189 -0.162483 0.305028 -0.145060 -0.219551 0.109129 -0.036365 0.062111 -0.109339 -0.203299 0.048023 -0.163836 -0.371927 -0.381936 0.070819 -0.263832 0.213984 -0.177117 -0.209336 0.046985 0.123517 -0.141684 -0.088450 0.019974 0.042943 -0.149789 0.310069 -0.144584 0.241831 0.406016 -0.115995 -0.017568 0.245227 -0.304483 0.364893 -0.069076 -0.202677 0.033108 -0.528686 0.021450 -0.005332 -0.111048 0.264803 0.248812 -0.242457 -0.001912 -0.134943 -0.300922 0.338639 0.170428 -0.186456 0.204164 -0.225639 -0.204658 0.105756 -0.016599 -0.048346 -0.016651 0.368354 0.013236 -0.218369 -0.114817 -0.304211 -0.191159 0.112259 -0.094712 0.404584 0.012002 0.007590 -0.251973 -0.022287 0.247344 -0.077835 -0.021871 -0.189880 0.335815 -0.312831 -0.308556 -0.119116 -0.066080 -0.215887 0.035264 -0.153429 -0.236881 -0.048513 0.186248 0.087383 0.128968 -0.211707 -0.058309 -0.075507 0.234097 0.106551 -0.215920 -0.031931 0.240290 -0.150373 -0.248302 -0.150468 -0.180069 -0.080865 0.144274 -0.250501 0.251269 0.016002 0.346553 -0.000986 -0.253238 0.374214 0.047469 -0.186634 -0.093244 0.106635 0.236433 0.163819 -0.010858 -0.015437 0.266404 -0.042569 -0.256021 0.023582 -0.158603 -0.020833 -0.115412 0.053127 0.007894 -0.178214 -0.163851 0.095001 0.103690 -0.189160 0.052903 0.249403 0.209497 -0.134635 0.355125 -0.013322 0.163824 -0.300598 -0.038503 0.473039 0.045922 -0.346571 0.041340 0.181594 -0.376119 0.024520 -0.169556 0.020509 0.020112 0.274663 0.027177 0.318451 -0.047111 0.009986 0.173223 -0.055382 -0.017246 -0.051945 -0.105875 -0.116793 0.054277 -0.045512 0.088625 0.298586 -0.163072 -0.163581 -0.057611 0.098642 -0.032991 0.130939 0.175457 -0.044811 0.049583 0.024341 -0.033655 0.020417 0.316882 0.112825 0.113875 -0.105466 -0.076586 0.290780 -0.064857 0.279104 0.014635 0.258039 0.118532 -0.195205 -0.315606 -0.025190 -0.168599 -0.082922 0.117324 0.105205 -0.073929 0.134295 0.204558 -0.105428 -0.027677 -0.193978 0.363992 0.192285 -0.034415 0.136188 0.048652 0.008748 -0.298512 -0.399378 0.135360 -0.204966 0.103099 -0.386280 -0.204074 -0.096559 0.005258 -0.005447 0.378385 -0.089469 0.101011 0.152485 -0.240362 0.370052 -0.212355 -0.078342 -0.169982 0.214201 -0.010240 -0.170374 0.145485 0.053357 -0.107691 0.190046 0.054918 -0.030412 0.283563 0.032298
at 0.098464 -0.001364 -0.263185 -0.014156 -0.171995 0.050857 -0.258128 0.147681 0.350039 -0.187036 -0.063115 -0.043312 0.034606 -0.033032 -0.131636 -0.088566 -0.097831 0.140852 0.294330 -0.126427 -0.278657 -0.118532 -0.034853 -0.008510 0.130808 0.145104 0.029101 0.269234 0.317098 0.283006 0.034856 0.068771 -0.034867 0.027541 -0.020107 0.205111 -0.121109 0.172320 0.246417 -0.119399 0.035903 -0.150496 -0.070627 0.255595 0.165685 -0.098599 0.180129 -0.104227 -0.136350 0.089016 0.199430 0.083209 0.053636 -0.073659 0.251336 0.116098 0.070180 0.008701 -0.035196 -0.019840 0.236277 0.121049 0.078466 0.061390 0.117679 0.033034 0.132609 -0.202589 -0.055538 -0.034368 0.131417 -0.067270 0.180789 -0.195448 -0.241392 -0.258854 0.094015 -0.045885 0.004051 0.014762 0.203247 0.425215 -0.190523 0.112107 -0.058971 -0.135703 0.026595 -0.153274 0.009705 0.319652 0.035454 -0.261714 0.236682 0.074377 -0.060314 0.066771 0.181356 0.009644 -0.289813 0.036423 0.122049 -0.184066 -0.086323 0.159564 -0.390337 0.436328 -0.017525 0.166717 -0.046097 0.101500 0.198927 0.190473 -0.199528 -0.185782 -0.187179 0.047278 -0.114107 0.101451 -0.212085 -0.094441 0.250024 0.011127 -0.010256 -0.388590 -0.166330 -0.308588 -0.071983 -0.194705 0.310319 -0.177770 -0.261450 0.049212 -0.130811 -0.270616 -0.052885 -0.210325 -0.268150 -0.076686 -0.080129 0.323787 0.033305 0.036566 -0.036430 -0.051542 0.251229 0.230409 0.043758 -0.061020 0.060091 0.077464 0.125224 0.148579 -0.123414 0.150084 -0.061256 -0.089393 -0.257588 -0.118698 0.210234 0.048777 -0.025915 -0.191289 0.129410 0.370771 -0.144370 0.478210 -0.016288 0.165155 -0.016095 -0.281794 -0.181561 0.064435 0.241370 -0.390704 0.273502 -0.150559 -0.017176 0.271169 -0.016425 0.226749 0.003685 -0.190749 -0.103824 0.057052 -0.155690 -0.116379 0.239517 -0.087159 -0.113937 -0.052691 -0.040727 0.193511 0.132813 -0.090327 0.022672 -0.329149 0.331072 -0.073232 -0.005293 0.002017 0.342454 -0.052672 0.022221 0.164257 0.224399 -0.234265 -0.173576 0.263112 -0.334962 0.224254 -0.096133 -0.075423 0.084025 0.004644 0.204184 0.110350 -0.436581 -0.045476 -0.278749 0.154811 -0.081609 -0.095837 0.179236 0.206669 -0.060598 -0.134025 0.178138 -0.098961 0.100587 -0.084042 -0.070993 0.417689 0.084273 0.189377 0.150892 -0.104563 -0.128853 -0.250546 -0.168304 -0.121212 -0.397037 -0.040643 -0.108382 -0.078597 0.196816 -0.145049 -0.000067 0.377956 0.281407 0.245289 0.016626 -0.336039 -0.145603 0.148208 0.047187 -0.047628 0.201089 0.076206 -0.069171 0.069917 -0.320698 -0.313696 0.106667 0.034836 0.282044 -0.020855 0.079409 0.101716 -0.151252 -0.127768 -0.195436 -0.023353 0.242597 0.256452 0.136282 -0.146564 -0.030358 -0.308518 -0.114564 -0.097414 0.326034 -0.035427 0.180738 -0.067673 0.217230 -0.144917 0.208359 -0.098581 0.061038 -0.135255 0.354905 -0.020640 0.091444 -0.137369 0.058206 0.078608 -0.073073 0.012567 0.134134 -0.177085 -0.181972 0.520570 -0.087856 0.125351 0.238889 -0.150870 0.274652 -0.125315 -0.085844 -0.429917 0.198070 0.132754 -0.327333 0.010993 0.167330 0.000220 0.059590 -0.172861 -0.166324 -0.298645 0.137240 0.178991 -0.206683 -0.160146 -0.114963 0.114248 0.281746 -0.373345 0.019910 -0.315708 -0.058137 0.256700 -0.230098 0.146176 -0.193817 0.273434 0.130352 0.095247 0.090060 0.072760 0.061128 0.287297 -0.211087 -0.018989 0.012096 0.152204 -0.192675 0.131781 0.091817 0.194282 0.305491 0.183670 -0.170424 0.177799 -0.178711 0.122448 0.072622 -0.158424 -0.149265 -0.318611 0.099758 0.082038 0.167171 0.108800 -0.058074 0.004801 -0.063957 -0.112608 -0.034418 -0.185229 0.255474 -0.160624 0.143828 0.278122 -0.029592 0.345709 0.301854 -0.139067 0.288510 0.185830 0.064244 -0.407320 0.014961 0.434761 -0.394055 -0.118137 0.016810 -0.096697 0.073982 0.177604 -0.055609 0.054512 -0.093773 0.286628 -0.323522 0.111144 -0.236478 0.105103 0.063265 0.211836 0.356737 -0.129410 -0.209447 0.049624 0.038940 0.101421 -0.020809 -0.165541 0.297919 -0.041181 -0.039609 0.120670 -0.252171 -0.010051 -0.235993 0.101391 0.108751 -0.457583 0.093165 -0.105286 -0.463842 -0.115784 -0.343663 0.266413 0.059693 0.054670 -0.131082 -0.053944 -0.082972 0.241058 -0.141149 -0.000367 0.044751 -0.367848 -0.042216 0.145703 0.294356 -0.079704 -0.096104 0.039054 -0.450056 -0.001471 -0.040197 0.168903 0.196807 -0.059535 0.317286 -0.240508 0.212084 -0.347490 -0.147516 0.168053 0.086248 -0.398133 -0.170475 -0.278595 0.515593 -0.402114 0.263052 0.109834 -0.070083 0.281679 0.201791 -0.056885 -0.240621 -0.047595 0.005818 0.093331 -0.238865 0.090769 0.037885 0.027346 -0.017445 0.053159 -0.107807 0.020099 -0.186919 0.069195 -0.168217 0.016120 0.165699 0.060658 0.018711 -0.112261 0.025321 0.118820 -0.066615 -0.098206 0.073760 -0.004461 -0.073276 0.218811 -0.048441 -0.108959 0.027302 -0.038267 -0.175560 0.156159 -0.234929 0.187277 -0.243269 0.245479 0.289423 0.107905 0.072442 0.085490 -0.145882 0.001693 -0.221275 0.105648 -0.167701 -0.220174
iʔke -0.070046 -0.162876 -0.219041 -0.106384 -0.040327 -0.127477 -0.172818 0.034790 0.208038 -0.255431 0.067673 0.190760 -0.515453 -0.214614 0.075624 -0.116397 0.248737 -0.010926 -0.068435 0.009142 -0.080492 -0.076499 0.320204 -0.245849 0.164001 0.019677 0.140417 -0.136020 0.207498 0.008465 -0.104524 -0.190313 0.275591 0.148132 0.294756 0.164140 -0.224736 -0.222092 0.218933 -0.015685 0.235204 0.070727 -0.012287 0.025921 0.453005 0.036190 -0.146364 -0.046634 0.231193 -0.204593 -0.122184 0.197475 -0.237801 0.152390 -0.114462 -0.217775 -0.161194 -0.329432 -0.103876 -0.187417 -0.101085 -0.026253 0.009168 -0.150085 0.087957 -0.026782 0.390092 0.155448 0.401798 -0.174064 -0.286439 0.019007 -0.105521 -0.090353 -0.017787 -0.329097 -0.180413 -0.131478 0.074851 0.199796 -0.148560 -0.195368 -0.262386 -0.120265 -0.000077 0.186256 -0.241450 0.242061 -0.161729 -0.038282 0.086107 0.177614 0.424845 -0.076361 -0.079461 0.229215 0.032716 0.134435 -0.099937 0.238510 -0.227521 -0.110088 0.038927 0.061842 0.265308 -0.093168 0.071016 0.155190 0.158779 -0.112389 0.130269 0.148541 -0.194430 0.341395 -0.086670 -0.200974 0.078533 -0.164260 -0.196394 -0.034449 -0.087707 -0.141022 0.057566 0.137115 0.094878 -0.036013 -0.041508 0.071528 0.051166 -0.287430 0.031142 0.271897 0.006088 0.023204 -0.201555 -0.094965 -0.046964 -0.236872 -0.079937 0.104996 0.028431 0.034458 0.047276 -0.183488 0.078541 0.158921 0.076016 0.025740 0.312512 0.161990 0.096794 -0.220637 0.040127 -0.037565 -0.190017 0.073921 -0.227824 0.052807 -0.125762 0.067053 -0.153773 0.091412 -0.310742 0.197293 0.011146 -0.157039 0.347345 0.391049 -0.042139 -0.206205 0.189097 0.003871 -0.137869 0.262445 0.359579 0.223881 -0.021436 -0.132402 0.075413 -0.011047 0.113207 -0.163344 -0.156970 -0.082286 0.098032 -0.195666 -0.082613 0.211574 0.100112 -0.170349 -0.020985 -0.139306 -0.007558 -0.034279 0.052033 0.334088 0.149276 -0.277075 -0.253023 -0.270212 0.218023 -0.279870 -0.173765 -0.056829 0.054270 -0.139892 -0.042845 -0.112412 0.127003 0.426162 -0.098620 0.160344 0.197726 0.020921 0.314733 -0.157590 -0.133703 -0.176877 0.126099 -0.015028 0.068077 0.173791 -0.229357 0.406173 -0.059714 -0.131494 0.053123 -0.144228 -0.022081 0.076490 0.182151 0.088000 -0.091164 -0.088675 0.064765 -0.026798 -0.008105 0.076148 -0.188353 -0.116143 0.164156 0.067224 0.092029 0.051651 0.100084 -0.185501 -0.264666 -0.079525 -0.069352 0.003550 0.243110 -0.036438 -0.021753 -0.011380 -0.016775 0.018513 -0.028365 0.229199 -0.234669 0.066575 0.149814 -0.308326 -0.094690 0.361793 -0.206427 0.259959 -0.082657 0.081108 -0.001695 -0.264574 -0.078434 -0.241937 -0.142843 0.101505 -0.080979 -0.001672 -0.329893 0.233710 -0.293095 -0.037906 0.119999 -0.245734 0.011730 0.092266 0.109328 0.134343 0.196723 -0.003204 0.020168 -0.075571 0.023757 0.073152 -0.079858 -0.269086 -0.050767 0.155347 -0.014479 -0.032375 -0.354569 0.087509 -0.023888 0.035621 -0.068915 0.366298 -0.210976 -0.195426 0.285556 -0.294687 -0.091127 -0.056232 -0.184035 -0.112410 0.255546 -0.066299 -0.178973 -0.334877 -0.133011 0.056741 0.155353 -0.099282 -0.221585 -0.012771 -0.162676 -0.048838 -0.060396 0.016848 0.141924 -0.236287 -0.011340 -0.059416 0.162415 0.140240 -0.101497 0.245285 -0.104495 -0.045575 -0.205716 -0.331030 -0.351473 0.286066 0.001707 0.413464 0.049167 -0.090254 0.242329 0.449275 -0.055932 0.076832 0.120147 -0.017681 -0.173346 -0.163418 -0.207633 0.137288 -0.183016 0.032813 -0.129142 -0.124659 0.013705 -0.213169 -0.089996 0.098131 -0.098358 -0.079575 -0.131889 -0.055476 -0.015522 0.067887 0.143655 -0.246923 0.145307 -0.230946 -0.101157 -0.017537 0.071568 -0.203182 0.223468 -0.127469 0.048952 0.178541 0.223049 -0.072161 0.084066 0.032029 0.023459 0.097750 0.043731 0.256908 -0.084404 -0.190154 0.195744 -0.054586 -0.070642 0.092629 -0.013611 0.408573 -0.291963 0.010027 0.074770 0.158899 0.173815 -0.172028 0.410693 -0.001605 0.132766 -0.263795 -0.349335 0.137773 0.285097 -0.042418 0.104838 0.038505 0.463123 0.078447 0.091334 -0.036974 -0.065669 -0.189768 0.307292 -0.421447 -0.006732 -0.020413 -0.067379 -0.078312 0.109671 0.140654 0.049488 -0.074824 0.191202 0.155963 -0.324418 0.045184 -0.396385 -0.159430 0.096099 0.087302 0.297183 0.111785 0.254801 -0.071585 -0.135245 0.014143 0.186055 0.253046 0.385533 -0.003534 0.259427 -0.058515 -0.026674 -0.101882 -0.179105 -0.091653 0.210264 -0.126529 0.273141 -0.192122 0.017271 0.250578 0.006353 -0.054900 -0.022505 0.261410 0.516173 -0.179886 -0.054557 -0.085373 0.090257 -0.275981 0.038413 0.018252 -0.359189 0.128625 0.086403 0.319600 -0.022622 -0.042545 -0.004691 0.430409 0.335533 -0.023962 0.209237 0.123774 -0.231107 -0.152560 -0.090924 -0.070710 -0.036116 -0.208657 -0.253270 -0.023602 0.112862 0.128077 0.293194 0.109749 -0.132678 0.183939 -0.270540 0.057726 -0.072724 -0.175103 -0.252706 0.202601 0.191974 -0.271002 0.046095 0.167170 -0.261328 0.080732 -0.025803 -0.087363 0.000540 0.243857
ahyə 0.318545 0.004099 0.030686 0.108211 0.014107 -0.018634 -0.213461 -0.177394 -0.002317 -0.090938 -0.035972 0.154516 -0.149240 0.061965 -0.203017 0.082338 -0.039663 0.140398 0.190904 -0.086066 0.175826 0.013425 0.185485 0.052902 0.023439 -0.044346 0.287020 -0.110721 0.088777 0.161113 -0.233499 -0.005060 0.414512 -0.053208 0.078117 0.439545 -0.053735 -0.177520 0.285708 0.138299 0.022855 -0.162020 0.342626 -0.053188 0.405696 0.150625 0.095056 0.372361 0.242762 -0.020246 -0.307660 0.043504 -0.043729 0.006965 -0.430886 0.027876 -0.174612 -0.084226 -0.208483 -0.260850 0.200613 -0.327654 0.116462 0.074135 -0.245613 -0.205972 -0.019921 -0.061714 -0.164730 0.158096 0.052730 -0.125083 -0.145360 0.102680 -0.041833 0.150177 0.151933 0.230007 -0.071762 0.159970 0.194449 0.330221 -0.187510 -0.054519 0.154437 -0.109148 -0.344038 0.260292 -0.317685 -0.183430 0.266703 -0.140579 -0.013560 -0.188260 0.134918 0.116694 -0.025942 0.120995 0.136815 -0.044078 -0.090769 -0.245183 0.033182 0.158199 0.021641 0.454506 -0.123998 0.030980 0.187296 -0.195091 0.408356 -0.196940 -0.045653 -0.076846 0.299171 -0.132240 0.242176 -0.240178 -0.210216 0.023584 0.210291 0.034478 -0.134993 -0.191773 0.185304 -0.075866 0.265654 0.034171 0.072496 0.054448 -0.021308 -0.093406 -0.409537 -0.104926 -0.177100 -0.146369 -0.356606 -0.245345 0.119768 0.039022 0.061030 0.026776 -0.073153 -0.099677 -0.023811 -0.101800 0.053662 -0.159024 -0.230235 -0.009860 0.332370 0.135599 0.032350 -0.157123 -0.053795 -0.031358 0.054150 0.043042 0.082548 -0.244532 -0.257181 -0.038179 0.198713 -0.178825 0.014407 0.008263 0.085574 0.242729 0.307539 -0.369776 0.097000 -0.036813 0.206822 -0.068011 0.049543 -0.100589 0.005159 0.244361 -0.197846 0.262376 0.131215 -0.396541 0.251527 -0.132813 -0.085691 0.389789 0.233372 -0.190189 0.311398 0.180101 -0.245114 0.051680 0.323081 -0.176401 0.049169 0.177428 -0.089875 0.012812 -0.161535 0.155262 0.087392 -0.081521 -0.215430 -0.045199 0.084653 0.040276 -0.097482 0.113818 -0.025229 0.206043 -0.158054 0.349081 -0.025878 0.124580 0.367086 0.039106 -0.262708 -0.310243 -0.191995 -0.114554 0.473244 -0.311943 -0.217169 -0.034529 0.093582 0.063818 0.238246 0.044381 -0.016611 0.064400 -0.166299 0.154368 0.313156 0.138171 0.193333 -0.142760 -0.076772 -0.427086 0.023705 0.181932 0.244153 0.107248 -0.194902 -0.066121 -0.037292 -0.107496 0.123343 0.090276 -0.171458 0.433302 -0.059310 -0.131141 -0.233627 0.021126 -0.186742 0.163343 -0.066935 0.171221 -0.156437 -0.115707 -0.134184 -0.061098 -0.231260 -0.021922 0.127242 -0.063815 -0.108601 -0.165522 0.208819 -0.046141 0.062796 0.103729 0.197365 0.113953 0.111703 0.098324 -0.045515 0.143345 -0.216184 -0.006637 -0.076579 0.141250 0.113806 0.192031 -0.065743 -0.028150 0.028874 -0.176074 0.179354 0.038834 -0.009132 0.039121 0.120899 -0.082990 -0.191360 -0.205801 -0.327563 -0.050440 -0.120412 -0.424842 -0.081693 0.014143 -0.012700 0.354356 0.142106 -0.293276 -0.410426 0.245381 -0.031281 0.289208 -0.068622 0.141325 -0.029406 0.032816 0.236534 0.337160 0.144754 -0.026563 0.062047 -0.240708 0.222071 0.023526 0.053832 0.207610 0.096325 -0.063486 0.206333 -0.188555 -0.040846 -0.179876 -0.226344 0.142307 -0.099003 0.243169 -0.047137 -0.172804 -0.226931 -0.049422 -0.086172 0.139621 -0.012129 0.238886 0.299424 0.004693 -0.019243 0.062347 0.000822 0.156129 -0.006393 0.177626 0.145230 0.021338 -0.127502 0.432403 -0.261746 -0.250138 -0.233039 -0.143284 -0.043925 0.134284 -0.040601 -0.108764 0.163210 -0.072718 0.016859 0.090127 -0.078375 0.076841 -0.020256 -0.233296 0.074389 -0.263545 -0.065791 -0.238518 0.089638 0.242600 0.228630 -0.062901 0.382860 0.010903 0.075891 -0.215893 0.212106 -0.029963 0.072399 0.065558 0.043801 0.064654 0.267375 0.291336 -0.129990 -0.022903 -0.200077 -0.280945 0.249767 0.257770 -0.093767 0.091071 -0.172714 0.100384 0.182659 -0.137481 0.331740 -0.104397 0.128885 -0.008764 0.025903 0.105507 0.238068 -0.020909 0.273672 -0.124042 -0.214739 0.102966 0.121366 0.178883 -0.152847 -0.256618 -0.096251 -0.082614 -0.364370 -0.165138 -0.015896 -0.016830 -0.159312 0.344051 -0.290428 0.178974 -0.087020 0.307042 0.200043 -0.223374 -0.378639 -0.074158 -0.015752 -0.427852 0.247065 0.000651 -0.004267 0.099718 -0.011154 -0.569548 -0.174900 0.202127 0.183807 -0.094304 0.029863 -0.068186 0.336528 0.065251 -0.039530 -0.090099 0.057173 -0.046247 -0.218943 -0.146330 -0.104826 0.043651 0.157281 -0.021934 -0.011401 0.385948 0.081595 -0.162498 -0.146418 0.072187 0.136045 -0.026016 -0.183081 0.140340 -0.004226 0.212219 0.139012 -0.099572 -0.121754 0.245554 0.190801 -0.142432 -0.048578 0.019704 0.099766 -0.026154 0.144405 -0.275202 -0.008165 0.272910 0.001500 -0.087051 -0.046909 -0.060787 -0.268314 -0.034907 0.252926 -0.292606 -0.412601 -0.010927 0.092007 -0.134975 -0.112680 0.052662 -0.036923 -0.255029 0.025171 0.032044 0.071894 0.069403 0.041286 -0.062181 0.043636 0.036645 0.428553 -0.085579
wat -0.090874 -0.101272 -0.167491 -0.144539 -0.580737 0.039101 -0.009426 -0.321688 -0.305075 -0.315741 0.156538 -0.194543 -0.109094 0.226917 -0.124078 0.010328 0.110375 -0.200553 -0.017850 0.204090 0.219778 -0.192282 0.303276 0.005877 -0.150937 -0.050782 0.270533 -0.156637 0.015223 0.300217 0.093454 -0.336303 0.258449 0.017721 0.201203 0.292920 0.032561 -0.184567 0.123942 -0.217707 0.064839 0.238555 -0.018522 0.019042 0.024099 -0.024095 0.137598 -0.134684 -0.069460 -0.041256 -0.170113 0.202881 -0.032447 0.172887 0.157726 0.153233 0.059535 -0.151541 -0.362221 0.014250 -0.184847 -0.023108 -0.198860 -0.052998 -0.068631 0.130326 0.269417 0.248644 -0.041979 0.055771 -0.031194 0.175806 0.233638 -0.035578 -0.006925 -0.170390 -0.003929 0.232186 -0.203521 0.278885 0.250530 -0.046372 0.005711 -0.134889 -0.013879 -0.170032 0.240499 -0.251762 0.289110 0.015712 0.007683 -0.007043 -0.146705 -0.123421 0.129009 0.081532 0.052696 0.105674 0.192364 -0.049185 0.064518 0.068883 0.078042 0.253352 -0.244270 0.068831 -0.204671 0.103240 -0.186838 0.138027 0.031868 0.308739 -0.416929 0.214822 0.389895 0.140331 -0.042689 0.089469 -0.212068 -0.022760 -0.374563 -0.118519 -0.115992 0.123317 0.077511 -0.146482 -0.123849 0.163543 -0.017503 -0.252886 -0.102568 0.159275 0.072867 0.111896 -0.252632 -0.042517 0.003904 -0.170673 -0.294288 0.207424 0.151868 -0.120449 0.188516 -0.128295 0.229187 0.105333 0.042271 0.252816 0.095471 -0.030344 0.228534 -0.250203 -0.003281 -0.037463 -0.190644 0.541228 -0.351541 -0.178008 -0.119452 0.160764 -0.140434 -0.054678 -0.026093 0.348753 -0.303622 0.042160 -0.058914 0.267938 0.058179 0.115301 0.302928 -0.106469 -0.164813 0.094878 0.064564 0.113283 -0.099887 -0.056086 -0.127215 0.082005 0.038162 0.018353 -0.038480 0.102437 -0.038755 -0.081184 0.093913 -0.122017 0.081784 -0.070714 -0.340805 0.097214 0.074155 0.010779 -0.175599 0.168613 0.296238 -0.090888 0.219169 0.223821 0.086622 -0.003611 0.068253 -0.201764 0.056413 -0.366029 -0.147870 0.447228 0.019431 0.058198 -0.152227 0.076926 0.082957 -0.115662 -0.008425 -0.153491 -0.170672 0.076306 0.254831 -0.173064 0.127620 0.279690 0.408646 -0.190433 -0.304151 -0.024584 0.442908 0.020892 -0.190330 0.068751 0.309073 -0.171120 -0.252283 0.272756 0.129417 -0.077752 -0.154803 -0.222208 -0.163751 -0.117970 0.076055 0.068102 -0.132553 -0.133050 -0.041628 0.060139 0.004029 0.210662 -0.181740 0.220445 0.440842 -0.403390 0.101766 -0.129629 -0.154827 0.174632 0.036338 -0.428917 -0.292724 -0.000892 0.003760 -0.013743 -0.295812 -0.061424 -0.026887 0.119533 0.303356 -0.085671 0.045432 0.501703 -0.046722 -0.075568 -0.201179 0.136345 0.002346 0.119789 0.057431 0.273290 -0.315623 -0.186022 -0.027892 -0.276777 0.153142 0.091290 -0.078652 0.107497 0.238758 -0.021755 -0.343839 -0.233870 0.173281 -0.029270 -0.249725 0.073780 0.137488 -0.065825 -0.478455 0.080809 -0.031875 -0.272135 0.075174 0.240991 -0.319333 0.088621 0.007566 -0.173190 0.003999 0.474414 0.151652 0.057630 0.109485 -0.257050 0.007097 -0.346456 0.182851 0.056053 0.174152 0.016978 0.091398 -0.035672 0.213341 -0.138610 -0.016318 0.172199 0.091142 0.089948 -0.088079 -0.207929 -0.293882 -0.051942 -0.171627 0.068436 -0.254201 -0.281703 -0.110787 -0.079121 -0.094534 0.127780 -0.333982 -0.021965 0.050714 0.357835 -0.015864 -0.105377 0.154651 0.083457 0.069042 -0.009147 0.115796 0.217988 0.216979 -0.275699 0.356534 0.167656 0.065505 0.048824 -0.070249 0.076138 -0.060454 0.039439 0.083831 0.175851 0.048163 0.169229 -0.289080 0.055207 0.317977 -0.019446 0.189256 -0.058744 -0.232241 -0.257707 -0.155104 0.169707 0.334731 0.105274 0.077980 -0.097719 0.107160 0.159901 -0.028324 -0.341070 -0.300509 -0.060101 0.067846 0.180998 -0.003139 -0.160657 0.193223 0.053851 -0.225075 -0.068657 0.331422 -0.238943 -0.013364 0.039402 0.162368 0.138523 -0.044211 0.114429 -0.131131 -0.432112 0.334653 -0.059576 -0.142681 -0.239809 -0.191193 0.054216 0.308336 0.117345 0.295374 0.160273 0.148053 0.087526 -0.195364 0.160228 -0.001232 -0.174310 0.108490 0.111791 -0.286263 0.087547 -0.266571 -0.241940 -0.256032 -0.052015 0.045998 0.166629 -0.207219 0.049874 0.066478 0.001492 0.138316 -0.021698 0.200664 -0.419521 0.297751 -0.086010 0.305419 0.163399 -0.109833 0.086411 -0.034679 0.236233 -0.009812 0.293171 0.256889 0.097328 0.043438 0.209565 0.041605 0.034408 0.407204 -0.170341 -0.205837 -0.164701 -0.020410 0.047378 -0.041392 0.117154 0.325232 0.358710 -0.146254 0.032449 -0.262015 -0.080018 0.115338 0.050831 0.186863 0.135684 0.377077 -0.074871 -0.069415 0.032698 -0.014890 -0.206808 0.333636 0.194132 0.077126 0.027234 0.011311 0.326860 -0.134076 -0.337084 0.020799 0.058902 -0.015954 -0.291430 0.169521 0.126105 0.139855 0.364573 0.173081 0.137020 0.089440 0.232273 -0.242320 -0.032527 -0.051527 0.093091 -0.257293 0.041772 -0.079727 -0.049660 -0.056743 0.081607 0.080164 0.222395 0.032209 0.017999 0.203087 0.055301
péŋ 0.183939 -0.475290 0.080807 -0.139925 -0.363383 0.154987 -0.266261 -0.220935 0.068230 -0.081705 0.187442 -0.079292 -0.182374 0.055748 -0.072544 -0.047037 0.053027 -0.074739 0.100036 -0.146994 0.104921 -0.057218 0.088709 -0.052001 0.105246 0.044108 -0.006554 0.094262 0.147623 0.056312 0.088116 0.048869 -0.029003 -0.084201 0.290558 0.140823 0.184742 -0.007059 -0.021473 -0.171300 -0.255602 -0.032951 -0.079762 0.063273 0.203138 0.121939 0.166121 0.010717 0.137291 0.115700 0.107438 -0.033544 0.397411 0.168545 0.028615 0.034263 -0.241942 -0.400117 -0.172315 0.096962 0.157642 0.003797 -0.110007 -0.045811 0.134838 -0.105720 -0.052294 -0.248151 -0.271966 -0.210314 -0.030698 0.050569 0.067698 0.280252 -0.043349 -0.034720 0.066801 -0.123308 -0.128008 0.129877 0.181767 0.051949 0.009740 -0.152625 0.024010 -0.131907 -0.129474 0.011507 0.075648 -0.078369 0.182925 0.245879 0.133435 -0.245947 0.211138 0.247813 0.137123 0.176947 -0.017006 0.218078 -0.257316 -0.026792 -0.000472 -0.088968 0.128189 0.017367 -0.123150 0.254065 0.126688 0.126749 -0.022991 0.163256 -0.341612 0.197299 -0.232805 -0.181244 0.129852 -0.271466 -0.106721 -0.060480 -0.093541 0.009264 0.260246 -0.077688 0.011212 -0.078873 -0.148775 -0.004575 0.246786 -0.350925 -0.113200 -0.184442 -0.041726 0.028257 -0.057506 -0.137780 -0.053433 -0.045188 -0.181197 0.083073 -0.099191 -0.320365 -0.029915 -0.122301 0.234685 -0.067647 -0.208087 0.022572 0.027317 0.030119 0.146492 -0.244192 -0.303886 -0.255646 -0.365122 -0.001501 -0.000603 -0.220682 0.210126 0.085221 -0.133663 -0.204881 -0.031230 0.075127 -0.080699 0.330396 0.004785 0.256041 -0.114410 0.114705 0.326885 0.138759 0.183368 0.049566 0.408674 0.147798 0.094369 0.170881 -0.193075 -0.088025 0.055913 -0.125799 -0.129655 0.116593 -0.060765 0.037405 0.329105 -0.075517 0.104622 -0.396092 -0.136912 -0.183990 -0.081906 -0.120385 -0.081350 0.210425 0.104470 -0.019772 0.082550 0.008665 0.104697 -0.098324 0.171955 0.002934 0.128287 -0.009114 -0.171840 -0.233396 0.089566 0.047217 -0.336410 0.030851 0.047666 -0.002020 0.153059 -0.269501 -0.056790 -0.270138 0.244074 -0.333481 0.130739 0.230636 0.129043 0.136858 -0.001360 0.087432 0.343561 -0.004683 0.003539 -0.212555 -0.179585 -0.044990 -0.129226 0.296911 0.011445 -0.066394 -0.069433 -0.205820 -0.056136 -0.128316 0.026341 0.283729 -0.178875 0.324378 -0.133431 -0.140525 -0.141610 0.094846 -0.009172 0.263336 0.123298 -0.209961 -0.193032 0.064338 -0.085027 0.160194 -0.089184 0.135942 -0.257242 0.135425 -0.203784 0.012361 -0.127994 -0.019696 -0.102845 0.056591 0.147041 0.094005 -0.341846 -0.005851 0.195021 -0.225592 0.252693 0.112424 0.048933 -0.126642 0.039477 0.222491 -0.076474 0.007658 0.071242 -0.051270 -0.292493 -0.065799 0.061179 0.060298 0.056014 0.080550 -0.071378 -0.015189 0.160009 -0.282021 -0.028925 -0.163914 -0.082573 0.085712 -0.211492 0.220483 0.168582 0.112365 -0.003776 0.059472 0.045153 0.184250 -0.151364 0.090296 0.148840 -0.112032 -0.187145 -0.089625 0.165414 0.098733 0.117453 -0.113773 0.078469 -0.259542 0.057436 0.136164 -0.079478 -0.038152 -0.025793 0.215471 0.221070 -0.124714 -0.198938 0.065992 -0.032916 -0.024688 -0.175372 -0.144416 0.056826 0.281819 -0.207977 -0.016835 -0.245541 -0.352449 0.296127 -0.286881 0.063858 -0.010416 0.146932 0.316519 -0.038122 0.078521 -0.018863 0.038637 0.233173 0.138227 0.113954 0.164621 -0.015122 0.066449 -0.142247 0.011014 -0.249608 0.095097 0.036158 -0.043700 0.131409 -0.131386 0.101447 -0.437806 -0.166393 -0.110058 -0.161225 -0.266529 -0.015945 0.376711 -0.154063 0.002681 0.205217 -0.175731 0.198488 0.193337 -0.141044 -0.061899 0.229897 -0.225216 0.016279 -0.069545 0.077811 -0.106287 0.490378 -0.130473 0.026980 -0.077580 0.117887 -0.068961 0.163524 -0.213830 -0.056140 -0.115136 0.150675 -0.150360 0.075523 0.050608 -0.031897 -0.313033 0.099138 0.021974 -0.144143 0.133993 0.102587 0.156264 0.048870 0.079756 0.152675 -0.338901 0.192906 -0.175889 -0.046289 0.147753 0.098751 0.153389 -0.004598 -0.106579 -0.116391 -0.258740 -0.252826 -0.280769 -0.239066 0.197536 -0.362175 0.075117 0.018039 -0.060567 -0.173506 0.243108 -0.130487 0.029995 -0.152963 -0.017859 -0.112372 -0.065359 0.165005 -0.088137 0.425645 0.174645 -0.033424 -0.137098 -0.229668 -0.260577 0.065489 0.195212 0.059423 0.075754 0.393476 0.070091 -0.047999 0.032319 -0.165837 0.047211 0.061721 -0.245692 -0.109459 -0.044745 -0.090030 -0.065105 -0.023174 0.004563 -0.021637 0.197504 0.298052 0.070809 0.173605 -0.292192 0.028968 -0.111812 -0.215684 0.013589 -0.095482 -0.111369 0.190274 0.151791 -0.235174 -0.238398 0.232712 -0.119598 0.033197 -0.046308 -0.084444 -0.059773 0.027936 0.088491 -0.100588 0.241430 0.027409 -0.065771 -0.059642 0.437481 0.154537 0.153704 0.317028 0.037082 -0.115071 -0.109819 0.136628 0.348130 -0.077282 -0.224302 -0.248520 -0.063330 -0.114336 -0.089068 0.000069 0.141227 0.183775 0.160984 0.016059 -0.028474 0.121751 -0.098269
ŋa -0.111352 0.019786 -0.112295 -0.116253 0.200327 -0.083210 -0.201264 0.123107 0.140919 -0.333653 0.214205 -0.188588 -0.107997 -0.031391 0.038946 -0.280539 -0.151248 -0.206293 0.014204 -0.055575 -0.068042 0.114480 0.311270 0.136631 -0.207096 0.101471 0.232586 -0.083811 0.171133 0.139165 -0.188833 0.028428 0.132903 0.213159 -0.140179 0.031802 -0.004518 0.061711 -0.262357 -0.115568 0.139935 0.109736 -0.163044 0.065417 -0.079912 -0.022609 -0.127087 0.285599 0.047568 -0.350905 -0.151032 0.225476 -0.095438 -0.011102 -0.183922 -0.009930 0.013859 -0.224875 -0.343189 -0.331983 -0.025094 0.071033 -0.141013 -0.253650 0.227056 -0.006128 0.255772 0.101492 0.173523 -0.260240 -0.394799 -0.027388 -0.215095 -0.132124 -0.145641 -0.580551 -0.410075 0.005770 -0.035706 0.138544 0.137159 0.117986 -0.235505 0.155187 -0.312566 -0.195182 0.062586 -0.226007 0.019362 0.143697 -0.090151 0.082795 -0.193788 0.188334 -0.101135 0.041712 -0.103627 0.169768 0.068905 0.062879 -0.244436 -0.032461 0.094754 0.038533 0.038766 -0.030936 -0.249562 -0.037488 -0.088483 0.005648 0.201855 0.266517 -0.289512 0.389302 0.068937 -0.093265 -0.332637 0.127891 -0.095504 0.097079 -0.041804 -0.104001 0.010600 0.022841 -0.223620 -0.047214 -0.037333 0.051255 0.011317 -0.506590 -0.338239 0.454603 0.365408 0.442366 -0.434569 -0.278612 -0.077396 0.118915 -0.118169 0.259915 0.159506 0.071827 0.128563 0.270399 0.463927 0.251339 0.049769 0.119449 -0.189681 0.059844 -0.159480 0.021066 -0.180501 0.000972 -0.371670 0.162752 -0.257976 0.143065 0.162122 0.024249 0.115726 -0.044692 -0.156011 0.123805 0.027801 0.193441 0.025144 0.098157 0.197399 -0.114233 0.195358 -0.088554 -0.285222 -0.037033 0.133502 0.205388 0.071148 0.031309 0.149630 -0.003816 -0.127200 -0.016277 0.136183 -0.296900 -0.008965 0.211430 -0.120133 0.270844 -0.327065 0.190142 -0.344618 0.299334 -0.235998 -0.038123 -0.163953 -0.051662 0.211620 0.116832 0.269296 -0.064138 0.134724 0.160638 -0.224880 0.091031 0.057277 -0.206216 -0.277865 -0.165455 0.054252 0.292680 -0.146446 0.042799 0.027394 0.105156 0.091425 -0.071922 0.015770 0.177901 0.018985 -0.006501 0.173116 -0.282301 0.116599 -0.053544 -0.101081 -0.156447 -0.102261 -0.202023 -0.079600 0.301982 0.442361 -0.019886 -0.101210 -0.001398 0.002792 -0.084082 -0.026654 -0.001183 -0.119041 -0.180891 -0.004204 0.252500 0.065302 -0.265501 -0.098220 -0.365814 0.067858 -0.010652 0.375798 0.024825 -0.086146 -0.122717 -0.030461 -0.224134 0.006078 -0.033222 0.333288 0.028120 -0.054938 -0.098208 0.257434 0.276961 -0.009852 0.318444 0.074187 -0.081474 0.180197 0.357841 0.107948 0.132089 -0.195497 0.261916 -0.263744 0.119745 0.136178 0.109980 -0.276624 -0.167027 -0.277455 -0.370165 0.051095 -0.161059 -0.321121 -0.073997 0.051274 0.219314 0.091123 0.045463 -0.214727 -0.052211 -0.267113 -0.103322 0.062108 0.246954 -0.016546 -0.354166 -0.226635 -0.081897 -0.137928 -0.216986 0.250717 -0.060251 -0.101447 0.149144 -0.172945 -0.101655 -0.140096 0.141425 0.315786 -0.033479 -0.260992 -0.083557 -0.084474 -0.305960 0.074827 -0.270171 -0.086832 -0.146131 0.290305 -0.157790 0.069127 0.115091 0.092438 0.111168 0.205463 -0.103669 0.133667 -0.226054 -0.220000 -0.011640 0.102907 -0.356378 -0.143887 -0.096593 0.096449 0.063299 0.113845 -0.244642 -0.253707 -0.168875 -0.007683 -0.022388 0.246346 -0.284192 0.117814 0.100113 -0.178263 -0.116636 -0.130141 -0.057205 -0.109052 -0.179258 0.254049 0.264276 0.274103 -0.276268 -0.154084 0.224049 -0.032264 -0.033321 0.084747 0.150870 -0.095421 -0.154736 0.129562 0.012717 0.160830 -0.118213 -0.016947 -0.398258 -0.346216 -0.038928 -0.121665 0.145792 -0.099285 0.162319 0.076884 -0.112727 -0.102111 0.151384 0.021625 -0.240960 -0.276420 0.028491 -0.181201 -0.130324 0.144792 -0.077464 0.018796 -0.049100 -0.085837 -0.096190 -0.259843 0.060875 0.061443 0.128517 0.072563 0.062304 -0.160847 0.082133 0.141911 -0.041172 0.357841 0.153347 -0.055261 -0.176328 0.134261 0.204470 0.427362 -0.252497 0.165078 0.183252 0.204677 0.255910 0.075244 -0.010953 -0.208539 -0.284701 0.109610 -0.003047 -0.254364 -0.188428 0.214220 -0.247522 0.042825 0.028569 0.439326 -0.081901 -0.134718 0.031464 0.018361 0.158778 0.318122 -0.260751 -0.092764 0.323894 -0.089598 -0.030773 0.218510 -0.070212 -0.081195 -0.281550 0.130937 -0.087118 0.217594 -0.139791 0.271146 -0.125948 -0.113730 -0.010955 -0.272156 -0.136642 0.330453 0.151255 -0.048723 -0.025914 -0.000389 -0.072118 -0.068334 0.034387 0.218721 -0.007142 -0.032332 -0.225342 -0.459073 0.407502 0.078830 0.007076 0.035639 0.096690 -0.051314 -0.053156 0.004880 0.261159 0.291745 -0.001202 0.058542 0.175964 -0.282358 0.011606 0.136797 0.133171 0.075169 -0.279215 -0.093431 -0.249085 -0.163713 -0.303063 -0.146573 -0.170213 -0.265217 0.114304 0.005445 -0.004491 -0.170415 0.074479 -0.012156 -0.023625 -0.102599 -0.174542 -0.283453 0.327802 0.172834 0.102086 0.051910 -0.165961 -0.034262 0.210633 -0.517849 -0.288486 0.016963 0.155686
kaʔa -0.119186 0.182118 -0.137417 -0.173935 -0.062745 0.018777 -0.085021 0.127172 0.007899 -0.260126 0.155382 -0.019565 -0.107846 -0.088143 0.010143 0.255970 0.111620 0.281693 0.047452 0.001586 0.060820 -0.324395 0.168053 0.040389 -0.109388 -0.034639 -0.019461 -0.107902 -0.021419 0.325877 0.253825 -0.210944 0.151148 -0.040165 0.135514 0.083330 0.039384 0.011790 0.134356 -0.118324 0.027225 0.072962 0.056664 0.114905 -0.002874 -0.228306 -0.138832 -0.420720 -0.061126 0.103047 0.054940 0.050719 0.013382 -0.078131 0.360427 -0.023997 0.367030 -0.111580 -0.126290 0.080143 0.218273 -0.043982 0.000635 -0.018754 0.106120 -0.019660 0.085975 -0.041676 0.079711 0.004923 0.047052 -0.074393 0.197951 -0.316977 -0.078591 -0.187205 -0.028347 0.230904 -0.063390 0.257070 0.199574 0.363956 -0.170160 0.032834 -0.011209 -0.234670 -0.086801 -0.198307 0.356973 0.266099 -0.192984 -0.224859 0.130829 0.009682 0.207883 0.114614 0.267849 0.116560 -0.112577 0.474204 0.122145 -0.076661 0.098122 0.093585 -0.330844 0.088765 0.032044 0.351139 0.045433 -0.278634 0.366311 0.019376 -0.180160 0.152398 0.225085 -0.156355 -0.058974 0.303873 -0.385693 -0.237005 -0.081757 -0.047851 -0.234340 0.114740 -0.232188 -0.411643 -0.245550 0.078170 0.195830 0.105262 -0.048267 0.111451 -0.080299 0.074956 -0.071023 0.119033 0.143643 -0.085308 -0.247742 0.338267 -0.089068 0.211629 0.407159 0.161219 0.346927 0.086457 0.045327 0.299923 0.380303 0.005628 0.116530 -0.037582 -0.098541 0.291021 -0.112380 0.074366 -0.204125 -0.244295 0.002950 0.196257 0.185201 -0.133256 0.090468 0.275624 -0.321705 0.145192 -0.091388 0.292290 0.117247 -0.045944 -0.145985 0.025768 0.097222 0.042344 0.197317 0.061817 -0.083658 0.019254 -0.083126 0.072241 0.030582 -0.182937 0.073956 0.127597 -0.297460 -0.215066 -0.037562 -0.054737 -0.203549 -0.099525 0.053083 0.288630 -0.110873 -0.067330 0.051800 -0.197237 0.193464 0.080021 -0.169347 -0.034458 0.005564 -0.003639 0.013353 0.026047 0.380068 -0.182955 -0.250470 0.066172 -0.046962 0.020490 -0.052385 0.188562 -0.203228 -0.154512 0.162418 -0.017968 -0.208238 0.071546 -0.050768 0.067165 0.087143 0.007328 0.003601 0.234981 -0.249663 0.124230 0.223194 -0.161092 -0.188881 -0.082518 -0.085867 0.256094 -0.194948 0.107701 0.462846 -0.003969 -0.040993 -0.050804 0.032768 -0.055684 -0.012062 0.111545 0.182545 -0.045097 0.117556 0.055983 0.058116 0.409360 0.039619 0.091609 0.128101 -0.188053 0.161442 -0.058922 0.123814 0.202632 0.093756 -0.248266 -0.179646 0.144245 0.105050 -0.245271 0.036921 -0.199064 0.397670 0.214428 0.194675 -0.021477 -0.098022 0.020616 0.195466 -0.140530 0.175483 0.236624 -0.058913 0.078141 0.143707 -0.064041 -0.137614 0.045012 0.264274 -0.000024 -0.090084 0.133693 0.175557 -0.161169 0.478476 -0.095535 -0.250439 -0.308599 0.354033 -0.275922 0.034269 -0.028226 0.096033 -0.082740 -0.060843 -0.142646 -0.315626 -0.096353 0.215057 0.372003 -0.149685 0.019658 -0.019829 -0.089196 0.201538 0.050151 0.003141 -0.080031 0.100323 -0.202944 -0.263269 0.084668 -0.102643 0.000259 -0.023875 0.061763 -0.163508 -0.057754 0.270663 -0.055064 -0.153783 -0.061405 0.023757 0.090247 -0.060227 -0.068971 -0.092639 -0.205255 -0.005188 0.048548 -0.196412 -0.185442 -0.100577 0.097562 0.127970 0.089418 -0.276645 0.258310 0.112416 0.140466 -0.381698 0.011986 0.366382 0.053662 0.018288 0.088467 0.056830 0.251106 -0.184771 -0.134526 -0.130224 0.034094 0.005076 0.049313 0.144945 -0.202294 0.235121 -0.322728 0.010551 0.044915 0.045915 -0.306188 -0.115705 -0.133962 0.227702 -0.110377 -0.054428 -0.217871 0.050850 -0.209843 -0.299210 0.160006 0.152642 0.025290 0.372999 -0.024287 0.173059 0.034974 -0.031032 -0.255115 -0.048918 0.073900 -0.138268 -0.088647 -0.176585 -0.039717 -0.347065 -0.093663 -0.202838 -0.015783 0.160388 0.106522 -0.237529 0.016653 -0.153389 0.027877 0.160492 0.026514 0.169971 -0.404397 0.162614 0.278771 -0.009556 -0.162593 -0.138142 0.134410 0.038454 -0.224096 0.178646 0.108734 -0.296242 0.036041 0.144356 0.079274 0.044840 -0.116797 0.031608 0.214892 -0.248135 -0.199220 -0.239075 -0.311366 -0.205477 -0.185474 -0.013476 0.012077 -0.097800 0.309770 0.129472 -0.115970 -0.041109 -0.178343 0.166234 -0.071754 0.058591 -0.130753 -0.083637 0.311553 -0.147205 0.049263 -0.021919 0.138073 -0.029696 0.329489 0.131367 -0.112944 0.032637 -0.191226 -0.111014 -0.042189 0.186799 -0.184592 0.069029 -0.427921 -0.016324 -0.308805 0.325590 0.301994 -0.015271 0.182908 0.021957 -0.024336 0.032501 -0.009435 -0.287290 0.159176 -0.133568 0.180122 0.283308 -0.120322 -0.072376 0.069267 -0.216821 -0.013653 0.014670 0.010187 -0.058649 -0.033438 0.122597 0.156752 -0.043033 -0.118629 0.012281 0.144188 -0.095934 -0.250765 0.131085 0.248271 0.140168 0.189661 -0.040027 -0.052188 0.187388 0.020965 -0.207539 -0.002166 -0.112183 0.044263 -0.219828 0.331154 0.155548 0.097418 0.014431 0.308614 -0.233481 0.068746 -0.024924 0.022788 0.220812 0.114016
maʔpəy 0.009338 0.157424 -0.234022 -0.019428 -0.410610 -0.032025 -0.150166 0.062147 0.197435 -0.028045 0.000261 -0.137034 0.085727 -0.054293 -0.090174 -0.241691 -0.018541 0.215309 0.199892 -0.082017 -0.126853 -0.208556 0.170780 0.206204 -0.308804 -0.067926 -0.160259 -0.090653 -0.125520 -0.222593 -0.330233 0.000082 -0.036713 0.041357 -0.049640 0.253435 -0.034413 0.101482 -0.065738 -0.019799 0.427968 -0.050579 -0.231771 0.237420 0.137484 0.023135 0.246400 0.123013 -0.087401 -0.128040 -0.115511 -0.202240 -0.161044 0.313281 0.164488 -0.087932 -0.110088 0.050571 -0.011559 0.033024 -0.090620 0.030446 -0.021180 -0.102729 0.186383 0.334244 0.140659 -0.071421 -0.139763 0.077611 -0.147778 0.294611 0.078694 -0.222650 0.043313 -0.168596 -0.022189 0.083196 0.050389 0.136675 0.079994 -0.337981 -0.089807 0.136234 -0.241250 -0.096071 0.084184 -0.000234 -0.182986 0.056513 -0.180915 0.318735 0.241413 -0.201812 -0.173251 -0.151934 0.050858 -0.118165 -0.237018 -0.158932 -0.260378 0.017874 -0.102300 0.095722 -0.381713 0.051195 -0.108183 0.341175 -0.034420 0.062269 0.344696 0.142861 -0.140239 0.079509 -0.088833 -0.050226 0.203581 0.169026 0.121870 0.106695 -0.091819 -0.213375 0.043603 -0.113538 -0.134795 -0.093309 -0.106607 0.151023 0.139450 -0.240859 0.032510 0.175885 0.274569 -0.173696 -0.304798 -0.209684 -0.154912 -0.152445 0.046632 0.107554 -0.009207 -0.335185 -0.115311 0.149928 0.139559 0.213187 0.261475 0.112187 -0.240045 0.016421 -0.054443 0.285077 0.260205 0.031799 -0.113811 -0.045479 -0.116594 -0.010361 -0.297160 0.392574 0.185749 -0.151889 -0.204015 0.341094 0.197980 0.209852 0.149454 0.226985 -0.281574 0.054117 0.005074 0.237511 -0.520387 0.178400 0.235834 -0.156224 0.253227 0.149276 0.066360 0.189299 0.176097 -0.138070 -0.169018 -0.289830 0.360614 -0.058379 0.124568 -0.235659 -0.121321 -0.024276 -0.182089 -0.195159 -0.036047 -0.195575 0.255332 -0.221141 -0.076663 -0.098597 0.344859 -0.126408 0.263477 0.271247 -0.068112 0.137840 -0.151688 -0.234811 -0.205358 0.094673 0.114359 -0.057097 0.207580 0.017495 0.322150 -0.000016 0.177723 -0.203046 0.175280 -0.175251 0.293165 -0.194664 -0.111151 -0.233026 -0.127935 0.085860 0.122836 0.033939 0.340504 0.098776 0.050433 0.192460 0.351738 -0.138104 -0.163807 -0.215336 -0.107234 0.042470 -0.003372 0.081483 -0.210036 -0.144340 0.192439 0.171677 0.083026 0.157996 -0.062183 -0.191819 -0.023345 0.122391 0.506896 -0.032530 -0.002297 -0.122630 -0.103383 -0.090645 -0.088502 -0.024220 0.138567 -0.170535 0.345478 -0.222024 0.050123 -0.120132 -0.303545 0.413711 0.082415 -0.112654 0.074156 0.254255 -0.058716 0.117408 -0.172055 -0.068997 -0.029387 0.015118 0.134057 -0.081040 0.246504 -0.031283 0.090695 0.167118 0.134634 0.187428 -0.271805 0.134291 0.023632 0.160179 -0.190752 -0.052529 0.127256 -0.208518 -0.007139 0.123808 0.028733 0.305784 0.126338 0.016032 0.000573 -0.276944 -0.125330 0.108113 -0.107729 0.408103 -0.232692 0.277369 0.087239 -0.087316 0.137497 -0.035703 -0.008165 0.003755 -0.154333 -0.004563 0.099595 -0.208974 0.115655 -0.000697 -0.337103 -0.129504 0.042662 -0.172762 0.149204 -0.148178 -0.112707 0.237858 0.184541 0.028387 0.205170 -0.336475 -0.196511 0.069954 -0.114072 0.211203 -0.399172 0.066870 0.090767 0.289810 -0.023724 -0.055199 -0.167052 0.349328 0.277475 0.386007 0.009550 -0.267740 0.009889 0.248269 -0.143607 -0.302544 -0.047409 -0.110052 0.436957 -0.308653 -0.069785 0.123416 -0.228515 -0.028835 -0.155230 0.200405 -0.453594 -0.138586 0.176119 0.118973 0.178740 -0.102643 -0.132896 -0.119738 0.016141 0.107158 0.167521 -0.117219 0.054026 -0.067388 -0.141797 0.078938 -0.276793 0.192281 -0.162194 -0.217332 -0.200330 0.269294 0.060007 -0.245513 -0.028134 0.218295 -0.395080 -0.021208 -0.110188 -0.006096 -0.042148 0.042840 -0.020897 0.085458 -0.093884 0.119022 0.087162 0.377695 -0.213579 0.352975 -0.127229 -0.225810 0.089211 0.020728 0.001429 0.426658 0.224453 0.034742 -0.136489 0.312922 -0.034303 0.082525 0.017182 0.165360 -0.234181 0.045088 -0.116314 -0.129361 0.120425 -0.272120 0.139361 -0.122299 -0.089783 0.075921 0.171060 -0.055233 0.066576 -0.144276 0.225872 0.145022 -0.104249 0.012335 0.093325 0.099719 -0.011737 -0.039212 -0.277148 0.067248 0.180925 -0.004595 0.087723 0.091921 -0.002552 -0.166264 0.141016 0.222579 -0.027430 -0.005262 0.287275 -0.101155 0.201357 -0.027651 -0.170607 0.122380 0.165563 -0.462972 0.204662 -0.003114 0.122271 0.033046 0.104856 0.341750 0.101147 0.012939 0.011647 -0.136856 -0.143072 0.152130 0.154246 -0.061387 0.024753 -0.410153 -0.066844 -0.105475 0.205890 0.392256 0.313543 0.048215 -0.136417 0.073452 0.117669 -0.113724 0.237929 -0.047888 -0.182378 -0.035253 0.119704 0.171442 -0.102323 -0.135767 -0.034694 0.170898 -0.073166 0.294366 -0.295962 0.042379 -0.373580 0.047155 0.085450 0.102514 -0.181129 -0.033705 0.062661 0.242809 0.119080 -0.061526 0.124575 -0.137565 -0.168887 0.237210 -0.141783 -0.236647 0.036421 -0.072303
nãn 0.047660 0.206778 -0.000299 0.136568 0.013736 0.160834 -0.020606 0.218610 0.006056 -0.152964 -0.255589 -0.052629 -0.516643 0.066510 -0.091080 0.239157 0.056146 -0.029543 0.445252 -0.086521 -0.075366 0.010201 0.052197 -0.289022 -0.028775 -0.158413 0.118566 -0.019420 0.267915 -0.084870 0.007234 -0.226259 0.243011 0.318122 0.045695 0.036978 -0.153175 -0.013135 -0.171903 -0.104335 0.393799 0.009194 -0.228137 0.211555 0.144122 0.002092 -0.125801 0.293697 -0.199575 -0.147797 -0.353424 0.272382 -0.202763 0.092993 0.197719 0.070663 0.111653 -0.308261 0.097760 0.074329 -0.261611 0.016341 0.185361 -0.329555 -0.115784 -0.049298 0.079787 -0.002111 0.004133 -0.154152 0.129481 0.024795 0.222320 0.208101 -0.106801 -0.137772 0.087387 0.082458 -0.118581 0.014078 -0.044793 -0.066774 0.199837 0.021550 0.046075 -0.031520 -0.213971 -0.125798 0.019606 -0.076001 0.142240 -0.115157 0.022300 0.030853 -0.049843 0.262424 -0.003723 -0.005400 -0.074429 -0.156515 -0.343894 -0.117882 0.227902 -0.204542 -0.111418 -0.049295 -0.037689 0.125702 -0.004424 -0.174314 0.395921 0.036533 -0.054866 0.156083 -0.164566 -0.164542 -0.139438 -0.055885 -0.253257 -0.055650 0.137925 -0.137112 0.058991 -0.250006 0.234409 -0.158853 -0.003701 0.197208 0.200164 0.088674 -0.183707 0.168235 0.041346 0.249567 0.006096 -0.380374 -0.276984 -0.287320 0.126468 0.097627 0.156179 0.195967 0.410288 0.366740 0.259965 0.051801 -0.175568 0.112571 -0.045534 0.001801 0.161237 0.011482 -0.080301 -0.263494 0.129196 0.000980 0.012167 -0.153912 0.142989 -0.049477 0.048250 -0.022226 -0.084694 0.210910 -0.451758 -0.006197 0.135100 -0.007187 0.003219 0.156626 0.075882 0.061332 -0.041966 -0.001225 -0.117481 0.186325 0.227881 0.067069 -0.139773 0.111664 0.137556 -0.125950 0.007919 0.155018 0.325247 -0.005101 -0.121913 0.038819 -0.023435 0.121323 -0.124955 0.182953 0.015227 0.056908 0.153010 0.158680 0.216251 0.256775 -0.010899 0.175552 0.036390 0.047414 -0.016238 -0.028637 -0.343627 0.018041 0.095838 -0.079255 -0.272826 0.031971 0.015176 0.350139 0.164031 -0.107955 0.227720 0.096617 -0.119466 -0.045806 -0.098028 -0.153279 0.046185 -0.291490 -0.195717 -0.036337 -0.011729 0.060971 -0.210698 0.112285 0.065190 -0.291401 0.200301 0.108003 0.211015 0.292718 0.042254 0.343271 -0.174658 -0.075220 0.010487 -0.123896 -0.203784 -0.117828 -0.150773 0.123575 -0.075490 -0.026921 -0.402209 0.127843 0.431247 0.007130 0.097792 0.275742 0.008535 0.026888 0.313501 -0.090383 0.023487 -0.143153 -0.291124 0.049615 -0.151888 0.043381 -0.011529 -0.077298 -0.096567 0.074252 -0.007539 -0.221596 0.078633 0.363332 0.008145 -0.131092 0.240902 0.131711 0.208762 -0.144017 0.074058 0.013058 -0.050423 0.054105 -0.083252 0.025491 -0.057820 0.021010 0.036364 -0.166041 0.183095 0.207234 0.083068 -0.364682 0.024378 -0.232309 0.261448 -0.387217 -0.174934 0.064801 -0.026821 0.054031 -0.186225 -0.094136 0.231920 0.039362 -0.403528 -0.051273 -0.399956 -0.169392 0.007734 -0.027100 0.188801 -0.141968 -0.082170 -0.183721 0.059993 0.086557 0.298653 -0.081693 0.028097 -0.000969 0.245598 0.023415 0.114858 -0.011559 -0.117499 0.101439 0.050965 0.146223 0.179687 -0.042417 -0.057402 0.042867 -0.012563 0.090156 -0.384440 0.234464 -0.158680 -0.015596 -0.023282 -0.324888 -0.194337 0.036499 -0.009196 -0.092418 0.067614 0.112810 -0.150011 0.012991 0.110982 -0.093598 0.078891 0.270644 -0.121155 -0.180626 0.304204 -0.072787 0.022903 -0.167762 0.067253 -0.296908 0.204340 0.136974 0.028430 0.025653 0.043549 -0.012533 -0.171287 -0.291150 0.252414 0.201628 -0.411255 -0.185038 -0.301598 -0.374994 -0.369428 0.236340 0.074568 0.081759 0.182274 0.050379 0.153477 0.029658 0.047206 0.333645 0.045068 0.084513 -0.082020 -0.075633 0.038484 -0.126150 -0.104373 -0.067079 -0.186073 -0.262299 -0.102148 0.142094 0.121676 0.173395 -0.194238 -0.019027 -0.287585 -0.042441 -0.218060 -0.094843 0.262791 -0.204231 0.118306 -0.133895 -0.162502 0.615565 0.337457 -0.066664 0.353315 0.308670 0.072620 -0.135984 0.052870 0.175527 0.150265 0.041128 -0.066336 0.128980 -0.004471 -0.210217 -0.075979 -0.151593 -0.178940 0.293398 0.072459 -0.117396 0.241394 0.176493 0.287308 -0.087910 0.134333 0.218156 -0.091960 0.189715 0.372907 -0.045406 0.111403 0.349113 0.017511 -0.148691 0.120922 0.084588 0.283097 0.045988 -0.198153 0.106135 0.308265 -0.093318 0.056076 0.134629 0.232960 -0.179832 -0.127789 -0.380115 -0.337020 0.083742 -0.093643 0.277485 -0.097800 0.060269 0.029324 -0.178562 -0.036721 0.272106 0.216004 -0.350377 0.005901 -0.044067 -0.027085 -0.134770 0.451802 0.162123 0.072168 0.148086 0.156746 -0.244019 -0.068286 0.039508 0.293253 -0.121428 -0.113421 -0.027035 -0.125686 -0.005326 -0.105821 0.017831 -0.368674 -0.028658 -0.180403 -0.045501 0.010241 0.019961 0.112901 -0.089699 -0.182976 -0.030647 -0.278017 -0.194117 0.011966 0.326111 -0.032893 0.114803 0.156282 0.009683 -0.032904 0.345488 -0.200508 -0.000923 0.127409 -0.350898
peʔ -0.061555 -0.143064 -0.017355 -0.128430 -0.034182 -0.027716 -0.037523 0.056549 0.063567 0.042365 0.208594 -0.153962 -0.279405 -0.074166 -0.055605 0.125004 0.121289 0.223004 -0.133253 -0.003341 0.130310 0.186171 0.385626 0.012883 0.093578 0.284881 0.086459 -0.030645 -0.036918 0.308233 0.200371 0.111371 0.155571 0.031491 0.236556 0.052993 0.087643 -0.017031 -0.052996 0.046983 -0.026790 0.116642 0.258315 0.196752 0.115831 -0.323593 0.059023 0.062134 -0.273644 0.015326 0.168499 0.203832 0.039309 -0.107643 0.270628 -0.061657 0.175243 -0.352002 0.048128 -0.157386 0.091119 0.014894 -0.144477 -0.066517 0.338805 -0.086031 -0.070322 0.014430 0.146198 -0.209259 -0.260614 0.011771 0.009888 -0.123546 -0.172560 -0.287315 -0.166229 0.153503 -0.165940 0.099714 -0.030415 0.172474 -0.090681 0.250357 -0.190867 0.035142 -0.077753 -0.062098 0.349760 0.230840 0.131954 -0.502225 0.097571 0.037734 0.213408 0.169702 0.099642 0.038193 0.147876 0.502448 -0.168029 0.222143 0.094419 -0.283976 -0.015898 0.142499 -0.070347 0.173152 -0.155133 -0.233789 0.145579 -0.175087 -0.198215 0.270102 0.291895 -0.059850 0.107673 0.097188 -0.199757 0.219631 -0.179191 -0.085934 0.186256 0.074627 -0.055841 -0.133402 0.105953 0.043487 0.178648 0.041523 -0.114776 0.191009 -0.010744 0.347648 0.023580 0.041191 0.184163 -0.128794 0.057929 0.139638 -0.128102 -0.021195 0.055793 -0.080598 0.343981 -0.111351 -0.001838 0.286015 -0.078516 0.022923 0.135438 -0.131868 -0.227856 0.201930 -0.026539 -0.189613 -0.375158 0.114754 0.116447 0.027042 0.049933 0.015909 0.072178 0.059525 0.109713 0.080240 -0.025918 0.014612 0.270173 -0.068362 -0.001315 0.047234 0.102994 0.204500 0.221724 -0.001684 -0.046964 0.000395 -0.153103 -0.179457 -0.059563 -0.199878 0.196031 0.082147 -0.320274 0.073455 -0.050879 0.034695 -0.050597 -0.131166 0.177799 0.366621 0.136692 -0.094737 -0.059990 0.064779 0.132178 0.244420 -0.136354 -0.082218 -0.314632 -0.158887 -0.020278 -0.035676 0.447425 0.101293 -0.362398 0.053671 0.123040 -0.018578 -0.214078 0.178503 -0.231265 0.095210 0.082930 0.008279 -0.046575 0.010824 0.168721 0.213309 0.025467 -0.153891 -0.122106 0.203407 0.022003 0.140324 -0.045621 0.115581 0.004979 -0.208127 0.331282 0.156207 0.048572 0.178802 0.257763 -0.034148 -0.101538 -0.108498 0.118049 -0.083234 0.155159 0.100396 -0.026177 -0.166847 -0.021657 -0.013738 -0.038779 0.088358 0.355749 0.405542 -0.125048 -0.200726 0.165099 -0.237778 0.288304 0.269425 0.426114 0.247321 -0.293930 -0.025891 -0.239099 -0.097868 0.036676 -0.335133 0.122282 -0.042342 0.170612 0.221928 -0.104025 0.010783 0.016431 0.040843 -0.111264 0.525669 0.010578 0.318022 -0.202064 -0.469114 -0.181565 -0.197735 -0.006413 -0.237146 -0.204604 -0.027706 0.086608 -0.027913 0.260284 -0.115088 -0.169728 0.254030 0.190281 -0.292322 -0.046807 0.043905 -0.128511 0.245938 -0.098282 -0.267409 -0.124166 -0.064903 0.045999 0.097425 0.062479 0.121422 0.078494 0.045858 -0.050497 0.298364 0.178113 0.116644 -0.269017 0.032816 0.033554 0.121609 -0.072181 -0.029859 0.043174 0.150660 0.053818 -0.128258 0.129722 -0.099716 0.135004 0.054487 -0.054320 -0.560731 -0.094496 -0.047400 -0.053005 -0.199539 -0.076777 -0.016606 -0.019310 0.131364 0.189984 0.053431 0.103471 -0.222442 0.200075 0.152773 -0.136166 0.221073 0.203714 -0.272830 0.202328 0.064573 -0.150010 0.121755 0.236933 0.238131 -0.110591 -0.178275 0.017363 0.100809 0.064781 -0.122797 -0.115193 0.264545 0.226163 -0.245122 -0.104608 -0.354389 0.165064 -0.362333 -0.086953 -0.071990 0.129542 -0.293037 -0.049712 -0.290379 0.009390 -0.009289 -0.185277 0.203211 0.137837 -0.126837 0.213802 0.048839 0.238371 -0.249178 -0.085497 -0.262039 -0.288260 -0.169803 -0.240263 -0.164180 0.288250 0.151737 -0.154514 0.221669 -0.259994 -0.124121 0.008887 -0.195682 -0.199736 -0.144008 0.072690 -0.070996 -0.196805 0.022305 0.196220 -0.264776 0.296313 0.007719 -0.103398 -0.010498 -0.038203 0.227250 0.271156 -0.029574 -0.060432 0.083209 0.047393 -0.096850 0.000132 0.089714 -0.022814 -0.027819 0.201771 0.193139 -0.296905 0.124745 -0.133249 -0.317969 -0.196106 0.047133 -0.041914 -0.094960 0.012242 0.127301 0.047850 0.109135 0.058544 0.065479 0.070277 0.088527 0.016844 -0.024985 -0.003436 -0.122279 0.206176 0.063384 0.082049 0.159353 0.238968 -0.151298 -0.010206 -0.247949 -0.060594 -0.308227 -0.230057 -0.036307 0.103700 -0.091541 0.169754 -0.132271 -0.083912 0.001409 0.103781 0.059812 -0.145641 0.248610 -0.025744 -0.162486 -0.014476 0.150565 -0.007804 -0.013506 -0.234441 0.116061 -0.289704 -0.304387 -0.158213 0.125502 -0.134579 -0.031976 -0.027269 -0.140241 0.113762 0.070568 0.056900 0.180355 0.223148 -0.274729 -0.015372 0.042113 -0.175644 -0.079336 -0.163607 0.184891 0.061235 0.221390 0.190025 -0.236126 -0.105587 0.103575 -0.046563 -0.010695 -0.104483 -0.192284 -0.059589 0.140966 0.019212 -0.127642 -0.143467 0.209647 -0.036679 0.120435 -0.056897 -0.234979 0.256046 0.045787
mãygãra 0.244824 -0.063171 -0.271261 0.226963 -0.169853 -0.000436 -0.343997 0.336543 0.110822 -0.221362 -0.305311 -0.265962 -0.281144 -0.221878 0.022854 -0.115081 -0.046338 0.319508 0.137108 -0.269809 0.173684 -0.223715 0.286222 -0.328695 0.057650 0.028739 -0.155759 0.101682 -0.150916 -0.137193 0.063587 0.133560 -0.205380 0.136148 0.183026 0.128078 -0.273772 0.202087 -0.201611 -0.127821 0.329780 -0.019401 -0.190681 -0.273219 0.200501 -0.026910 0.089409 0.239235 -0.156846 -0.112020 -0.086885 -0.015040 -0.084189 0.376838 0.054136 0.367289 -0.074968 -0.644008 0.180797 0.139328 -0.050863 -0.034867 -0.003603 -0.112012 0.182670 -0.464735 -0.054548 0.127255 -0.047789 -0.216281 -0.046933 -0.045135 0.018192 -0.007119 -0.075371 0.060096 -0.045075 0.419951 0.225943 -0.383989 -0.189812 0.082337 0.373225 0.031777 -0.112400 0.033334 0.000143 -0.361226 -0.377959 0.011017 0.094444 0.029059 -0.109323 0.172016 -0.053194 0.242060 -0.217527 -0.231727 0.067354 -0.017958 -0.030533 -0.296678 -0.070363 -0.385144 0.006989 -0.044370 0.003719 -0.231148 -0.109541 -0.103724 -0.040094 -0.169066 -0.521641 -0.303826 0.031862 -0.205789 0.117444 -0.343172 -0.161910 0.232860 -0.020534 0.185864 0.042230 -0.110024 0.275194 0.150662 -0.116271 -0.172597 0.362470 0.029485 0.012718 0.380038 -0.145030 -0.018171 -0.162054 -0.283998 -0.222483 -0.101837 -0.110975 0.008942 0.042509 0.245678 0.107995 0.047055 0.291365 0.046148 -0.062061 -0.094647 -0.007180 0.195525 0.089052 0.200646 -0.211533 -0.062140 0.091799 0.109910 -0.214453 -0.088663 0.024140 -0.310725 0.013698 -0.236514 -0.001152 0.029841 -0.132686 0.154672 -0.170346 -0.087815 0.117788 0.156069 0.181096 0.481254 0.263399 -0.091950 0.201145 0.121501 0.447724 0.440834 -0.105555 0.242776 -0.307521 0.111666 -0.179316 -0.025394 0.184465 0.286821 0.170404 0.054374 -0.158714 -0.054565 -0.132023 0.202591 -0.029312 0.101276 -0.144922 0.099923 0.150228 0.065891 -0.483145 0.214772 0.146137 -0.125773 0.183095 -0.170755 0.003422 -0.037008 0.130818 0.224492 -0.148475 0.104940 -0.184322 -0.063928 -0.019650 0.214959 0.140040 0.126478 -0.300506 -0.232565 0.074474 -0.044601 -0.067924 -0.046738 -0.111620 -0.048249 0.087947 0.065707 -0.045818 0.030149 -0.226808 -0.253554 -0.025182 0.145390 -0.073500 0.298041 0.091771 0.087044 -0.196988 -0.169574 0.086983 -0.160390 -0.149406 -0.106663 -0.088657 -0.106477 0.158224 -0.105755 -0.276112 0.008005 -0.134338 0.318621 0.072558 0.289843 -0.136142 -0.246472 -0.166482 -0.249130 0.028561 0.109203 -0.255836 -0.029954 -0.174873 -0.258745 -0.130048 -0.033727 0.069176 -0.192575 -0.081016 -0.368814 -0.316211 0.242257 0.161156 -0.334251 0.097296 0.067916 -0.006072 -0.146923 -0.148154 -0.227882 0.019514 -0.029832 -0.037619 0.150787 0.012773 -0.074174 0.135971 -0.160437 0.391590 -0.183679 0.273785 -0.038763 -0.205276 0.094748 0.050301 -0.218184 -0.216663 0.053723 0.179845 -0.129831 0.084025 0.074080 -0.070186 -0.063329 -0.114796 -0.131843 0.099636 0.217030 0.186221 -0.416889 -0.537072 0.042604 -0.420024 0.220639 -0.103272 -0.122190 -0.147568 -0.346981 0.030815 -0.151060 0.194982 0.030179 -0.078333 -0.042970 -0.188243 0.181832 -0.438955 0.118960 -0.036616 -0.236142 -0.116514 -0.256635 -0.199470 0.417508 -0.249788 0.298245 -0.136212 0.164934 -0.047430 0.052252 -0.271694 0.184545 0.122684 0.072534 0.101247 -0.133470 0.187002 0.188177 0.004258 -0.070228 0.402058 0.357629 0.155390 0.044446 -0.067117 0.030558 -0.017481 -0.200010 -0.009140 -0.368524 -0.134937 -0.159616 0.356138 0.231452 0.140640 -0.391248 0.009082 -0.097486 0.098487 -0.090021 -0.303098 -0.242539 -0.172368 -0.197406 0.266235 0.193570 0.175562 -0.025295 -0.217557 0.030097 -0.003514 -0.047844 0.246490 -0.189477 0.047295 0.013094 -0.112633 0.051956 0.041669 0.042631 0.143571 0.218874 -0.129479 0.001692 -0.238247 0.043994 0.080713 0.224912 -0.032232 -0.083219 -0.156427 0.093455 -0.123204 0.014171 0.062891 -0.095082 0.350103 -0.108299 -0.067983 0.030910 0.459555 0.037270 0.106182 -0.170173 0.055413 -0.007213 -0.154472 0.254537 -0.066816 -0.419823 0.092010 -0.198547 -0.296143 0.251264 -0.068160 0.331785 -0.101517 0.091419 -0.156943 0.031915 0.135284 0.029130 0.071731 -0.117343 -0.181873 -0.038859 0.289764 0.075419 0.097034 0.120606 0.143029 0.167866 0.166514 -0.115147 0.044970 0.273789 0.399176 0.092972 0.032602 -0.301397 0.169861 -0.136687 -0.224108 0.141804 0.205041 -0.036413 0.052218 -0.237249 -0.094205 0.295456 -0.012931 0.224979 -0.238517 -0.189030 0.053761 0.053033 0.023614 -0.060453 0.059491 -0.187560 0.033623 -0.066695 -0.343181 -0.011869 0.328584 -0.112595 0.106415 0.162139 0.011724 -0.085889 -0.078897 0.089613 0.132706 -0.054584 -0.123845 -0.017473 -0.189652 -0.112655 0.047737 -0.022341 -0.403342 -0.019317 0.232122 0.128606 0.303815 -0.193891 0.043716 0.001523 -0.078801 0.489533 -0.223911 -0.127088 -0.064720 0.089346 0.284995 0.254695 0.031541 0.114633 0.030976 0.340872 -0.041616 0.181291 0.047188 0.103332
ʔet -0.092953 -0.443589 0.017256 -0.139186 0.007744 -0.172945 -0.088238 0.165150 0.254378 0.160478 0.158573 -0.101842 -0.228191 -0.168293 0.082928 -0.125184 -0.207173 0.116447 0.015754 -0.145746 -0.207839 -0.145264 0.025774 0.335472 -0.011236 0.281016 0.050240 -0.113739 0.097122 0.086819 -0.133273 0.124825 0.333053 0.032730 0.275777 0.333070 0.076231 -0.037969 0.340362 -0.224522 -0.181559 0.139802 -0.010998 0.107374 0.141484 0.169565 0.080083 0.003638 0.206814 -0.025909 -0.121357 0.291920 -0.026995 -0.076486 0.267978 0.056454 0.057436 -0.274155 -0.352098 -0.256046 0.281929 -0.363688 -0.209190 0.279718 0.323549 0.215977 -0.047701 0.049897 -0.134173 0.014656 -0.138720 -0.175251 -0.102790 -0.162698 0.033064 -0.111501 -0.094875 -0.218622 -0.362061 0.200750 0.493313 0.027879 -0.210432 -0.060692 -0.196327 -0.201379 -0.042482 -0.194637 -0.064870 -0.057025 0.176359 -0.085679 -0.020318 -0.292243 0.058982 -0.140784 -0.074497 0.263558 0.054089 0.159370 0.083404 0.003941 -0.343755 -0.050827 -0.082012 0.070462 0.029812 -0.003477 0.163006 0.229926 -0.102118 0.404101 0.005739 0.203633 0.077182 0.110394 -0.108523 0.181084 -0.087097 -0.102216 -0.120804 -0.250530 0.001884 -0.020926 -0.065941 0.121584 -0.405989 0.142956 0.296145 -0.013489 -0.190075 -0.034842 0.355297 0.276631 0.006138 -0.057046 -0.127791 -0.006235 -0.281086 0.245337 0.034769 0.326450 0.038639 -0.385706 -0.040178 0.062841 -0.212920 -0.030276 0.009185 0.062810 0.053308 -0.238894 -0.001453 -0.221629 -0.273032 0.150055 -0.470749 0.361770 -0.177665 0.055206 0.055476 -0.043059 0.016059 -0.120149 0.328873 -0.064582 0.308830 0.359061 0.068629 -0.087678 0.174544 0.097261 -0.287245 0.129963 0.319510 -0.134912 -0.020143 -0.068929 0.199190 0.092425 -0.209674 0.139409 0.017631 -0.213912 -0.038862 0.050619 -0.285411 -0.032766 -0.548324 -0.178793 0.173473 0.359805 0.147028 0.239494 -0.134722 -0.251916 0.063917 -0.008885 0.321705 -0.290892 -0.139902 0.054011 -0.232372 0.191725 -0.180094 -0.208931 -0.081085 0.055612 -0.051036 0.279703 -0.259541 -0.329689 -0.004748 -0.100022 -0.041409 0.082774 -0.350428 0.127904 0.117828 -0.394238 -0.028009 -0.221000 0.031208 0.188171 0.016442 0.068783 0.058415 -0.320585 -0.103624 0.073354 0.034512 0.129801 -0.057770 -0.071163 -0.116071 -0.138109 0.241019 0.342282 0.060194 -0.527437 -0.074824 0.498742 -0.051726 -0.253456 -0.273767 -0.011594 -0.209613 0.360086 -0.121454 0.063178 0.070621 0.106984 0.163116 -0.169268 -0.389124 0.298813 0.104427 0.107578 -0.002991 -0.217708 0.039934 -0.010143 0.065140 0.072169 -0.135398 0.302852 0.300016 0.013949 -0.163434 -0.114898 0.184909 -0.172068 -0.250753 0.336627 0.346380 0.077100 -0.028262 0.126721 0.026516 -0.140795 -0.172729 -0.053862 -0.078273 0.059461 -0.216886 0.317791 0.267839 -0.095221 -0.067856 0.236312 0.096015 -0.096989 0.072961 0.286850 -0.040511 0.140981 0.141861 0.090768 -0.301016 -0.081626 0.030873 0.144915 -0.191188 0.210962 -0.156903 -0.178528 0.143948 0.447825 0.279756 -0.112682 0.151595 0.167154 -0.104560 0.081973 -0.367907 -0.330586 0.378054 -0.345328 -0.442346 -0.002716 0.109175 0.133706 0.220793 -0.313744 0.073810 -0.050565 -0.408368 -0.537881 0.337657 -0.162545 0.124722 -0.314942 0.044193 -0.071759 0.049907 0.048997 -0.060561 -0.293745 0.067045 -0.213403 -0.125154 0.017931 0.020344 -0.087942 0.246909 -0.112906 -0.339478 -0.234338 0.061082 -0.280147 0.181549 0.043342 0.164901 0.212575 0.114252 0.440597 -0.101813 0.002348 -0.040224 -0.509454 -0.169746 0.066576 0.078398 -0.143330 -0.108988 -0.235748 -0.240704 -0.108299 0.054309 -0.196879 0.238837 0.149082 -0.190997 0.035861 -0.326385 -0.075213 0.071301 0.028494 -0.148461 -0.129345 -0.239144 -0.205906 0.055754 -0.142261 -0.328971 -0.086716 0.123443 0.069767 0.259542 -0.520286 0.188655 0.175188 0.082248 0.412425 -0.361583 -0.159269 0.323061 0.039661 0.295678 0.093962 -0.126320 0.049916 0.052483 0.232064 -0.003670 -0.073980 0.243673 -0.069093 0.178613 0.045784 -0.166492 0.203086 0.179217 -0.133480 0.085757 -0.371703 -0.170905 -0.482055 0.282681 -0.144276 -0.333919 0.451511 0.271750 0.111528 -0.013572 0.125399 0.186037 0.372830 -0.132208 0.216599 -0.098457 0.331330 0.436666 -0.550442 -0.129661 0.200786 0.239288 0.021589 0.064054 -0.665053 -0.044686 0.074128 0.185911 -0.230461 -0.106551 0.058082 0.454488 -0.315717 -0.192704 0.039604 -0.433832 -0.038641 -0.111185 0.098241 -0.096532 0.141464 0.059458 -0.039676 0.006570 0.103642 0.083603 -0.093557 -0.013305 0.219736 -0.201651 -0.267773 0.100364 -0.093884 -0.112689 0.372528 -0.194987 0.077049 -0.040172 0.063079 -0.164380 -0.114338 -0.243973 0.085859 0.037679 0.126388 -0.136640 0.026759 0.222010 -0.473077 -0.026835 0.129581 0.103441 -0.008227 0.233679 -0.047304 -0.027880 0.160257 0.037661 0.189859 -0.252682 0.093653 -0.110404 -0.217808 -0.006221 0.022513 -0.217101 0.172868 0.125239 -0.224020 0.295249 -0.169486 0.042220 -0.066758 -0.221740 0.075059 -0.184722 -0.024739
ʔa -0.009120 0.285734 -0.042500 -0.104257 -0.078911 0.099638 -0.003837 0.091995 0.064408 0.020761 0.055548 -0.092206 -0.082026 -0.091584 0.065693 0.106530 -0.136697 0.385086 -0.167492 0.084150 -0.019499 -0.063107 0.388068 0.145174 -0.226664 -0.194841 -0.043322 -0.190780 -0.068832 0.429798 0.099155 -0.081916 -0.007407 0.036825 0.132059 0.132130 0.356040 0.144810 -0.173722 0.132436 0.034609 0.121279 0.156376 0.156582 0.097146 -0.379009 -0.151205 -0.320447 -0.225692 0.142725 0.140284 -0.121568 0.251946 -0.162480 0.326896 -0.130625 0.244885 -0.113798 -0.144936 -0.069218 0.143667 -0.262136 -0.148308 -0.141561 0.125827 -0.015816 -0.047606 0.215427 0.027904 -0.172811 -0.240775 0.050563 -0.003712 -0.340008 -0.187943 -0.238461 -0.178493 0.034460 -0.290832 -0.027603 0.033456 0.182257 -0.182681 -0.065721 -0.167373 -0.170478 0.072021 -0.190228 0.315888 0.126531 0.036191 -0.282717 -0.182667 0.101169 0.078523 0.155388 -0.032840 0.087911 -0.024185 0.298515 -0.007022 0.089846 0.020076 0.002453 -0.103668 0.186636 -0.071912 0.134342 -0.091380 -0.234048 0.273870 0.086967 -0.335786 0.252361 0.468664 -0.319927 -0.046915 0.219635 -0.309594 -0.035020 -0.101937 -0.050236 -0.169342 0.216469 -0.236837 -0.443087 -0.301458 0.027411 0.186308 0.002663 -0.173939 0.156633 0.012081 0.437323 -0.115808 -0.086662 0.092068 -0.076000 -0.092456 0.514755 0.022241 0.176386 0.262144 0.337478 0.126552 -0.065627 0.028320 0.169960 0.437126 -0.308932 0.005996 -0.123936 -0.303107 0.206696 -0.248787 -0.115434 -0.138442 0.065592 -0.029021 0.190158 0.159764 -0.102825 0.138798 0.039927 -0.096539 0.186678 -0.010168 0.160946 0.185003 -0.087867 -0.212402 -0.021470 0.063782 0.159252 0.124752 -0.035651 -0.055994 0.267026 -0.200487 -0.126751 -0.046578 -0.019991 0.211599 0.092648 -0.332283 0.004294 -0.161685 -0.135542 -0.292423 -0.146942 0.103397 0.453153 -0.126662 -0.084001 -0.066090 -0.096983 0.263099 0.309252 -0.137743 0.146485 -0.023878 0.126717 -0.033168 0.052756 0.349916 -0.289829 -0.466770 -0.071074 0.032438 0.142789 -0.127435 0.130073 -0.328791 -0.163499 -0.009197 -0.148483 -0.141457 0.050369 0.030480 -0.063639 0.151272 -0.080840 -0.315962 0.170828 -0.238290 0.356777 0.126759 -0.055765 -0.350396 0.151521 0.110354 0.037543 -0.010405 0.007788 0.435844 0.083878 0.000727 -0.067929 0.161956 0.027036 -0.014610 0.220122 0.216912 -0.151516 0.083309 0.180898 0.001859 0.224366 0.258159 0.047030 -0.090708 -0.338484 0.153766 -0.064964 0.400859 0.246848 0.171414 -0.110490 -0.394903 0.168996 0.032487 -0.034448 -0.032771 -0.119902 0.260706 0.223332 0.134164 0.317763 -0.027632 -0.035279 0.171416 -0.070571 0.250890 0.183607 0.000221 0.222362 0.242916 -0.287598 -0.121023 -0.199215 0.033099 -0.035330 -0.058321 0.261222 0.053792 0.009140 0.468171 -0.092283 -0.153663 0.044283 0.417329 -0.528788 0.023192 0.290596 0.309633 0.027992 -0.121637 -0.160838 -0.256099 0.070821 0.116877 0.129641 -0.120198 -0.087917 -0.275589 -0.120717 0.030917 0.182047 0.273322 -0.043892 -0.275664 0.089095 -0.202223 0.189801 -0.008550 -0.140875 0.076965 -0.068672 0.022971 -0.147920 0.408193 0.120085 -0.120769 0.194826 -0.018225 -0.177518 -0.194818 -0.271975 -0.081027 -0.220780 0.096902 -0.252801 0.106879 -0.334170 -0.102069 0.081085 0.304313 -0.006415 -0.279558 0.220502 -0.226911 0.111273 -0.244987 -0.165427 0.253820 0.111682 -0.037392 0.072034 -0.073402 0.211689 -0.059503 -0.031016 0.103117 0.281649 0.234949 -0.135669 0.065400 0.184774 0.341509 -0.304610 0.051472 0.103276 0.181069 -0.512947 -0.005859 -0.035447 0.279547 -0.119834 -0.014613 -0.251713 0.104269 -0.103119 -0.297638 0.124029 0.179545 -0.222072 0.312151 0.097482 0.174568 -0.115256 -0.096311 -0.033978 -0.142145 -0.079994 -0.252666 -0.254915 0.219990 -0.025336 0.019007 0.030796 0.018413 0.121271 -0.016384 0.030797 -0.260933 0.005797 0.117346 0.079998 0.038282 -0.027432 0.028019 -0.126353 0.511891 0.390487 -0.087127 -0.134263 -0.091815 0.275327 -0.102599 -0.217899 0.198373 0.147263 -0.053378 -0.025060 -0.014745 -0.076103 -0.127455 -0.212672 0.193840 0.147534 -0.210211 -0.071705 -0.244390 -0.345987 -0.130365 -0.275471 0.165387 0.037443 -0.077626 0.189279 0.235921 -0.017886 -0.061148 -0.008215 -0.144762 -0.088187 -0.050856 0.146242 -0.109104 -0.040106 0.199251 0.123917 0.068831 0.248455 0.050524 0.405141 0.157561 -0.080510 -0.111630 -0.319016 -0.316820 0.030485 0.207220 -0.104217 0.134937 -0.302645 -0.214147 -0.188662 0.070632 0.164576 -0.017584 -0.002799 0.149009 -0.075089 -0.012352 0.186993 -0.175226 0.049479 -0.038560 -0.001968 -0.060959 -0.098308 -0.208332 0.045659 -0.314887 -0.038693 -0.277356 -0.099778 -0.056966 0.069804 0.156365 0.161824 -0.113475 -0.143649 -0.188479 0.126499 -0.076001 -0.482373 -0.079440 0.147282 -0.052350 0.052361 -0.104542 -0.386390 -0.027644 -0.066005 -0.178773 -0.005663 -0.092703 0.014699 -0.001405 0.212385 -0.029235 0.004046 0.054703 -0.036536 -0.307031 0.137172 -0.251690 -0.222307 0.329385 0.157709
cú -0.007594 -0.378780 -0.109096 0.076293 -0.042547 -0.163976 -0.234496 -0.122616 0.303071 -0.355076 0.122391 0.078300 -0.222513 -0.260486 0.314682 0.058958 0.248928 0.123544 -0.295511 0.097981 0.003951 -0.160438 0.178772 -0.264670 0.287475 -0.098320 -0.138347 -0.108112 -0.028913 0.248467 0.246137 -0.050744 -0.170261 -0.196929 0.188369 -0.027588 0.099683 0.215377 0.105608 -0.205064 0.113060 0.110012 -0.207758 0.159266 -0.252762 0.238302 0.449338 0.104668 -0.187048 -0.243295 -0.210469 -0.008739 0.107603 0.039826 0.127861 0.237251 0.069832 -0.327821 0.319919 0.027287 -0.152238 -0.306269 -0.079353 -0.167510 -0.098392 -0.128173 0.020762 -0.130602 0.093285 0.228331 -0.312666 -0.190024 -0.136939 -0.230533 -0.138160 0.215162 -0.093487 0.022282 0.177083 0.018880 -0.126673 0.505181 0.015485 -0.196223 -0.040120 0.104003 0.153572 0.201857 0.173720 0.137074 -0.006994 0.182439 0.186226 -0.061522 -0.066592 0.277822 -0.050517 -0.185141 0.096462 0.137254 0.047922 0.154490 -0.548014 0.116477 0.222827 -0.120670 0.263234 0.230444 -0.098233 -0.060403 0.130836 -0.200989 -0.185260 -0.012133 0.295598 -0.170713 0.407778 -0.046228 -0.176758 0.025775 -0.425291 -0.020469 0.115720 0.366524 0.168141 0.028068 -0.171119 -0.100418 0.045261 0.441736 -0.014852 0.166394 -0.209594 0.195662 -0.283556 0.146976 0.165295 0.128266 -0.051430 -0.024272 -0.069509 0.033807 0.199260 -0.199879 0.560155 0.005409 0.057826 0.373455 0.151513 0.179896 0.114872 0.059705 -0.182423 -0.062495 -0.060070 0.373348 -0.004936 -0.206921 0.024105 -0.016901 -0.023034 -0.015678 0.112609 0.218997 -0.193632 -0.010214 0.057855 0.233052 0.404359 0.205071 -0.047752 -0.021052 -0.135149 -0.019402 0.220053 -0.015215 -0.025938 -0.099891 0.011807 0.252535 0.020828 -0.036077 -0.154336 -0.126067 -0.008791 0.165821 0.434816 0.068850 0.270932 -0.035853 -0.125715 0.094221 -0.064878 0.061358 0.138577 0.119793 -0.035339 0.390353 -0.056527 -0.033540 0.141158 0.161721 -0.140341 -0.025800 -0.043747 -0.257157 -0.179668 -0.162207 0.228549 0.062337 -0.268930 -0.031963 0.213983 -0.028800 0.295531 0.046660 0.182870 -0.216443 0.168399 0.101174 -0.188511 -0.059628 -0.031527 -0.008037 0.096594 0.242097 0.174995 -0.173704 -0.016433 -0.182773 -0.294740 0.122168 -0.352697 -0.030085 -0.066507 -0.344083 -0.348745 0.340287 0.137364 -0.024876 0.099772 0.150992 -0.058292 0.090816 -0.097698 0.000397 0.008844 -0.042053 -0.165645 0.396052 -0.158298 -0.299458 0.023330 -0.349465 -0.136137 -0.162681 -0.381856 -0.133559 -0.144329 -0.201816 0.033630 -0.275334 0.113971 0.269914 0.312216 -0.216944 -0.164368 -0.096801 -0.032764 0.100575 0.039143 -0.128162 0.017496 0.198652 -0.101483 -0.268519 -0.216856 -0.158648 -0.177359 0.284667 0.081155 0.065858 -0.126090 0.328696 0.145183 -0.278968 0.008306 -0.099110 -0.016004 -0.101549 0.288263 -0.022485 -0.055774 0.075360 -0.199223 -0.010069 0.115484 0.048739 -0.274470 0.018531 -0.161040 -0.073693 0.160963 0.012935 -0.004462 0.165785 0.350237 -0.008849 -0.215159 -0.208050 -0.300552 0.350839 -0.060985 0.014444 -0.102547 -0.178659 -0.093620 -0.070560 -0.036603 0.205645 -0.017205 -0.024885 0.080126 0.146470 -0.073280 -0.055969 -0.152999 -0.282692 -0.155979 -0.095716 -0.212896 0.233370 0.096470 0.277762 0.060856 0.111785 0.022718 0.299553 -0.376198 0.027718 0.312883 -0.035228 -0.099378 -0.264544 0.439929 0.087044 0.080428 -0.048605 0.213405 0.253479 -0.091081 0.044870 -0.298324 0.127045 -0.140790 -0.092485 0.079015 -0.067522 0.052175 -0.407135 0.242483 0.041876 0.010387 -0.341488 0.150244 0.093376 0.159563 -0.156354 0.240579 -0.360013 0.134018 0.151061 -0.136157 -0.066639 0.244351 0.104882 -0.046122 -0.021769 -0.039606 -0.237096 0.000470 -0.409463 0.159525 0.035832 0.388984 0.312120 -0.101604 -0.122550 -0.186668 -0.054623 -0.130365 -0.202265 -0.197653 -0.197233 0.124205 0.338950 -0.000230 0.084969 -0.041850 0.136054 0.081929 -0.221983 -0.103079 0.064064 0.118368 0.218389 -0.112116 0.022190 0.360284 0.024335 -0.042534 0.010716 -0.159521 0.307402 0.277147 0.149907 -0.091018 -0.194255 -0.106433 -0.187410 -0.368423 0.140445 -0.016272 -0.234575 -0.454066 -0.006102 0.081533 0.097219 -0.004267 0.118390 0.217448 -0.005062 -0.168472 -0.234493 0.027451 0.061270 0.046460 0.109825 0.263391 0.269508 0.084196 -0.301352 -0.010993 0.003724 0.268569 -0.038725 0.209381 -0.101764 -0.107524 -0.050688 -0.112659 -0.036980 0.070737 -0.146759 0.030029 0.011572 -0.123999 0.147623 0.113298 0.264482 -0.238754 -0.033431 0.226067 0.332758 0.096118 -0.290188 0.023156 0.067242 -0.028825 -0.056814 0.142915 -0.091026 -0.080021 -0.164653 -0.061411 -0.300125 0.067401 -0.018253 -0.157316 0.115363 0.063866 0.245119 -0.098551 -0.241597 -0.175705 0.086165 0.091235 -0.114666 -0.160946 0.262061 0.403030 0.140343 0.178436 -0.216721 -0.142672 -0.067618 -0.050527 -0.072117 -0.060806 0.160733 0.092349 0.173573 0.294542 0.215409 0.158960 0.140332 -0.179164 -0.080251 -0.031357 0.106000 0.302112 0.218091
aʔtoy 0.029922 0.225022 -0.243020 0.076257 -0.421085 -0.025588 0.103870 -0.030321 0.027506 -0.245321 -0.263885 -0.128651 -0.332857 0.078106 0.004553 -0.083352 0.008045 0.119089 0.117371 -0.053933 -0.291390 0.026331 0.204822 0.121023 -0.271087 0.015680 0.087970 -0.361321 0.074168 0.274445 -0.051523 -0.056187 0.159763 0.209288 0.225057 0.086132 -0.004286 -0.196995 0.056506 0.207233 0.161116 -0.098678 0.149395 0.022289 0.211290 -0.134775 0.015166 0.262477 -0.096259 -0.033296 -0.209119 0.122937 -0.111315 0.153302 0.041676 -0.276146 -0.311183 -0.108105 0.063595 0.104276 0.048280 0.070060 0.156949 -0.400319 0.111328 0.098398 -0.226831 0.157891 0.073176 -0.041392 -0.123304 -0.104339 0.090506 0.244347 0.050082 -0.336956 -0.096786 -0.005783 0.048446 0.172837 -0.121858 0.013575 -0.360768 0.315710 0.124075 0.237961 0.090645 -0.001958 -0.027213 -0.159513 -0.108630 -0.032843 0.244441 -0.238532 -0.191974 0.030302 0.200415 0.174884 0.112547 0.198418 -0.055915 -0.077658 -0.122200 -0.051597 -0.069068 0.056715 -0.463986 0.173288 0.180110 -0.107117 -0.082362 -0.042801 -0.214592 0.348307 0.088250 -0.394669 -0.078925 -0.224511 -0.077366 -0.046306 -0.038771 0.065573 -0.021134 -0.013628 -0.149483 0.281680 0.014303 0.138537 -0.030163 -0.259055 -0.360177 0.111111 -0.141832 0.115522 -0.130792 -0.226378 -0.005671 0.120081 0.133226 -0.004162 0.077195 0.054757 0.296930 0.088710 -0.142749 0.161656 -0.426879 -0.011276 -0.041940 0.116959 -0.142843 0.176917 0.162788 -0.151442 -0.165260 0.005254 -0.464126 -0.249715 -0.270372 0.059862 -0.141744 0.107822 0.261677 0.020113 -0.216547 0.033027 0.114215 -0.122003 -0.021612 -0.165843 0.181313 0.002294 -0.042420 -0.054805 -0.009710 -0.042235 0.028814 0.118902 -0.013146 0.070284 0.151597 -0.424626 0.264612 -0.182948 -0.011685 -0.081707 0.026294 0.077230 -0.186125 -0.049657 -0.131477 0.259180 -0.170406 0.105425 0.238606 -0.040191 0.173736 0.168596 -0.204137 0.006781 -0.208326 0.011802 -0.117245 -0.007581 0.099447 -0.307624 0.205846 0.107793 0.221043 -0.193556 0.008139 0.096987 -0.347296 0.124461 0.391862 -0.013540 -0.138429 -0.121607 0.204052 -0.065268 0.181622 0.145735 0.028395 -0.173100 0.063431 -0.150375 0.028818 0.059688 -0.300455 0.101055 0.114112 0.191943 0.016410 -0.263864 0.044111 -0.009710 -0.098199 -0.151611 -0.124278 -0.272024 -0.186267 0.108515 0.307670 -0.217699 -0.085452 0.010166 0.056005 0.026042 0.239284 0.249056 -0.128520 0.068215 -0.082756 -0.102572 0.245747 0.015947 0.043143 -0.072101 -0.345248 -0.031652 0.080775 -0.159104 -0.113605 0.137622 0.070208 -0.138393 -0.045651 0.224633 -0.052178 -0.360648 -0.094464 -0.117760 -0.250075 0.143839 -0.026217 0.009761 -0.044208 -0.116523 -0.371263 -0.405064 0.133211 0.085690 0.337303 -0.168305 -0.089775 0.276203 0.053729 -0.041153 -0.219435 0.123718 -0.361150 0.311185 -0.257685 -0.044717 0.328394 0.016303 0.105633 -0.101801 -0.101097 0.162401 -0.072163 0.221346 -0.135215 0.207257 0.334811 0.092801 -0.200406 -0.204368 0.050010 0.075734 -0.189317 0.120519 0.187271 -0.170871 0.091361 0.113505 -0.242531 0.139336 0.106512 -0.094466 -0.080959 0.025918 -0.280426 0.277097 0.104917 -0.062715 0.126516 -0.233605 -0.180504 -0.010687 0.148554 -0.032243 -0.036961 0.273472 0.069979 -0.061723 0.162617 -0.223690 -0.237436 0.234843 -0.034748 0.312051 -0.228196 0.089970 0.123996 -0.013515 0.001633 -0.144375 0.089172 0.085251 0.191614 -0.288522 -0.210948 0.243750 -0.052881 -0.081854 -0.018588 0.090215 -0.085234 -0.111296 0.223150 -0.037575 0.233001 -0.166670 -0.125549 0.150881 0.328114 -0.012401 0.024707 -0.085457 0.048527 -0.303534 -0.084824 0.006630 0.048715 0.095361 0.153985 -0.158856 0.111203 -0.308319 0.073342 -0.083281 -0.167216 0.164330 -0.176985 -0.099507 0.028134 0.024987 0.291104 -0.034438 -0.104811 0.062025 0.232315 0.163447 -0.188620 0.105340 -0.014615 0.073301 -0.020196 -0.168626 -0.161428 -0.050720 0.077288 0.131844 0.123013 -0.098538 -0.303770 0.219469 0.400355 -0.042380 0.222465 -0.015142 -0.070439 -0.293729 0.109409 0.179628 0.049867 -0.311255 0.014394 -0.022332 -0.091035 -0.002131 -0.174191 -0.034301 0.080816 0.062214 0.182560 0.191338 -0.110353 0.072317 -0.166546 -0.028878 0.082223 -0.121034 0.000137 -0.156268 -0.201575 -0.110749 -0.097928 0.174199 -0.224668 -0.072969 0.094396 0.181583 0.102732 0.152949 0.177101 0.126535 -0.091586 -0.221376 -0.053633 0.133536 0.291479 0.111486 0.118266 0.043431 0.058874 0.317501 0.220379 0.155851 0.086606 0.187042 0.130864 -0.166536 -0.057978 -0.068096 0.210209 -0.054000 0.018636 -0.238926 -0.225560 0.168823 0.289941 -0.166990 0.047328 -0.111440 0.100909 -0.043981 0.094286 0.125295 0.149282 -0.114119 -0.208607 0.060704 -0.117632 -0.188749 0.108126 -0.242085 -0.275439 -0.089920 -0.082741 0.003762 0.393338 -0.136485 -0.161110 0.092575 -0.218702 -0.020287 -0.020509 0.032358 -0.039206 0.113669 0.098124 -0.017943 0.073095 0.032182 -0.107164 -0.053768 -0.064909 -0.212400 0.246960 -0.181839
ip -0.081118 -0.157755 -0.150514 0.127791 -0.058752 -0.141490 -0.265337 0.116987 -0.000097 -0.513106 0.042654 -0.220313 -0.217310 0.128614 -0.181451 -0.139877 0.165009 -0.018050 0.078846 0.069583 0.226323 0.098563 0.299184 0.166063 0.135071 0.078070 -0.105840 -0.122497 -0.123277 0.026803 0.159058 0.185261 0.258191 0.039141 0.051389 0.196193 -0.012582 -0.227531 0.225419 0.070199 -0.092285 -0.298535 -0.192118 0.090116 0.115505 -0.170979 0.230724 0.061172 -0.043806 0.057636 0.106056 -0.043813 0.012033 0.443102 0.237883 0.225137 -0.143954 -0.046422 -0.246841 0.170307 -0.108072 0.181761 -0.084160 0.203135 0.079037 -0.058066 0.056109 0.058210 -0.017163 -0.020433 -0.131259 -0.026020 0.130716 0.125197 -0.096263 -0.158487 -0.113223 0.103124 0.434053 0.036579 0.019666 0.148624 -0.177406 0.257186 -0.022132 0.138037 0.006435 -0.150027 -0.220704 0.085988 -0.125944 -0.302584 0.015797 -0.269951 -0.208852 -0.118328 -0.051298 -0.121015 0.022867 0.186120 0.079758 -0.355095 0.093364 -0.004189 -0.101920 0.154517 0.102285 0.052228 -0.169091 -0.075060 -0.106198 -0.066817 -0.310379 0.057338 0.081348 0.141662 0.008280 -0.178636 0.129444 0.060125 -0.285820 -0.187070 -0.049737 0.115730 -0.097230 0.058281 0.145522 0.069073 0.136532 -0.006995 0.226486 0.232886 -0.000732 -0.152857 -0.257846 0.041662 -0.100512 -0.346839 -0.091003 0.117429 -0.006067 -0.028903 0.107134 -0.231376 0.346676 0.284425 0.287294 -0.084412 0.144524 0.107301 0.192379 -0.056768 0.149883 0.013398 -0.157495 0.113527 -0.175873 0.009166 -0.016838 -0.058696 0.179001 0.076117 0.116869 0.095898 0.101871 -0.173652 -0.161791 0.262304 0.222739 -0.217841 0.178874 0.057218 0.024701 -0.150807 -0.026894 -0.022520 -0.006337 -0.056231 0.286211 0.185954 -0.044858 -0.003567 -0.126578 0.011438 -0.214398 0.145558 -0.029746 0.115087 0.179856 -0.046923 0.149660 -0.113799 0.099515 0.071466 -0.008910 -0.114077 -0.031821 -0.082212 0.147144 0.173159 -0.014645 0.046129 0.000930 -0.017885 0.451607 -0.296800 -0.144126 -0.017905 -0.048110 0.043989 -0.190937 -0.074952 -0.234703 -0.069329 0.405486 0.194441 -0.273002 0.058271 0.016564 0.083077 -0.006300 0.011131 0.265701 0.236112 -0.257622 -0.230596 -0.018375 0.109354 -0.217045 0.089561 0.041560 0.097749 -0.031223 -0.121621 -0.171379 -0.181542 -0.038729 -0.376234 -0.060149 -0.236488 -0.004909 -0.166223 0.057106 -0.248675 -0.020378 -0.122343 -0.099130 0.261647 -0.101487 0.200818 0.004804 -0.354389 -0.071337 -0.201713 -0.266027 -0.126971 -0.081328 0.188624 0.136936 0.002932 0.051081 -0.347351 -0.100016 -0.130353 0.249896 0.044629 0.105323 0.005176 -0.051848 0.021324 -0.150836 -0.210816 -0.014653 0.063110 0.219641 -0.086772 -0.112792 -0.195316 -0.197606 -0.202204 -0.151588 0.024428 0.144159 -0.018076 -0.180984 -0.099518 -0.171585 0.111722 -0.106915 -0.007807 -0.140506 0.247280 0.035218 0.291787 0.278359 -0.013044 -0.378596 0.143517 0.098953 -0.270598 0.032287 0.108750 0.008841 -0.030625 0.234262 -0.161090 -0.010427 0.119622 0.140217 0.010602 -0.196460 0.067791 0.068275 -0.287970 0.166313 0.013436 0.033390 -0.115141 0.092880 -0.162687 -0.042939 0.228585 -0.060153 0.157785 -0.101504 -0.133554 0.162108 -0.046351 -0.205077 0.062307 -0.035679 0.102611 -0.003616 0.077684 0.020195 0.047154 -0.138806 0.088840 -0.020120 0.146851 0.173403 0.436444 0.385912 -0.058095 0.010003 0.092789 -0.015824 0.021133 0.144110 0.091388 0.339214 -0.127747 -0.178480 -0.033613 -0.469679 0.084234 -0.138315 -0.133077 -0.438202 -0.091887 0.383145 -0.077145 0.252654 0.266073 -0.099450 0.088206 -0.313060 -0.213724 0.040112 0.018171 0.011298 -0.119100 0.001738 0.096813 0.010990 0.124461 -0.074916 -0.251157 0.103973 0.289701 0.062657 -0.217716 -0.107328 0.154393 -0.078305 -0.231237 -0.076423 -0.071352 0.111211 0.400662 -0.139422 -0.062140 0.085451 -0.216329 -0.164847 0.108846 -0.035164 -0.119772 -0.154178 0.025733 0.149746 -0.357240 0.035330 -0.141367 -0.149054 0.035484 -0.180313 -0.142854 0.259884 0.048743 0.092633 -0.227992 -0.110518 -0.060721 -0.093456 0.261610 0.090098 -0.157111 -0.040357 -0.051547 -0.252487 -0.322675 -0.258232 0.021580 -0.291170 -0.072535 -0.202645 0.154347 -0.055985 0.258408 0.101765 -0.112399 -0.170204 -0.183799 0.087095 -0.059879 0.152083 -0.036372 -0.158733 0.152929 -0.273392 0.008037 0.175875 0.004298 0.185482 -0.179912 0.203533 0.095597 0.132014 0.026417 0.016084 -0.052686 -0.088510 0.118284 0.095588 -0.068375 0.261237 0.186038 -0.013792 0.239327 -0.090645 0.167212 0.065860 0.212810 0.047709 -0.102458 -0.032487 0.092106 -0.109074 0.103574 0.038001 -0.044238 0.148316 -0.017585 0.009707 -0.047062 0.433400 -0.024849 -0.089095 0.168256 0.185801 0.004308 0.026248 0.063606 0.043076 0.091690 0.141001 0.093733 0.248775 -0.112193 0.151504 0.291918 0.176702 0.013615 -0.018744 0.181507 0.103056 0.061552 -0.039271 -0.072074 -0.056733 0.026358 -0.101082 -0.143864 0.019912 -0.170353 0.161827 0.035514 -0.214720 -0.112043 0.110632 -0.084945
maʔwɨt -0.284004 0.102190 -0.005060 -0.021022 -0.218176 -0.124071 -0.029938 0.077653 -0.131434 -0.222420 0.258841 -0.105647 -0.325135 -0.034415 0.193296 0.013176 0.230375 0.007773 0.103464 0.144027 -0.132869 -0.038764 0.180122 0.199985 0.095118 0.101591 -0.121125 -0.041311 0.177922 0.281433 0.049633 -0.289956 0.056855 -0.037763 0.293088 -0.202296 -0.046698 -0.163104 0.127655 0.015644 -0.008322 -0.107115 -0.296333 0.050104 -0.093622 0.037707 0.136651 -0.217041 -0.154700 -0.146762 0.125153 -0.168486 0.043849 0.029006 -0.064431 -0.262412 -0.026990 -0.110736 0.067526 -0.023303 -0.067343 -0.031881 0.072270 -0.141485 0.071054 0.044670 -0.078424 0.097501 0.154760 0.220699 -0.173036 -0.028821 0.147217 0.158586 -0.160370 -0.361365 0.002435 -0.229804 0.083508 0.056300 0.020328 -0.015793 -0.189184 0.199255 -0.049261 0.136474 0.325608 -0.081857 0.187795 0.338094 -0.068924 -0.143915 0.216026 0.007510 -0.209904 0.049268 0.218466 0.061105 -0.039964 -0.096699 0.108289 0.013634 -0.118335 0.084160 0.164156 -0.029359 0.083547 0.130880 -0.204343 0.033232 -0.208092 0.215633 0.009594 0.190104 0.038377 0.198453 0.076839 -0.142289 0.091408 -0.301406 0.066233 -0.101155 0.131078 0.141970 -0.159017 -0.226813 0.067307 -0.049724 -0.049024 0.251254 -0.015944 0.045623 0.079146 0.011699 -0.126748 0.066157 0.080209 -0.038207 -0.161422 -0.047278 0.084751 0.059284 0.098491 0.039323 0.215468 0.536364 0.111695 0.159813 0.344640 0.135339 -0.237360 -0.283627 0.021039 0.128018 -0.348860 -0.060297 -0.292078 -0.188102 -0.005823 -0.054119 0.023177 0.155647 0.212955 0.155255 0.081761 -0.201371 0.283228 0.070415 0.281461 -0.158794 -0.034917 -0.303814 -0.172144 0.054023 0.121644 -0.105919 -0.188621 -0.217328 0.514161 0.016617 -0.052155 0.175275 -0.114898 0.031995 0.024645 0.020835 -0.123961 0.030997 -0.149206 -0.218767 0.259031 0.008203 0.068128 0.265864 0.153576 -0.200572 0.295123 0.101754 0.006271 -0.195167 0.061979 -0.103075 -0.141992 0.110209 0.184947 -0.326146 0.040242 -0.100062 0.453565 -0.235433 -0.223027 -0.215310 -0.268134 -0.005523 0.031251 -0.141340 -0.374723 -0.093168 0.307959 0.256936 -0.013660 0.167420 0.210665 0.141216 -0.098352 -0.208664 0.098217 -0.071916 -0.091508 0.007828 -0.120274 0.029165 0.028052 -0.047681 0.147901 -0.085770 -0.107614 -0.161996 -0.183218 -0.502989 -0.136894 -0.012226 -0.042932 -0.022885 0.091259 0.106546 0.065191 0.017637 0.301562 0.348320 -0.068961 -0.336649 0.114339 -0.213808 0.120653 0.039560 -0.047487 -0.139350 -0.037320 -0.050665 0.070076 -0.269042 0.281744 0.136756 0.058000 0.085615 0.164817 0.207240 -0.139189 -0.188831 -0.324162 -0.080931 -0.220988 -0.013726 0.036764 -0.238035 0.055764 -0.265839 -0.241908 -0.050086 0.084550 -0.125538 0.186641 0.042157 -0.221083 -0.099452 0.010851 -0.202521 -0.308237 0.159850 -0.049737 0.239281 -0.119992 0.008314 0.281930 0.080942 -0.106869 -0.006738 -0.348869 0.010063 -0.011379 0.155969 -0.058569 0.243574 0.009588 -0.052838 0.361043 -0.174959 0.306953 -0.079851 -0.175248 0.074301 0.106530 -0.144516 -0.081712 -0.268317 0.117169 0.066336 -0.082970 -0.002522 -0.226688 0.075703 0.068067 -0.023472 0.098822 0.061234 -0.127646 -0.067053 -0.115005 0.091201 0.426288 -0.047017 0.024474 0.019950 -0.009658 0.178104 -0.133929 -0.158700 -0.248515 0.039270 0.051504 0.198877 -0.147411 -0.044804 0.195903 -0.042950 0.025441 0.012136 0.101166 -0.092272 0.221871 0.035746 -0.193694 0.085554 -0.161051 0.280294 0.157089 -0.046286 -0.090408 -0.302082 0.078818 -0.022210 -0.016375 0.085345 0.010405 -0.079626 0.062950 -0.254860 0.145675 -0.079585 0.156496 -0.049598 -0.149199 0.080962 -0.156976 -0.022009 0.266223 -0.372949 0.027783 0.130608 0.111025 0.027802 -0.090429 0.265683 0.038628 -0.216475 -0.054722 -0.073711 0.014882 -0.256712 0.339434 0.039335 0.133462 0.143478 -0.278060 0.316515 -0.006859 -0.068928 0.346274 -0.198793 -0.097136 -0.040756 -0.077229 0.053943 -0.093801 0.156693 -0.344898 -0.126310 0.044912 0.013168 0.037308 0.244412 0.089829 -0.115266 0.016296 0.147308 0.152990 -0.156922 -0.278436 -0.014995 -0.006072 0.064567 -0.274125 0.022803 -0.097172 0.214696 -0.012200 0.102670 -0.223367 0.262837 -0.168682 0.056816 0.031179 -0.164051 0.019338 0.033090 -0.022925 -0.200611 -0.077364 -0.192541 -0.287443 0.451027 0.129223 0.054230 -0.018039 -0.000677 0.204430 0.172919 -0.113011 -0.031308 0.080436 0.044980 0.033030 0.154035 0.284244 0.133407 0.449028 0.124440 0.198080 -0.013552 -0.180571 -0.010242 0.238790 0.175270 0.138129 -0.134247 -0.061890 0.160346 -0.013448 0.142883 -0.059075 -0.151836 -0.049686 0.016458 -0.013796 -0.025791 0.143888 0.189313 -0.002253 0.080367 0.108354 0.053901 -0.018302 0.157768 0.102592 -0.106089 0.110756 -0.046143 -0.180186 -0.162597 -0.027301 0.057116 -0.144101 0.052193 -0.168005 0.119973 -0.237557 -0.016804 -0.077654 0.004691 -0.025505 0.306028 -0.027604 -0.112348 0.184379 0.139205 -0.232998 -0.057407 -0.395315 -0.262262 0.039395 0.039491
ẽn 0.053492 0.085082 -0.197888 0.531240 0.282374 0.201705 -0.424361 0.601592 0.018957 -0.048890 -0.086928 0.083329 0.244346 -0.141576 -0.010256 0.010468 0.272265 0.162717 0.145861 -0.062690 -0.135627 -0.128145 0.152430 -0.334236 0.112445 -0.439105 -0.237994 -0.262815 -0.047178 0.059915 -0.061423 0.242476 -0.301638 0.224050 -0.284176 0.173184 0.097482 -0.097362 0.195928 0.000583 0.310130 -0.094859 0.298732 0.389932 0.237785 -0.259722 -0.012496 0.128594 -0.031406 -0.082903 -0.168467 0.057743 0.110196 0.191108 -0.114401 0.134026 -0.291137 -0.070466 0.064717 -0.028907 -0.029739 -0.001475 0.192455 -0.139440 -0.258799 -0.026071 0.100830 0.052385 0.094512 -0.196040 -0.140939 -0.078826 -0.107366 -0.271768 0.446191 0.072594 -0.271943 0.142713 0.241307 -0.107440 -0.329393 0.213800 -0.064456 0.085142 0.086351 -0.060051 -0.167948 0.120364 -0.253751 -0.033530 -0.070038 0.073418 0.116027 -0.046977 0.066653 0.278258 -0.061135 0.148951 -0.283578 -0.318906 0.172895 -0.386834 0.106727 0.192122 -0.276451 0.346464 -0.016026 -0.242476 0.085215 -0.108722 0.500617 -0.066410 -0.251118 -0.308938 0.171740 -0.285006 0.312797 0.064897 -0.136508 0.104923 -0.109727 -0.388568 0.054648 0.119608 0.063250 -0.125022 -0.062437 0.221242 0.269204 0.259462 0.047765 0.342491 -0.411520 -0.266505 -0.053798 -0.048838 -0.119422 -0.217032 -0.044500 0.196475 0.007604 0.096074 -0.231762 0.004781 0.300286 0.027266 -0.039510 0.192879 0.267072 -0.429135 0.363215 0.228491 0.061672 -0.063320 0.051442 -0.044419 -0.007030 -0.115970 0.204755 -0.099021 -0.084735 -0.127460 0.289511 -0.039608 -0.067149 0.004874 0.007863 0.226197 0.384049 -0.131604 -0.280097 0.156934 -0.157467 -0.055568 -0.035469 0.067527 -0.024675 0.161028 -0.163219 0.172478 0.258839 -0.032231 -0.149106 0.058804 0.167911 0.154045 0.100748 0.195650 0.206432 0.200036 -0.045537 -0.092568 0.158656 -0.264670 -0.170200 -0.148676 0.062231 -0.189542 -0.036039 -0.027024 0.352394 0.040337 -0.217071 -0.246363 0.287293 -0.076627 -0.223094 0.042506 -0.252176 -0.022049 -0.082926 0.165621 0.084414 0.029326 0.238491 0.100291 0.120818 -0.020749 -0.035487 -0.543806 0.171183 -0.261455 -0.232790 0.178511 -0.198123 -0.094703 0.236979 0.058940 -0.256788 -0.044849 0.087388 0.218661 0.020135 0.001433 -0.171540 -0.194214 -0.090193 -0.221944 -0.120607 0.403382 0.097347 0.048973 0.207200 0.046599 0.307335 0.035271 0.018143 -0.019911 -0.391737 0.485968 -0.140506 -0.261937 -0.242803 -0.264031 0.168340 -0.092538 -0.266088 -0.129470 0.085927 -0.286499 0.009462 -0.084943 -0.061066 -0.186953 0.169214 0.096309 -0.211183 -0.051792 0.259249 -0.050308 -0.090242 -0.026007 -0.015539 -0.370057 0.186891 0.030835 -0.172458 0.252363 0.067812 0.310748 0.048292 0.151787 0.284218 0.302068 -0.021481 -0.075920 0.110670 -0.116410 0.256282 -0.231176 0.231802 0.000099 0.100150 0.226232 -0.277691 -0.000416 0.027729 0.125885 0.083658 -0.025565 -0.010470 0.240845 -0.136983 -0.148774 -0.136649 -0.032131 -0.155332 -0.443235 -0.269175 -0.003437 -0.357732 -0.117645 0.176363 -0.138146 0.096694 0.098945 -0.017679 0.178657 -0.078425 -0.316780 0.116093 0.011519 -0.150673 0.495230 0.198529 -0.208715 0.059137 -0.093403 -0.194696 -0.265494 -0.354416 0.285637 0.018711 0.280753 -0.032751 0.032954 -0.154429 0.160606 -0.363049 0.193252 0.174843 0.127028 0.264088 -0.142704 -0.011124 0.077883 0.148748 -0.279612 0.068236 -0.038444 0.044042 0.041856 -0.192241 0.038165 -0.228977 -0.544583 0.044529 -0.304731 -0.173690 -0.016024 0.276333 0.035410 0.261212 -0.108181 0.309065 0.030754 0.048765 -0.136152 -0.037528 -0.119665 -0.052916 -0.087253 -0.135579 -0.246004 -0.030570 0.211272 -0.071590 -0.021326 0.294796 0.079256 0.155266 -0.124549 -0.050418 0.334077 0.009588 -0.167571 -0.143744 0.068269 0.029245 0.080558 0.031838 -0.263447 -0.359457 -0.141297 -0.008021 0.051982 -0.115376 0.041318 -0.339413 0.011493 0.135370 0.140138 -0.130628 0.042925 0.252062 -0.112952 -0.313066 0.269158 0.078792 0.019649 0.187086 0.019989 -0.141681 -0.199530 0.022243 0.079851 -0.037179 -0.334599 0.212508 0.212186 -0.246972 -0.190875 0.126345 0.016087 -0.187211 0.081972 -0.128584 -0.072272 0.017825 0.189334 0.271810 -0.332131 -0.459391 0.255635 0.165966 -0.328164 -0.019079 0.307279 -0.126879 0.491190 -0.024146 -0.451355 0.076464 0.078987 0.294617 0.024085 0.018421 0.212894 0.334121 0.049053 -0.090162 0.225398 0.013213 0.125345 -0.144804 -0.192926 -0.085010 0.058866 -0.091333 0.000099 -0.199037 -0.331879 0.173786 0.117181 -0.227928 0.172498 0.059943 -0.127400 0.152800 0.262969 0.012376 0.032143 0.245705 -0.338169 -0.004102 -0.058503 0.193404 0.031252 -0.271100 -0.034664 0.180922 -0.133776 -0.000741 -0.004166 0.099489 0.104545 -0.004832 -0.073137 -0.350817 0.077423 0.049745 0.410943 0.151892 -0.319456 -0.075765 -0.074412 0.320312 -0.135263 0.042935 0.011284 0.227774 -0.005102 0.008663 0.267506 0.203153 0.138679 -0.008260 0.150947 -0.016927 0.115543 0.398907 0.044127
agóaʔpət -0.072498 -0.022541 -0.039444 0.044411 -0.067950 0.001294 0.042169 0.041306 0.141357 -0.147825 -0.239146 0.139981 -0.265529 0.035531 -0.171284 -0.279191 -0.257038 0.182389 0.047611 -0.092059 -0.042905 -0.252409 -0.112968 -0.201054 -0.045991 -0.068809 0.048563 -0.135333 -0.016744 -0.132531 0.130274 0.052570 0.193519 0.155150 -0.116348 0.184058 0.019265 -0.141280 -0.106774 0.024226 0.024581 0.244224 -0.006508 -0.057830 -0.039225 0.033994 -0.123242 0.142263 -0.019733 0.025719 -0.278184 0.349628 -0.057226 -0.291235 0.042309 0.181671 -0.043892 -0.254552 0.171969 -0.246488 -0.003793 -0.167481 -0.208402 -0.123352 -0.176065 0.091754 -0.070092 0.137458 0.068581 -0.086038 0.017443 -0.400970 -0.205682 -0.085291 0.190912 0.213346 -0.096302 0.338089 0.050615 0.337806 0.232267 0.219209 -0.311787 -0.023064 0.065224 -0.151830 -0.241672 0.160815 -0.256436 -0.309727 0.143187 0.208127 -0.078552 -0.005849 0.121217 -0.245032 -0.112069 -0.088659 -0.069523 -0.111328 0.104283 -0.132668 -0.170136 0.230136 0.005948 0.052260 -0.256442 -0.091523 0.308841 0.054290 0.028624 0.214823 -0.041135 0.281852 -0.062033 -0.213847 -0.050093 -0.156989 -0.039412 0.151963 -0.151823 -0.022587 -0.118352 0.493720 0.057707 -0.003744 -0.234787 -0.031152 0.140904 -0.315146 -0.346058 0.152178 0.231842 0.173893 0.052518 -0.311564 0.003463 0.199726 -0.117760 0.046025 -0.137347 0.077825 0.329213 -0.079163 0.159933 0.050536 -0.165142 0.163605 -0.160272 0.109291 0.086019 0.233433 0.056741 -0.189895 -0.001888 0.153729 -0.239475 0.029961 -0.027949 -0.163936 -0.063751 -0.379849 0.135800 -0.042121 -0.299240 0.041114 0.098552 -0.005327 -0.097717 0.159982 0.131192 -0.117044 0.118484 -0.042368 0.361522 0.138491 -0.186165 0.172164 0.004354 0.196915 -0.101405 -0.168320 0.158472 -0.467590 0.069705 0.124645 0.246954 0.067393 -0.102889 -0.157679 -0.426259 0.430459 -0.038659 -0.096606 0.220595 0.189852 -0.196444 -0.069113 -0.170474 -0.250086 0.050068 0.190099 -0.042285 0.064950 -0.035591 0.323495 0.287978 0.284080 0.103585 0.148730 -0.170561 0.020926 -0.045032 -0.247300 0.194331 -0.087792 -0.057601 0.320310 -0.102587 -0.252600 -0.006135 -0.182094 -0.299484 0.166818 -0.118181 0.077885 0.225335 -0.261186 -0.148290 -0.002597 0.011752 0.220964 -0.137111 -0.148757 0.017075 0.087258 -0.179538 0.100101 -0.104199 0.130555 0.105882 0.272269 0.169261 -0.149344 -0.197062 -0.240083 0.171691 -0.054706 -0.368908 0.120853 -0.061001 0.205184 -0.048762 -0.120091 -0.142155 0.010717 -0.213112 -0.209241 -0.214294 0.178011 0.248053 -0.167055 -0.199519 0.066639 0.087670 0.003515 -0.051575 -0.015988 0.098982 0.295071 0.163665 0.025595 -0.274119 0.115520 0.037522 -0.289806 -0.204382 0.547747 0.037623 -0.036375 -0.071159 0.377852 -0.099113 0.126694 0.154860 0.037528 0.098646 0.042648 -0.147371 0.140518 0.031530 0.220444 0.211476 0.102882 -0.078835 -0.255338 0.153108 0.224027 -0.003804 -0.029802 0.029096 -0.012407 0.021680 0.095658 0.144481 0.012518 0.082100 -0.227478 0.086621 -0.010959 0.044503 0.023242 -0.093871 -0.191038 -0.102610 0.071206 -0.195845 -0.191510 -0.127178 -0.067922 -0.106601 0.033673 0.009365 -0.064439 0.225388 0.090820 0.034339 -0.489133 0.237584 -0.152545 -0.181909 0.224871 -0.034272 0.170252 0.080645 -0.250796 -0.102364 0.021932 -0.146218 0.213209 0.322086 -0.037416 -0.280748 -0.077911 -0.019847 0.102137 -0.081499 -0.338650 -0.031006 -0.074902 0.194486 0.076902 0.080693 0.042658 0.031511 -0.129765 0.195508 -0.255165 0.073514 0.085306 0.299313 0.152877 -0.170661 -0.217479 -0.134186 -0.017805 0.223465 -0.024796 0.018555 -0.390201 -0.154115 0.022077 0.030789 -0.055228 -0.204983 0.150493 -0.018601 0.339552 -0.208193 -0.252115 0.101961 -0.281257 0.201984 0.172311 0.097738 0.307717 -0.316809 0.044404 0.319638 -0.191553 0.242405 -0.180264 -0.221625 0.099204 0.125895 0.164201 -0.029112 0.019461 -0.068630 -0.074570 -0.003541 -0.079335 -0.077629 0.173127 0.402260 -0.088000 -0.192263 -0.089853 0.220650 -0.081336 -0.134112 -0.122643 -0.189152 -0.037520 0.247763 0.103161 -0.121611 -0.407568 0.252784 0.063771 -0.098093 0.102490 0.239465 -0.018902 -0.205232 0.041568 0.427317 0.306062 0.113448 -0.012005 0.176172 0.167614 0.071652 -0.180762 -0.070355 0.056289 -0.143746 0.192763 -0.164587 0.433574 -0.062905 -0.338588 0.004263 0.137730 0.137362 0.019051 0.074820 -0.310036 0.063940 0.139130 0.094194 -0.067269 0.155742 -0.075574 -0.279958 0.065729 -0.077903 0.029388 0.072915 0.236851 0.162380 -0.040679 0.163125 0.064902 -0.027883 -0.013908 0.165824 -0.264319 0.144147 -0.037975 0.367229 -0.088825 0.094443 0.197075 -0.179370 0.143222 -0.097581 0.058348 -0.369254 0.236467 -0.048781 0.067252 -0.416666 -0.270777 -0.125877 -0.231901 0.390310 -0.272927 0.296658 0.193333 -0.038814 -0.068939 -0.001667 0.113623 0.090710 -0.312834 -0.121490 0.160178 -0.167063 -0.123815 -0.308234 -0.027456 0.004004 0.105384 0.173888 -0.201986 0.042082 0.220620 0.114134 0.026124 -0.033501 -0.232662
