. 0.106567 -0.037651 -0.094607 -0.268364 0.197688 -0.037944 0.067227 0.101882 -0.128853 0.280932 0.032026 -0.289780 0.226832 -0.210179 0.037545 -0.019483 0.363624 -0.197094 -0.059538 0.063428 -0.130597 -0.240987 0.164802 -0.063952 -0.056606 -0.346812 0.056784 0.075107 -0.057544 0.032587 -0.047786 -0.007037 -0.069438 0.106504 0.025199 -0.011749 -0.184610 -0.002986 -0.094022 0.026536 0.008110 -0.059513 -0.324044 0.103615 0.207502 -0.234870 -0.184430 0.081983 0.297049 0.121868 0.129127 0.023052 -0.196659 -0.029553 -0.205706 -0.145407 0.076087 -0.353502 -0.055088 -0.237045 -0.121173 -0.054872 -0.095654 -0.089186 0.070147 0.103468 -0.099069 0.035340 -0.133768 0.397570 -0.219348 -0.226455 0.263905 -0.059873 -0.167772 0.143784 0.083564 -0.156064 -0.035605 0.189439 -0.058164 -0.195714 -0.112584 0.016105 -0.160057 -0.026561 0.236686 -0.209980 -0.219100 0.179636 0.268436 -0.288248 0.128178 0.186753 -0.075830 -0.313600 0.030270 0.085343 -0.036453 0.098226 -0.084608 0.137247 0.229086 -0.010794 -0.043062 0.423336 0.187474 -0.309015 0.012888 -0.131049 -0.476723 0.036466 -0.083481 0.274505 -0.058150 0.139404 -0.066201 -0.018566 0.054132 -0.221511 -0.034896 -0.098138 0.361957 -0.037401 0.123218 0.062414 -0.055040 0.060688 -0.268778 0.179636 -0.163005 0.082656 -0.044212 -0.118860 0.097334 -0.196152 -0.003333 -0.083088 -0.136263 0.199377 -0.058014 0.164477 0.224955 0.308150 0.170972 -0.229535 -0.271007 -0.407714 -0.155063 0.363809 -0.017192 -0.228010 0.207262 0.010019 -0.127600 -0.239277 -0.098792 -0.325167 -0.043352 -0.043096 0.036011 0.027873 0.105921 -0.073231 0.066388 0.091029 0.160932 -0.053959 0.162477 0.186277 -0.171766 -0.048268 0.020237 -0.048428 -0.185852 0.365145 0.047135 -0.007722 0.020739 -0.079717 -0.248851 -0.043483 0.268381 0.133213 0.193113 0.110736 -0.087605 0.027750 -0.059030 0.069452 0.239215 0.059490 0.025935 0.016506 0.026702 0.175204 0.134650 -0.001656 0.031520 -0.008113 -0.197335 -0.174206 -0.055881 -0.167694 0.245542 0.088087 0.051739 0.234524 0.161608 -0.033147 0.300128 0.139329 -0.204488 0.053368 -0.080890 0.228267 0.047659 -0.183345 -0.001151 0.111761 -0.103634 0.273116 0.204029 -0.133162 0.031685 -0.125707 -0.305987 -0.108503 0.043392 0.083551 0.055021 -0.198461 0.168829 0.022166 -0.020469 -0.025841 0.101933 -0.149612 0.460564 0.003594 -0.064958 -0.016209 0.135007 0.027548 0.015237 -0.208652 -0.011702 -0.074113 -0.111704 -0.132116 0.155881 0.022639 -0.084914 0.056530 -0.272491 0.102060 0.063397 0.327854 0.404799 0.120526 -0.009398 -0.148583 0.021894 0.135987 0.110918 -0.261071 0.083326 -0.124135 0.117978 -0.119558 -0.237517 0.164528 0.148541 0.084644 0.234373 -0.110535 0.052260 0.140811 0.020987 0.080181 -0.028045 0.308239 0.171212 -0.055934 0.156104 -0.008743 -0.001782 0.210525 -0.196185 0.106012 0.244581 -0.399117 0.230480 0.115722 -0.341992 -0.155353 -0.159079 0.065552 0.066092 0.082151 -0.188101 0.243101 -0.029516 0.006921 -0.117626 0.047718 0.277614 0.029224 -0.047138 0.189508 -0.157671 0.100393 0.211578 -0.114992 0.006718 -0.138272 0.131998 -0.351000 0.340558 -0.078703 0.074879 0.018076 0.110538 0.055597 -0.320881 0.393503 -0.097055 -0.068118 0.099772 0.130443 -0.117977 0.017204 0.010216 -0.195496 0.061391 0.032960 -0.037556 -0.064039 0.059378 0.110689 0.286626 0.050869 -0.189763 0.125308 -0.215612 0.114907 -0.157554 0.152294 -0.094066 -0.206419 -0.184833 -0.182961 0.052118 -0.008021 0.137295 -0.128924 0.107198 0.099235 0.069422 -0.072406 -0.034187 0.075917 0.044424 -0.096978 -0.327646 0.191985 -0.055125 0.340467 0.013230 0.079844 0.119339 -0.322243 0.211092 0.012928 0.212714 -0.155786 -0.195422 -0.338707 -0.305048 -0.106202 -0.060301 -0.026447 -0.114065 0.004633 -0.022434 -0.010693 -0.127864 0.101858 0.105500 0.265916 0.115662 0.078329 -0.224540 0.045619 0.016096 -0.118854 -0.145508 0.181252 -0.026531 -0.026828 -0.055769 0.064802 0.098886 -0.264625 -0.129129 0.169801 0.021934 0.069692 0.024251 0.045396 0.159903 -0.102427 0.022545 0.078474 0.032419 0.111000 0.256031 0.074563 0.222813 -0.047217 -0.061476 -0.077848 0.164919 0.027824 0.363186 -0.078880 0.008315 -0.404983 0.207791 -0.010638 -0.137735 -0.176652 0.088349 0.409189 0.099172 -0.104745 0.065865 0.294446 -0.121056 0.381399 -0.054003 0.164878 -0.116623 -0.171545 0.085405 -0.183243 0.044163 0.187601 -0.138454 -0.172213 0.204562 0.040556 0.103772 0.016617 0.135474 0.270564 -0.123508 -0.161337 0.132777 0.028487 0.180724 0.131033 0.092503 -0.276962 0.219410 -0.296519 -0.071349 -0.025599 0.116405 0.168984 -0.093774 0.219036 -0.044205 0.181674 0.039247 -0.044778 -0.054121 -0.362723 0.243851 -0.017963 -0.082275 -0.070386 -0.271910 0.007950 0.088254 -0.153442 -0.032669 -0.021766 -0.334371 0.058919 -0.248942 0.051674 0.259941 0.265888 -0.021222 -0.448134 0.065155 -0.165924 0.124986 -0.077304 -0.118816 0.036222 0.108980 -0.103111 0.177853 -0.010981 -0.120891 -0.063654 -0.074381 0.197540 -0.073094 0.313233
be 0.056904 -0.113072 0.069963 -0.071059 0.077680 0.202863 -0.292530 0.155602 -0.256529 0.006015 0.026440 -0.055472 0.007921 -0.113493 -0.258325 0.411129 0.068470 -0.141259 -0.026371 0.337777 -0.032861 -0.114590 0.062100 0.039526 0.082218 -0.140191 0.084927 0.012823 -0.200119 -0.009848 0.128536 -0.045288 -0.119937 -0.089459 -0.321088 -0.031842 -0.256630 0.114245 0.065116 0.152028 0.097458 0.295252 -0.309048 -0.040362 0.162638 0.042666 0.039764 -0.042625 -0.030781 0.041519 0.103539 -0.242432 -0.130174 -0.015651 0.103837 -0.008594 -0.058436 -0.051936 -0.142920 -0.317600 -0.275228 0.300482 -0.202092 -0.060698 0.133436 0.298530 -0.043992 -0.325215 0.169087 0.018801 0.227972 -0.180658 -0.162039 -0.186056 -0.044610 -0.157955 0.089899 -0.173950 -0.046721 0.132954 0.052720 -0.139604 -0.045600 -0.319493 0.085914 -0.338205 0.076359 -0.108019 -0.085131 0.116881 0.168035 0.052606 0.146560 0.038788 0.095499 0.025186 0.043208 0.163421 0.002438 0.056362 -0.033083 0.052174 0.223122 0.016730 0.090178 -0.070441 0.057475 -0.128149 0.285821 0.289953 -0.101918 0.053987 -0.143872 -0.080426 0.082405 0.067065 0.244384 0.143736 0.158023 0.140183 -0.013841 0.031735 -0.059919 0.348161 0.184425 0.014621 -0.045173 0.250139 0.076510 0.189183 -0.140651 0.266469 -0.158161 -0.458343 0.118560 0.010153 -0.189863 -0.103452 -0.094679 0.069239 0.050776 0.023206 -0.063817 0.029685 -0.128221 -0.216838 -0.129615 -0.197042 -0.135383 0.247570 -0.204401 -0.013330 0.278860 0.239562 -0.025431 0.014761 -0.062926 -0.067068 -0.150644 -0.153780 -0.239270 -0.106854 0.154322 -0.111118 -0.346391 0.076220 0.225018 -0.170493 0.205892 0.078070 -0.271443 -0.051828 0.242822 0.006534 0.152097 0.215055 0.142283 0.250236 0.154680 -0.128685 0.094768 0.078048 0.401465 0.167050 0.059708 0.063606 -0.203085 -0.005070 0.002655 -0.273141 0.038179 -0.058698 0.321978 0.188864 0.165653 -0.175873 -0.043215 -0.005238 -0.035490 0.004041 -0.010082 -0.003140 0.272511 -0.158797 0.047251 -0.218948 -0.018696 0.149161 0.174428 0.193700 0.146672 -0.034519 -0.138485 0.074696 -0.197364 0.149538 0.205334 -0.174706 0.144051 0.167698 -0.209578 0.325030 0.073976 -0.009296 0.011502 0.023217 0.317073 -0.089235 -0.018789 0.133698 0.051485 -0.236808 -0.191141 -0.201046 0.169648 -0.037450 -0.190527 0.245540 -0.078397 0.289356 -0.083984 0.020535 -0.330349 0.027335 0.195500 0.151574 -0.099007 -0.128383 0.007072 -0.006631 0.295466 -0.275414 -0.259156 0.282984 -0.132800 0.126719 0.027594 0.148742 0.115298 0.005977 -0.012405 -0.028609 0.196920 -0.054430 0.114621 -0.209585 -0.107520 0.093087 0.084129 -0.123344 -0.378065 -0.102362 -0.052548 0.154921 -0.112795 -0.018728 0.135130 0.269465 0.183010 0.040157 -0.013143 0.045166 0.157762 0.111113 0.070332 0.052732 -0.224254 -0.086082 -0.165952 -0.091464 0.259409 -0.153163 -0.149533 -0.176931 -0.265759 -0.001789 -0.039386 -0.276909 0.021941 -0.312385 0.067116 0.171956 0.058807 0.024377 -0.082468 0.032259 0.071051 -0.103254 -0.106734 0.163352 0.058362 0.341733 0.190298 0.023229 -0.268462 -0.098226 0.103727 -0.272726 -0.178296 0.050099 0.152091 0.022011 0.068759 0.035050 -0.010655 0.147052 -0.050582 0.124287 -0.078975 -0.035777 -0.275618 0.098411 0.206287 0.003393 -0.268422 -0.000955 -0.145444 0.222249 -0.086695 0.010319 0.060828 -0.083768 -0.027275 -0.095582 0.172476 0.015894 0.148163 0.048210 -0.061648 -0.179269 -0.393438 -0.062976 -0.124962 -0.274715 -0.090914 0.269096 -0.066400 -0.027600 -0.035862 0.201871 0.309419 0.008406 -0.079044 -0.395088 -0.127721 0.024005 -0.084717 0.006819 0.294113 0.204305 0.040683 -0.330733 0.037476 0.074009 -0.059691 0.034837 0.012200 0.052470 -0.302483 -0.280489 -0.024684 0.100743 0.088767 0.181676 -0.270944 0.173886 0.010547 -0.036996 -0.028986 0.101797 -0.098045 0.077451 -0.078567 -0.280852 -0.195324 0.025771 -0.372460 -0.149899 0.046987 0.084830 0.177710 -0.090456 0.064012 0.293259 0.121510 0.215334 -0.255428 -0.117308 0.056782 0.009311 -0.118507 -0.412733 0.145008 0.213886 -0.052341 -0.110783 0.190448 -0.014832 0.048017 0.105328 -0.045156 -0.201413 0.298175 -0.008462 0.273449 0.280084 0.051654 -0.199927 -0.083026 0.087875 0.033351 -0.134430 0.065275 0.017510 0.077343 -0.333802 -0.063920 0.346860 0.264718 0.125336 -0.016473 0.171437 -0.241188 0.063349 -0.045050 0.154223 0.069951 0.195201 0.168499 -0.184473 -0.099569 -0.025929 0.340964 0.050087 -0.022790 -0.111657 -0.171032 -0.265527 -0.074646 0.368461 0.107485 0.009043 -0.100361 0.037610 -0.104988 -0.142083 -0.034713 0.202827 -0.104601 -0.129758 0.265062 0.006048 0.160930 -0.269621 0.100446 0.130463 -0.100109 -0.276369 -0.132296 -0.220350 -0.023432 0.140873 -0.110124 0.018150 0.001732 0.071889 -0.153782 -0.129869 -0.037252 0.101428 -0.060182 0.255583 -0.201430 0.174305 -0.083876 -0.401242 0.051422 0.039165 0.050889 0.026460 -0.136988 0.068843 -0.249618 0.055673 0.173916 -0.183883 0.269771 -0.180774 -0.208425 -0.066216 0.174013 0.222275
, -0.059925 0.153996 0.038438 -0.027865 -0.157099 0.053516 -0.068086 0.225982 -0.141025 0.325296 -0.101615 -0.037906 0.133689 -0.174992 0.044087 -0.023111 0.039910 -0.116498 -0.006239 -0.039579 -0.048984 -0.068048 -0.269101 -0.094094 0.372904 0.034288 0.092666 0.251524 -0.293285 0.132735 -0.027805 -0.011793 0.006840 0.181314 0.145916 0.086009 -0.187177 0.321025 0.164062 0.067440 0.075777 0.144022 -0.492990 -0.187445 0.266809 0.034793 0.215212 0.222362 -0.156505 0.130697 -0.121819 -0.064700 0.048176 -0.260718 -0.110553 -0.062693 -0.065959 -0.064633 0.004585 -0.410354 -0.002367 -0.167413 -0.432884 -0.205568 -0.190484 0.147075 0.017280 0.016947 -0.066133 -0.019307 0.131594 -0.004264 -0.032707 0.025460 -0.264614 0.238093 0.152288 -0.206351 -0.142943 0.311313 0.032724 0.027114 -0.092097 0.186070 0.057292 -0.074915 0.208369 0.114559 -0.183260 -0.015810 0.226234 0.108475 0.168134 0.211212 0.361047 0.136828 0.247567 0.101366 -0.272429 -0.188405 -0.046719 0.121141 0.263722 -0.367034 0.268215 -0.120611 0.199999 -0.029787 0.239227 0.144394 -0.131311 -0.023903 -0.201268 -0.003157 -0.098241 -0.042387 0.183728 0.125220 0.002406 -0.025986 0.151338 0.006786 0.023202 0.204670 0.220263 -0.024995 -0.198244 0.287506 -0.194769 0.035610 -0.072615 0.332694 0.034185 -0.296223 0.373278 0.152024 -0.452729 -0.086025 -0.018517 0.247666 -0.074589 -0.056577 0.111637 0.056692 0.030869 0.072023 -0.178569 -0.000279 -0.013753 0.004011 0.151282 -0.269480 0.265687 0.419372 -0.298007 0.091743 0.082202 -0.013343 0.356403 0.234230 -0.301603 0.179584 0.059884 -0.084488 -0.118325 0.111619 0.129070 0.145570 0.139769 -0.348393 -0.336270 -0.193345 0.400936 0.252766 -0.075503 0.519313 -0.067305 0.243605 0.105404 -0.108827 -0.418799 0.086143 0.033395 0.143567 -0.064233 0.311721 -0.134230 -0.062708 -0.070552 -0.028772 -0.023944 0.014257 0.139591 0.094208 0.369602 -0.046232 0.124268 -0.060465 -0.101393 0.217244 0.077861 -0.124558 0.136432 -0.042379 0.300421 0.080031 0.002230 0.015171 0.195894 0.136778 0.126863 -0.229535 -0.063339 0.144190 -0.116311 -0.098839 0.091852 0.031881 0.091084 -0.094176 -0.140712 0.146565 0.105369 0.064756 0.036631 -0.161289 0.133318 -0.131648 0.035647 0.164355 -0.080589 -0.063744 0.196473 0.086083 0.245874 0.010434 0.280609 -0.135806 0.055762 -0.286796 -0.025441 -0.214854 0.021819 0.034536 -0.033252 0.151551 -0.109529 -0.273504 -0.127372 0.150675 0.307446 -0.113425 0.166739 0.004676 -0.097398 0.239240 0.087199 0.102773 0.212711 0.233277 0.005377 -0.221488 0.075142 0.227516 -0.143291 -0.315325 -0.073655 -0.113040 0.155679 -0.226129 -0.165709 0.000364 0.055995 0.005373 0.228447 0.107827 -0.020517 0.322842 -0.007405 -0.085307 -0.099984 0.483982 0.172248 0.055164 -0.107525 -0.088058 -0.329375 0.218422 -0.343676 0.139711 0.313993 -0.246542 0.063983 0.106866 -0.361303 -0.083834 -0.055524 0.037168 0.151130 -0.009486 -0.137741 0.041300 -0.155706 0.215262 -0.241721 0.168110 0.249348 0.240533 -0.356925 0.374596 -0.107922 0.154535 -0.028327 -0.134432 -0.056722 0.009745 -0.076400 -0.106032 -0.000312 -0.042033 0.149162 0.071260 -0.158915 0.025137 -0.180097 0.066046 -0.079575 0.081357 -0.273696 -0.219669 -0.070211 -0.122295 0.379542 -0.349195 -0.145674 -0.260885 -0.063368 0.209063 -0.136607 -0.092968 0.120847 0.048883 -0.272398 -0.185163 -0.160270 -0.128253 -0.193224 -0.140268 0.003076 -0.248880 -0.392473 0.057575 0.153478 -0.116435 0.028975 0.105820 0.038205 0.031766 0.113418 -0.117250 -0.017411 0.174609 -0.261841 -0.026403 -0.137866 0.080520 -0.011328 0.167985 0.016541 0.190158 -0.099934 -0.209125 0.013452 -0.268629 0.187719 -0.023217 -0.011160 -0.039197 -0.260588 -0.198423 -0.013781 -0.136885 0.166337 0.229460 -0.090104 0.167518 0.269757 -0.038987 0.240549 0.264805 0.024902 -0.404874 -0.079880 -0.138893 -0.075505 -0.194890 0.110389 0.060237 0.189834 0.252688 0.122819 -0.131047 -0.048817 0.083518 -0.099015 0.017997 0.035993 -0.178345 0.144228 0.171431 -0.038923 -0.353934 -0.100549 0.202966 -0.244422 0.100403 0.220646 0.059188 0.375594 -0.049296 -0.006954 -0.032919 0.211799 0.042647 0.027726 0.138460 0.042831 -0.211901 0.308338 0.184736 -0.000740 -0.187780 -0.162501 0.005647 0.103898 -0.248175 -0.116591 0.279159 0.001300 0.093739 0.166362 0.034428 -0.242503 -0.163557 -0.062997 -0.050003 -0.273944 0.146569 0.030148 0.171175 -0.204130 0.123921 0.208909 -0.167266 0.098041 0.033873 -0.296124 -0.346719 -0.293324 0.301367 0.156006 0.067444 0.298412 -0.490117 0.078385 -0.121963 -0.041350 0.157251 0.144510 0.245582 0.011717 0.271109 0.127066 0.028532 0.038919 0.229756 -0.154054 -0.110962 0.017881 -0.154936 -0.144665 -0.018342 -0.152120 -0.222899 0.117139 -0.250172 -0.420767 -0.230820 -0.265739 0.127378 -0.327927 0.013497 0.042482 0.206058 -0.082770 -0.311134 -0.076799 0.029168 0.122537 -0.099401 0.081656 -0.036388 0.049121 0.084324 0.069432 0.011454 0.151012 -0.276998 -0.329040 -0.144144 0.249903 -0.065175
ip 0.076725 -0.086421 -0.076849 -0.235360 -0.016599 -0.110998 -0.161220 0.179361 -0.156020 0.053082 0.210454 0.086852 0.001649 -0.386517 -0.018206 0.129153 0.273540 -0.243771 0.104936 -0.007756 -0.264321 -0.097569 0.251185 -0.288937 -0.052110 -0.298879 -0.065003 0.292189 0.092001 -0.076175 -0.170753 0.235343 -0.138903 -0.166790 -0.020865 -0.288095 0.024861 0.076685 -0.112552 -0.098701 -0.059736 0.006403 -0.414755 0.066522 0.302874 -0.146283 -0.041762 -0.116945 0.130064 -0.060182 0.188144 0.117926 0.012536 -0.132468 -0.161599 0.070621 -0.042072 -0.164709 0.035168 -0.024356 -0.223518 -0.057426 -0.271355 -0.288379 0.186682 -0.008538 0.026617 -0.065325 0.039076 0.377071 -0.108647 -0.053884 0.271240 -0.022796 0.061950 0.154329 0.037453 -0.289067 -0.091899 0.111351 0.165211 -0.202649 -0.125005 -0.131414 0.005432 -0.341027 0.255038 -0.102153 -0.166658 -0.028240 0.145853 -0.144653 0.076173 0.117446 0.075420 -0.401051 -0.010820 0.116052 -0.324103 -0.001004 -0.037825 -0.022614 0.253571 -0.084566 0.034675 0.214280 0.084300 -0.159995 0.013060 0.260004 -0.336850 -0.228017 -0.024422 -0.012431 -0.232860 0.238790 -0.062366 0.111267 -0.054019 -0.009781 0.049686 -0.009351 0.098736 0.265608 0.357255 -0.003934 0.002730 0.096457 -0.197067 0.084170 -0.327186 0.165156 -0.049726 0.064009 -0.026893 -0.308741 0.219224 0.111094 -0.216478 -0.043159 0.037554 0.135481 0.224643 0.209217 -0.099496 -0.168211 -0.062627 -0.348721 -0.182653 0.370609 -0.332598 -0.142289 0.193288 0.037292 -0.094260 -0.152559 -0.066467 -0.296285 -0.127692 -0.116333 -0.207725 0.064502 0.148136 -0.080885 -0.246600 0.099697 0.066049 0.016091 0.076777 -0.047530 -0.016846 -0.107180 -0.066044 -0.183874 -0.135848 0.175418 -0.245887 0.124005 0.033149 -0.036643 0.086831 -0.061347 0.340412 0.255248 0.197550 0.233681 0.030565 0.355442 0.118088 -0.326022 0.034967 0.102558 0.034633 0.251212 -0.079503 0.125165 0.114638 -0.092560 -0.141430 -0.047039 -0.140426 0.213529 -0.122337 -0.157851 0.052837 -0.103371 -0.006267 0.058537 0.321033 0.150480 0.394022 0.141902 -0.071792 0.085925 -0.426605 0.084218 -0.073755 -0.152775 -0.008327 0.140560 -0.166827 0.365457 0.141097 0.022090 -0.040819 0.116924 -0.145493 0.122397 0.022995 -0.142452 -0.309534 -0.071515 0.004852 0.212950 0.190772 -0.079981 -0.099804 -0.126167 0.443979 0.137045 0.035749 -0.000903 -0.101405 0.048176 0.060351 -0.198723 -0.100837 -0.143105 -0.166468 0.108537 0.311843 -0.007115 -0.103863 0.226563 -0.144329 -0.042750 0.168818 -0.126445 0.265929 0.299214 -0.020612 -0.065259 0.194703 0.120430 0.159829 -0.014352 -0.220027 0.069623 0.022634 -0.241612 -0.003839 0.344954 -0.057359 -0.150380 0.136165 -0.040999 0.055304 0.139482 0.064463 -0.243513 0.224579 0.346886 0.091530 0.234445 0.325304 -0.029204 0.332055 0.118422 -0.266208 0.070506 -0.150354 -0.240119 0.115033 0.328642 -0.326045 -0.153078 -0.192611 -0.165255 -0.011925 0.068827 -0.066402 0.150713 0.010579 -0.047007 0.062893 -0.164706 0.092079 -0.180641 -0.085170 0.446227 -0.219431 0.083241 0.127591 -0.051599 0.213773 -0.097537 0.136372 -0.092128 0.196686 -0.091043 0.258884 -0.016214 -0.007134 -0.221527 -0.269429 0.208837 0.200763 -0.153414 -0.044050 0.086667 -0.086254 -0.156560 0.050331 -0.316640 -0.003985 -0.121881 -0.061131 -0.317508 -0.058750 0.222802 0.565251 -0.218095 -0.176468 -0.141376 0.021960 0.340919 -0.121223 0.082213 0.013673 -0.074198 -0.345547 -0.003968 -0.233444 -0.022865 -0.196800 -0.111418 0.132565 -0.175556 0.081805 -0.125000 0.117777 0.108597 -0.079013 0.013510 -0.293656 0.004012 -0.095468 0.076056 0.034756 0.388170 0.222704 -0.204213 0.061565 0.257122 0.071002 0.025029 0.105425 -0.132891 -0.247922 -0.322851 -0.026339 -0.060029 -0.106678 0.084312 0.002583 0.014117 0.003550 0.130676 0.343200 0.373514 0.027422 -0.048977 -0.509865 0.021030 0.016870 -0.282468 -0.207107 -0.174161 -0.139839 0.055782 -0.000682 0.151891 0.122731 -0.020247 -0.093027 0.039304 0.014107 0.018022 0.189367 -0.063750 -0.101795 -0.082906 0.074262 0.080964 0.107902 -0.172896 0.325153 0.124966 0.125332 0.105381 0.199617 -0.171452 0.225287 0.072991 0.469968 0.105631 -0.200691 -0.185996 -0.059110 -0.090178 -0.047531 -0.242695 0.018477 0.176899 -0.109175 -0.084298 0.076246 0.315046 0.028314 0.007669 -0.100078 0.199924 -0.308663 -0.123534 0.122770 -0.036622 0.162087 0.088314 -0.180287 -0.050759 0.010275 0.165298 0.076515 0.196174 0.163707 0.202791 -0.060961 0.061182 0.096018 0.043685 -0.253489 0.025122 -0.051961 -0.340174 0.243782 -0.025502 0.214107 0.085845 -0.059775 0.085811 0.158763 0.159875 0.015713 0.083864 -0.106053 -0.171324 0.137838 -0.367709 0.152402 -0.061023 -0.116850 -0.245353 -0.120441 0.088003 -0.073661 0.013663 -0.057375 -0.210198 -0.131061 -0.094041 -0.172815 0.055490 0.093644 -0.068644 0.235769 -0.468823 0.035891 -0.235134 0.268340 -0.067796 0.099676 0.208562 0.187757 -0.105574 0.325699 -0.114232 -0.100044 0.025490 0.189334 0.157992 0.014579 0.159817
o'tobuxik 0.139543 -0.127928 0.237714 -0.206521 0.147026 0.002541 -0.287153 -0.329999 0.318825 0.062736 -0.137548 -0.123652 0.058012 -0.005654 0.134675 0.056106 -0.065188 0.089888 -0.000782 0.162842 -0.062713 0.067854 -0.189493 -0.101677 0.223030 -0.042117 0.102594 0.210466 0.010252 -0.172652 0.262046 0.071589 -0.006834 -0.085039 0.091420 0.368171 -0.201984 -0.065033 -0.058469 0.093601 0.155234 0.052108 -0.012008 0.130788 0.101368 -0.003884 0.030331 0.118752 0.244672 0.178739 0.092922 0.140910 -0.022189 -0.236340 -0.127761 -0.000679 0.136683 0.083966 -0.116768 -0.053492 0.017021 -0.039178 -0.201085 -0.039118 -0.074586 0.073729 0.119409 0.048994 0.126087 0.137505 0.179289 -0.097058 0.020260 0.041796 -0.238752 -0.078053 -0.185310 0.006745 -0.000215 -0.090752 0.005934 -0.005967 0.020833 0.017447 -0.188881 -0.063842 -0.084696 -0.052128 -0.027361 0.112782 0.247172 0.233786 -0.206496 -0.254528 0.299588 0.080799 0.017706 -0.214684 0.081500 0.132710 -0.058256 -0.025044 -0.319742 0.136731 -0.266041 0.144387 -0.077385 -0.078346 0.052079 -0.200190 -0.079666 0.097067 0.009452 0.092760 -0.045189 -0.127218 0.275090 0.110391 0.012893 -0.224522 -0.003422 0.136961 -0.035322 0.153815 0.185372 0.016312 -0.083525 0.204155 -0.126206 -0.242430 -0.044559 0.018368 0.125302 -0.095233 -0.065575 0.092353 -0.062085 0.128070 0.152809 0.034336 -0.083873 0.093468 0.022184 -0.084662 -0.030901 -0.064025 0.146024 -0.146987 -0.012432 0.364058 -0.055668 0.033634 -0.126287 -0.167906 -0.178755 0.031371 -0.196326 0.237973 -0.450747 -0.194844 -0.085257 0.223510 0.232991 -0.033385 0.200387 0.007897 -0.052577 0.102744 -0.257203 -0.094843 0.027849 0.027601 0.074934 0.028954 -0.193775 0.214039 0.096343 -0.157206 0.021424 0.150105 -0.105543 -0.091817 -0.001287 0.355570 -0.176396 -0.067930 -0.243670 -0.116564 0.299810 -0.048481 -0.177242 -0.208104 -0.066630 0.168759 0.049974 0.007363 -0.064776 0.027195 0.025187 0.134351 -0.126913 -0.001103 0.000362 -0.006401 0.199709 0.452247 -0.017933 -0.101563 0.093262 -0.058430 -0.179010 0.057505 -0.194048 -0.252097 0.171286 0.294615 0.065190 -0.221107 0.116755 -0.092047 0.060508 0.136394 0.198172 0.182517 -0.087857 -0.058359 -0.123210 -0.027692 0.124211 -0.029695 0.128793 0.098283 0.269149 0.000424 0.219757 -0.047984 0.236504 -0.049580 -0.114103 0.180138 -0.060158 -0.119587 -0.063855 -0.128657 0.022967 0.046594 -0.092868 0.127877 0.084701 -0.015406 -0.091612 0.018356 -0.104173 -0.036460 0.167730 0.129299 0.170538 0.191915 0.205603 0.120446 -0.136924 0.087363 -0.010085 -0.119302 0.066288 -0.134879 0.011843 -0.027922 0.049741 -0.089316 -0.158935 0.075562 0.216411 0.105395 0.100147 0.146424 0.080271 0.030525 -0.044203 0.330364 0.226004 0.159005 -0.004697 -0.191125 -0.251508 0.193494 -0.221226 0.103707 0.074887 0.156991 0.156326 0.045151 -0.051320 0.003225 -0.396355 0.277054 0.037593 0.087786 0.008363 0.186141 0.208622 -0.029659 -0.097533 -0.157912 -0.174831 0.057878 0.318234 -0.170315 0.086851 0.123476 0.033784 -0.075000 -0.168858 -0.141663 -0.121831 0.020339 0.082376 -0.117596 0.050162 -0.095994 -0.004030 -0.049787 -0.050201 0.031368 0.046838 0.004624 0.005420 0.119190 -0.177038 0.140732 0.134028 -0.062378 0.092625 0.042747 0.029539 -0.007523 -0.063923 -0.179338 0.025827 -0.102934 -0.038238 -0.090526 -0.082136 -0.080183 -0.184434 -0.089365 -0.092195 0.009930 -0.074669 0.088104 0.046480 -0.196515 -0.112439 -0.048155 0.182931 -0.023094 0.052685 0.260708 0.209658 -0.095822 0.048295 0.049985 0.129682 -0.110613 0.025442 -0.039031 0.196645 0.140643 0.072610 0.043701 -0.007418 -0.176567 -0.053285 0.205779 0.051541 0.276020 0.152195 0.037749 -0.124452 -0.044365 -0.085664 0.057969 -0.172026 0.247206 -0.018544 0.193659 0.076899 0.438034 -0.142268 0.084785 0.069271 0.136605 -0.089049 0.203569 -0.284740 -0.017202 0.170783 -0.044905 0.093964 0.072018 0.024061 -0.101009 -0.207200 0.001708 -0.005495 0.047623 0.198936 0.065074 0.084761 -0.036293 0.331608 -0.136444 -0.375864 -0.097300 -0.188108 -0.037912 -0.146706 -0.226878 0.415651 0.251822 0.048599 -0.173027 0.158261 0.001992 0.149295 -0.120301 0.101088 -0.104444 0.322833 0.041827 -0.151043 0.187072 0.193489 0.436508 0.022827 -0.104514 -0.130775 -0.023196 0.051816 0.169306 0.045143 -0.140485 -0.126698 -0.007168 0.018769 0.205320 0.098092 0.142481 -0.034574 -0.061086 -0.119884 0.045310 0.140453 -0.044442 -0.154881 0.148252 -0.133691 -0.078366 -0.249920 0.127037 0.047394 0.233309 0.070972 0.108188 -0.062567 0.056000 0.140354 0.075114 0.320680 -0.100403 0.277505 -0.110338 0.098885 -0.071637 0.030264 -0.259048 -0.231138 -0.042173 -0.155159 -0.200161 0.013548 0.259526 0.192592 -0.148995 0.110893 -0.227021 0.111413 0.318613 0.108493 0.200633 0.107488 0.162326 0.192899 0.139450 0.001947 -0.141301 -0.044223 -0.199106 0.093189 0.084844 0.171664 -0.217850 0.012404 -0.195220 -0.084433 -0.058780 0.105634 0.073297 -0.386395 0.012240 0.169075 0.111248
pe 0.118614 -0.087786 0.121003 -0.195609 0.267669 -0.064407 -0.038538 -0.225234 -0.277852 0.088818 0.103513 -0.005430 0.165757 -0.154129 0.157276 -0.083831 0.127417 -0.284926 0.107801 0.256965 -0.233574 -0.032743 0.033089 0.102592 -0.118527 -0.131815 -0.054796 -0.132280 0.002672 0.069362 0.030629 0.044911 0.045565 -0.226501 -0.132745 -0.238135 -0.354714 -0.012741 0.045280 0.093031 0.059674 -0.044855 -0.307028 0.125568 0.034961 -0.021580 -0.004366 0.030231 0.239612 -0.090851 0.049992 0.077047 -0.185693 -0.036684 -0.040843 0.120740 0.094293 -0.052252 0.028827 0.001548 -0.070646 0.076673 -0.119498 -0.131568 -0.121858 0.182611 -0.051215 0.191615 -0.141027 0.108278 0.188387 0.063435 -0.006137 0.180007 -0.091284 0.092148 0.084146 -0.214037 0.152244 -0.121967 0.034821 -0.205538 -0.219820 -0.166861 -0.132464 -0.115355 0.215497 0.079599 0.091371 0.052741 0.116253 -0.027086 0.090813 -0.074759 0.247820 -0.112287 0.217258 0.066640 -0.233776 0.277285 -0.179950 -0.219691 -0.159041 0.242381 -0.473098 0.068494 0.108483 -0.133539 -0.042348 0.000176 -0.020195 -0.249119 0.124076 0.058357 -0.140761 0.096672 0.083596 -0.056623 -0.183203 -0.177693 -0.172615 -0.051680 -0.135076 0.195080 0.208206 0.016579 -0.329108 0.103512 -0.234620 -0.192771 -0.015801 0.210395 -0.046104 0.117339 -0.001386 -0.230631 0.153472 0.219524 -0.131361 0.045580 0.053590 0.175277 -0.013696 0.155568 0.037093 -0.248079 0.063556 -0.110468 -0.096207 0.116658 -0.164190 -0.054878 0.029523 0.120529 -0.199708 -0.060065 0.028404 -0.144369 -0.083595 -0.230745 -0.097797 0.116908 0.290615 -0.150860 0.099183 0.136811 -0.059148 -0.160735 0.040921 0.073416 -0.241314 -0.083344 0.045030 -0.061616 -0.127174 0.130051 0.014957 0.106603 0.164272 -0.128019 0.082382 -0.002706 -0.105048 0.094796 0.164136 -0.013742 0.284684 0.001072 0.132725 -0.129628 0.017009 0.048847 0.066530 0.260193 -0.102424 0.233981 0.155216 0.069205 0.114822 -0.265152 -0.028351 -0.146643 0.136773 -0.183071 -0.050764 0.002036 -0.068372 0.077713 0.351872 0.087422 0.120758 0.021530 -0.208221 -0.041927 -0.133863 0.214456 0.079498 -0.252898 0.022021 0.098475 0.062591 0.130599 -0.106057 0.102299 0.078743 -0.191869 0.029051 0.151208 0.066914 -0.069990 -0.389124 0.032908 0.238773 0.036059 -0.124452 -0.064609 -0.108025 0.039241 0.335728 0.048712 0.114318 0.148130 -0.279793 0.079581 -0.032150 -0.013831 -0.077513 0.042798 0.036269 -0.142345 0.033038 -0.170337 -0.134084 0.239103 0.078111 0.127838 0.127088 0.104831 -0.005163 0.039511 -0.328803 -0.036495 0.113195 -0.170715 -0.065892 0.240031 -0.057283 -0.006055 0.204781 0.001108 -0.098190 0.078882 -0.049096 -0.076356 0.222903 -0.159704 0.036744 0.020037 0.193705 -0.149689 0.347493 0.068791 -0.039128 0.261528 0.069446 0.113727 0.023273 0.274360 -0.053917 0.050426 -0.219007 -0.100577 0.128158 0.318768 -0.079232 0.041872 0.008076 -0.094048 0.119832 -0.065038 0.186271 -0.019511 0.099289 -0.078967 -0.058906 -0.026484 0.105947 -0.118645 -0.038435 0.228943 -0.202794 -0.114844 0.061378 0.082156 0.253622 -0.191911 0.026075 0.085722 0.067937 0.205113 0.059797 0.172274 -0.151124 -0.148703 -0.087247 0.076985 0.085439 -0.050753 0.129652 -0.090502 0.140043 -0.088553 -0.168718 -0.202399 0.195552 0.079841 -0.133070 -0.050915 0.015522 0.128897 0.143743 -0.127249 -0.318201 -0.198850 0.065564 0.026934 -0.017170 -0.047176 0.095514 0.251818 -0.120633 -0.132075 -0.017459 0.106651 0.118299 -0.084974 0.260275 -0.154747 -0.020026 0.046083 0.084514 0.172528 -0.019434 -0.067594 -0.018323 -0.110242 0.172211 -0.179531 -0.245981 0.141222 0.099023 -0.185714 0.184405 0.190734 -0.140272 -0.149583 0.026594 -0.127264 0.148708 0.001722 0.009439 -0.144025 -0.049256 0.079743 0.117526 0.117665 0.019710 0.086932 -0.017928 0.117593 0.031286 0.014169 -0.121840 0.170364 -0.161186 -0.296958 -0.166354 -0.106139 -0.048352 0.110797 0.124585 0.201102 0.169983 -0.201373 0.088874 0.047748 0.297201 0.000574 0.179945 0.112660 0.079370 0.022531 0.063209 -0.165169 0.363603 -0.268833 0.007007 -0.119745 0.274439 0.109696 0.155325 -0.079737 -0.045983 0.099114 0.297939 0.005570 -0.017056 -0.094156 0.035014 -0.202056 -0.238823 -0.027908 0.028496 0.158668 -0.095697 -0.183240 0.058047 0.464617 0.083096 -0.113976 0.093568 -0.054763 -0.196852 0.085052 -0.077119 -0.128663 -0.017038 -0.037869 -0.178554 0.085167 0.089574 0.058258 0.257037 0.013584 -0.022103 0.173939 -0.210538 -0.247419 -0.368518 -0.075961 -0.199591 0.196247 -0.334347 -0.212181 -0.020718 -0.054244 0.034751 0.239773 0.076535 0.057610 -0.140527 -0.073012 -0.056531 0.199991 0.130021 -0.229401 0.021471 -0.100739 0.157819 -0.199388 0.129692 -0.083919 0.091248 0.121864 -0.143190 0.145894 0.321852 -0.017938 0.090311 -0.067923 0.035434 -0.126763 0.217259 -0.066037 0.320281 -0.330586 -0.134090 -0.095970 0.142182 -0.075054 0.301056 0.055142 -0.024639 -0.205979 0.090333 -0.156556 -0.104395 -0.075337 0.008683 -0.110661 0.073666 0.236877
axima 0.054356 0.114992 -0.256023 0.123803 0.028191 -0.137416 0.265842 -0.149686 0.091940 0.349124 -0.118027 -0.089942 -0.066288 -0.188096 0.285007 -0.158495 0.158943 -0.217110 0.042522 -0.055691 -0.029085 -0.155171 -0.207472 0.048622 0.117361 -0.065869 -0.027440 -0.052450 -0.298562 0.037275 0.068318 0.031368 -0.221781 -0.025670 0.139228 -0.073571 -0.114448 -0.184273 0.074450 -0.225865 -0.079765 -0.024380 -0.117972 0.050473 0.144078 -0.228520 -0.321326 -0.081194 0.149629 -0.100944 -0.317724 -0.044783 0.073639 0.005849 -0.217912 -0.303860 0.145064 -0.023695 0.200732 -0.432081 0.286346 0.075673 0.132294 0.220046 -0.128893 0.219927 -0.254864 -0.039550 0.003351 0.116331 0.200422 -0.033524 0.123647 0.235777 -0.106814 -0.139236 0.071481 -0.091796 0.058945 -0.078078 -0.136262 0.026138 -0.140335 0.064182 -0.259765 0.004630 0.103868 -0.091753 -0.087231 -0.123784 0.166311 0.064656 -0.118096 -0.136023 0.160744 -0.080502 -0.000173 -0.136259 -0.089598 0.048513 -0.057010 0.048979 0.043772 0.124915 0.006088 0.314269 -0.053681 -0.181188 0.010266 -0.258931 -0.221443 0.003953 -0.111971 0.067394 -0.193942 -0.099546 0.066786 0.057287 0.172335 -0.258612 0.110246 0.104213 -0.082398 -0.008663 0.072919 -0.038990 -0.084673 0.451443 0.091323 -0.215380 0.107606 0.231584 0.062810 -0.098838 0.111238 -0.049215 -0.149802 0.080911 0.102181 0.032546 -0.100102 0.122404 0.022909 0.293450 0.176657 -0.114154 -0.038414 -0.188410 -0.061886 0.359681 0.130650 -0.143321 0.002097 -0.120067 -0.050464 -0.115140 -0.097944 -0.267743 0.178007 0.127599 -0.051700 -0.021268 0.168775 -0.190359 0.205076 0.001355 0.015211 -0.085128 0.122345 0.012441 -0.032221 0.026001 0.118763 0.241222 -0.315832 0.414049 -0.050340 0.288787 -0.146524 -0.209302 -0.300259 -0.183713 -0.041886 0.184231 -0.029658 0.073937 0.097073 -0.060407 0.074366 -0.109326 0.000026 0.037915 0.068522 -0.209900 -0.152189 0.207473 0.164818 -0.050929 -0.077718 0.033722 0.017988 -0.184557 -0.059569 -0.077189 -0.051973 0.138631 0.086971 0.020394 -0.079577 -0.174680 0.112114 0.140221 -0.177147 0.007648 0.048566 -0.198979 0.057611 0.104420 -0.014842 -0.120931 0.155871 0.075846 -0.001854 -0.008914 -0.132121 -0.068568 -0.187139 -0.303253 0.151008 0.033797 0.122442 -0.000962 0.051754 0.021356 -0.067630 -0.134480 0.288221 -0.031646 0.205529 -0.126990 0.086705 0.060011 -0.096851 -0.082199 0.022717 -0.242619 -0.143786 -0.046266 0.143454 -0.133567 -0.028318 0.257937 0.118909 0.154002 0.159426 -0.012169 0.102164 0.330128 0.184410 -0.021498 -0.161245 -0.115531 -0.043543 0.131991 -0.048109 -0.081661 0.081761 -0.132742 0.366263 -0.271484 -0.470049 0.270440 0.309775 -0.270858 0.233664 0.090851 -0.059995 -0.120460 -0.066905 -0.201437 0.115400 0.096404 0.432122 -0.297500 -0.163491 0.077984 0.016598 0.233174 0.107814 0.116872 0.207276 -0.266124 0.008936 0.006201 -0.330930 -0.040129 -0.105235 0.019396 0.128021 0.216888 0.075035 0.213440 -0.045421 -0.126536 0.019714 0.159646 0.103939 -0.088341 -0.123219 0.313430 -0.047224 0.064026 0.113248 -0.005845 -0.111102 -0.153856 0.103585 -0.240923 0.364988 0.005630 0.137648 0.150789 -0.144641 -0.024316 0.005933 0.260688 -0.036813 -0.274628 0.018169 0.275866 0.077640 -0.151094 -0.052464 -0.085712 0.216856 0.169449 -0.036006 -0.117996 0.017627 -0.122481 0.291957 -0.211496 0.018602 0.207490 -0.137471 0.210643 -0.030352 0.013572 -0.419171 0.041907 -0.142933 -0.207700 -0.141441 0.086049 0.059960 -0.164359 -0.097263 -0.285085 0.082119 0.003284 -0.130211 0.007127 0.061142 0.050475 0.000626 0.089462 0.123779 0.356797 -0.204498 0.257454 -0.026028 0.015009 0.145922 -0.049734 0.061272 -0.155576 -0.226379 -0.238701 -0.156004 -0.098706 0.246625 0.201867 0.013882 0.038747 -0.069174 0.092673 -0.116382 -0.158150 0.110256 0.148018 0.248084 0.110690 -0.029646 0.053368 -0.058036 -0.191836 0.091970 -0.046833 -0.368673 0.054056 -0.053996 -0.142620 0.006122 -0.176195 -0.227629 0.379722 -0.100887 -0.366839 0.018039 0.011310 0.102112 -0.217888 -0.085365 -0.039534 -0.005516 0.200567 0.122472 0.184325 0.361306 -0.124247 0.131244 0.465774 0.271819 0.183989 0.321102 0.250219 -0.164744 -0.085289 0.203965 0.111644 -0.159411 -0.161367 0.038907 0.091595 0.146035 -0.191794 0.086879 0.106112 0.097692 0.250315 0.216676 0.115304 -0.226946 -0.006664 -0.003316 -0.154456 -0.101749 0.003166 -0.037543 0.057775 0.136227 0.049819 0.026255 0.124558 0.248968 0.103043 -0.316663 -0.303688 0.012946 0.124628 0.141671 0.316551 0.080021 -0.145097 -0.181134 -0.235805 -0.120593 0.309228 0.129960 0.158624 -0.224952 0.074929 0.040327 0.469642 -0.002367 -0.094121 -0.009433 -0.133300 0.144731 -0.059267 -0.159826 0.115744 -0.267980 0.164428 0.105054 -0.186729 0.143891 0.278347 0.027373 0.093380 0.129712 -0.042285 0.121521 0.062941 0.105069 0.154894 -0.132428 -0.168960 0.163363 -0.137290 -0.041166 -0.052193 -0.296225 -0.305385 0.204335 -0.117277 -0.092929 -0.027413 0.179574 -0.044245 0.235420 0.132838
xe -0.255954 -0.142475 -0.015814 -0.237748 0.008187 0.075446 -0.003410 0.111445 0.132319 -0.283987 0.112941 -0.339124 -0.008508 -0.066371 -0.292399 -0.049302 0.215402 -0.042950 -0.223886 0.161453 0.247077 -0.266450 0.289102 -0.196046 -0.085840 -0.083526 -0.095227 0.194923 0.108996 -0.096521 0.024422 -0.106413 0.075497 0.195460 -0.030730 0.255110 0.055464 -0.049683 0.044770 0.100721 0.198672 0.020317 0.030245 -0.036138 0.144281 0.147371 0.110307 0.138625 -0.202396 0.018642 0.227186 0.108639 0.003422 0.050683 0.189649 -0.110937 0.203367 -0.016440 -0.247419 0.256988 -0.125618 0.165115 -0.003495 -0.211050 0.163009 -0.220704 0.223070 -0.032552 0.193362 0.278724 -0.294408 -0.337828 0.009665 -0.356180 -0.131754 0.007180 -0.031529 0.086888 -0.105749 0.178432 -0.103247 0.013684 -0.139525 0.054103 -0.021854 0.124927 -0.302895 -0.102978 0.065713 0.306087 0.196693 0.069710 0.058309 0.185203 0.012510 -0.148231 0.172538 -0.120618 0.018483 0.129536 -0.002213 0.166197 0.264308 -0.080242 -0.121417 -0.178022 0.170825 0.245842 -0.193000 -0.293642 -0.203751 0.020635 0.121896 -0.051554 0.431933 0.136194 0.007918 0.130407 -0.302350 0.109819 0.195351 -0.291236 0.240588 -0.061067 0.008912 0.398224 0.104325 -0.293036 -0.378240 0.233036 -0.321625 -0.055542 -0.099729 -0.118859 -0.089147 0.017961 0.313736 -0.170478 0.124720 0.014967 0.082265 -0.139920 -0.078088 -0.219147 -0.320873 -0.068233 0.080886 -0.259031 -0.139383 0.015825 -0.029736 -0.236314 -0.171554 -0.108369 0.028305 -0.148780 -0.195289 0.065977 -0.241342 -0.162497 0.104465 -0.034543 0.002132 0.047871 -0.203931 -0.063872 0.014361 0.237447 0.019598 0.071305 -0.120760 -0.342937 -0.009232 -0.181673 -0.050460 0.013066 0.277984 -0.298490 0.233578 -0.166703 0.017405 0.133850 0.181134 -0.229379 -0.135722 0.090756 -0.042945 0.254740 0.075289 0.140341 0.004956 -0.088360 -0.258671 -0.018264 -0.084998 0.059579 -0.147309 -0.156789 -0.204690 0.217019 -0.238729 0.068912 -0.055654 -0.101148 0.023390 -0.052328 0.081341 0.225030 0.180700 0.184852 0.004823 0.050116 -0.164478 -0.145936 -0.311245 0.079059 -0.107955 -0.098475 -0.163420 -0.024979 -0.155736 0.143096 0.203305 0.122216 -0.015260 0.087275 0.166138 0.103569 -0.086681 -0.065936 -0.008443 -0.383624 -0.025714 -0.044590 0.091990 -0.014454 0.287375 -0.123818 0.243749 -0.162811 -0.384859 0.087563 0.129523 0.025422 0.054256 -0.054837 0.285412 -0.106534 -0.238686 0.060699 0.084424 -0.000798 -0.056687 -0.214810 -0.194839 0.005769 -0.007581 0.068290 -0.006759 0.230970 0.035688 0.306432 -0.063293 0.053127 0.087964 -0.142117 -0.118322 0.020553 -0.135416 0.178761 0.109329 0.102732 -0.011271 0.199282 -0.244350 0.120809 -0.148572 0.069747 0.082195 0.084226 -0.098712 0.291032 -0.154708 -0.156229 -0.000058 0.194589 0.084316 -0.122387 -0.066423 0.070466 -0.044098 0.022801 0.002663 0.150457 0.080581 0.006030 -0.150734 -0.119960 -0.065101 0.061271 -0.156123 -0.008195 -0.181732 0.024527 0.143604 0.106923 -0.047721 0.133910 0.134586 0.025111 -0.171186 0.083852 -0.092161 -0.056809 0.130506 0.302952 0.023313 -0.189276 -0.334181 -0.088076 -0.260632 0.032024 0.116371 0.220751 -0.180289 0.052709 -0.019951 -0.079229 0.063125 0.081712 -0.039360 0.015826 0.162933 -0.072676 -0.107298 -0.112572 0.130304 -0.171102 0.178821 0.008653 0.050923 0.232223 -0.094248 -0.073548 -0.288219 -0.009246 -0.214850 0.036740 0.076791 -0.022029 -0.060717 -0.107472 -0.148391 -0.067317 -0.081885 -0.034862 0.067617 0.091708 0.420034 -0.049236 0.106177 0.174894 0.000050 -0.083121 0.004591 0.197266 -0.089905 -0.059953 0.164286 -0.230221 0.135145 0.077730 -0.265229 0.257722 -0.080392 0.015162 0.296144 0.080998 -0.123297 0.018333 -0.016552 -0.108071 0.014158 0.106114 0.127490 -0.149528 -0.006160 0.105878 -0.247709 0.264678 -0.012054 0.221863 -0.184831 0.176364 -0.229321 0.356338 -0.009549 0.210118 0.173938 -0.146920 -0.012693 -0.033137 -0.342544 0.013963 0.174900 -0.086800 0.386341 0.056287 0.044611 -0.197723 -0.060771 0.015188 -0.265433 -0.038292 0.076319 0.013572 -0.113571 -0.023564 0.114918 0.065957 -0.124373 -0.308535 0.068823 -0.023680 0.049208 -0.182667 -0.092438 -0.167244 0.112342 0.136629 0.244730 0.143761 0.045881 0.253328 -0.100880 0.112627 0.103951 0.054847 0.062052 -0.051452 -0.094516 -0.236678 -0.047036 -0.118341 -0.085331 0.092149 0.051773 0.052330 -0.126048 -0.086439 0.063725 -0.188599 0.049170 0.008889 -0.031889 0.328213 0.276175 -0.070120 -0.135217 -0.226400 0.053512 -0.200331 -0.086972 0.131948 0.359505 0.179528 0.202422 -0.155529 -0.082223 0.171842 0.261558 -0.129295 0.271064 -0.637995 0.050510 0.113939 -0.094369 -0.131397 -0.153480 -0.113636 0.090717 0.110026 0.011742 -0.031230 -0.032562 0.023525 -0.203375 -0.022920 -0.067658 0.135781 -0.089281 -0.152325 -0.068202 0.252179 -0.132040 -0.294471 0.270717 -0.001994 -0.020152 -0.095322 0.008000 0.205330 0.223206 -0.238554 -0.157457 0.153773 0.010377 0.173457 -0.069618 0.384638 -0.014476 0.085736
uk 0.118654 0.024356 0.103780 0.040065 -0.144113 0.170542 -0.011011 0.091550 -0.177304 0.422863 -0.089897 0.104037 0.062212 -0.283103 0.064306 0.086099 -0.066913 0.026647 0.005813 -0.202206 -0.298750 -0.063407 -0.100022 -0.073691 0.149304 -0.260384 -0.017495 0.141222 0.029860 -0.185552 -0.036356 0.238216 -0.303769 0.098333 0.149443 0.032585 -0.028632 0.014550 -0.079382 -0.063503 -0.202882 0.099213 -0.161970 0.347004 -0.002809 -0.255974 -0.048202 -0.140709 0.074762 0.165300 -0.000288 0.080965 0.170467 -0.058789 -0.043897 0.001754 -0.147130 0.089405 -0.015961 -0.017416 -0.060921 -0.258269 -0.084269 0.148487 -0.043175 0.070537 -0.184659 -0.019698 0.001259 0.090365 0.064252 0.099784 0.157902 0.027096 0.197249 -0.037587 -0.022043 -0.082249 0.076198 0.002787 0.116320 -0.280715 0.089896 -0.070013 0.074709 -0.058346 0.334944 -0.031260 -0.156604 -0.015530 0.093333 0.261574 0.014140 0.002023 0.047772 -0.146243 -0.020833 -0.011411 0.037375 0.086376 0.129909 0.040483 0.008659 -0.063952 0.251164 -0.057261 0.062442 -0.256012 0.016977 0.173160 -0.027542 -0.036831 -0.053307 0.014126 -0.282322 -0.032342 0.060090 -0.117469 0.187631 -0.108435 0.027624 0.216254 -0.322316 -0.074631 0.144809 -0.105844 -0.097553 0.297078 -0.048804 0.039973 -0.053496 0.088746 0.017403 0.028115 0.091507 -0.139252 -0.150509 0.041588 -0.093220 -0.074824 -0.146847 0.117166 0.022823 0.141470 -0.019262 -0.176723 -0.032497 -0.081021 -0.227860 0.166515 -0.319478 0.346439 0.095330 -0.142951 -0.253490 -0.091129 0.167996 -0.260024 -0.144585 0.050117 -0.141812 0.112911 0.024363 -0.214721 0.001076 0.031296 0.095852 0.084575 -0.069776 -0.082346 0.113540 0.005260 -0.108547 0.027756 0.070236 0.171088 -0.376727 0.010869 -0.118493 0.036605 -0.041256 -0.171734 0.072837 0.222549 0.021467 -0.059457 -0.157108 -0.097180 -0.034854 -0.262655 0.055460 0.189206 0.178382 0.239194 0.330048 0.237084 0.251241 0.033632 0.038712 -0.077985 -0.253152 0.114092 -0.083135 0.046950 -0.156263 0.199131 -0.005237 -0.241243 0.004823 -0.037614 0.106022 0.257952 -0.061203 0.198857 0.176058 0.125749 0.089404 0.119189 -0.065278 0.021294 0.023340 0.036523 0.080242 -0.089607 0.140238 0.034710 -0.371790 0.111948 0.116362 0.002265 0.050575 -0.139850 0.219337 0.075003 0.067334 -0.072026 -0.056030 -0.022505 0.270350 0.199354 0.059478 0.002917 -0.263093 -0.068166 -0.130967 -0.065107 -0.057977 0.070537 0.091551 0.008317 0.078040 -0.028436 -0.037120 0.083625 -0.039838 -0.168529 -0.010778 -0.239829 0.219382 0.111903 0.081484 -0.190039 -0.107328 -0.122263 -0.003080 -0.007166 -0.055697 -0.018524 0.151622 -0.033621 -0.152322 0.128993 0.176595 -0.011448 -0.067986 0.077890 0.181702 0.026806 -0.214197 -0.205962 0.203343 0.031232 0.115073 0.178015 0.036894 -0.066954 0.033344 0.202375 -0.050276 0.016275 0.028533 -0.044086 0.019026 0.166658 -0.242512 -0.072742 -0.012528 -0.006470 0.291289 0.074133 -0.001710 0.070180 0.148688 -0.141893 0.192684 0.005847 0.113850 -0.306296 -0.041194 -0.063161 0.010972 -0.080644 0.265752 -0.017963 -0.128170 -0.295804 0.058810 -0.091434 0.187883 -0.323039 0.261657 -0.119685 -0.200762 -0.212329 0.081791 -0.037994 0.089950 -0.083363 -0.119234 0.105424 -0.114708 -0.269094 -0.168983 -0.054152 -0.133186 -0.005957 -0.125702 -0.116709 -0.047410 0.017052 0.034699 -0.252556 -0.086120 0.148847 0.188430 0.272102 -0.087284 0.028324 -0.040688 -0.093235 0.043741 -0.036352 0.118224 0.111542 0.157567 -0.033331 0.190786 -0.075898 -0.366804 -0.235577 -0.103840 -0.141842 0.108712 0.111496 -0.047940 0.135311 -0.044178 0.108860 0.085633 0.086281 -0.132733 -0.183962 0.226982 -0.178285 -0.061943 -0.061103 -0.066214 -0.184798 0.154922 -0.097162 -0.041626 0.027642 -0.136387 -0.104864 0.058216 -0.101074 0.004955 0.184569 0.348859 0.073811 0.095443 -0.021819 -0.225418 0.013620 0.149985 -0.305425 -0.025748 -0.112215 -0.093853 0.091054 0.006097 0.042670 0.237811 -0.121524 -0.200097 -0.010694 -0.375457 -0.046119 -0.007823 0.239307 0.192049 0.098755 0.201229 -0.128651 0.071300 -0.305329 0.128320 -0.033337 -0.047626 0.138315 0.209587 0.083309 0.289286 0.059748 0.225127 0.259299 0.001290 -0.048213 0.011226 -0.255957 -0.250363 -0.299590 0.032133 0.308591 0.093038 -0.009393 0.103000 0.353428 -0.161037 0.027073 -0.064013 0.250021 0.057654 0.046886 0.109833 -0.102755 0.209417 -0.063533 0.026167 0.113455 0.028427 0.326705 0.062181 0.029968 0.098105 -0.111782 -0.121702 -0.011973 -0.005969 0.032608 -0.134535 0.139614 0.117246 -0.217651 -0.013368 -0.206760 0.167250 -0.229916 -0.026414 0.014515 0.157472 0.251168 0.059382 0.400437 -0.129858 -0.108001 0.082635 -0.168117 -0.050457 0.096476 0.005292 -0.092282 -0.279375 -0.093586 0.192790 -0.006475 0.149492 0.116856 0.062233 0.125561 -0.101303 -0.014409 0.070402 -0.144514 0.092652 -0.207330 -0.008300 -0.398477 0.296077 0.052875 0.090711 0.082567 -0.115324 -0.122657 0.285357 -0.218702 -0.005339 0.068023 0.135255 0.058775 -0.081555 0.137467
? 0.104231 0.117734 0.111654 -0.034015 -0.017148 -0.109379 -0.145353 -0.340543 -0.021448 0.046271 -0.214278 -0.024231 0.064915 0.238259 0.003338 0.130914 0.105415 0.184596 -0.010896 0.274525 -0.149785 0.076715 -0.014588 -0.114931 0.324271 -0.089513 0.036225 -0.064075 0.069801 -0.114428 0.460653 0.203084 -0.108088 -0.185848 0.069817 0.498700 -0.007520 -0.075505 -0.112814 0.090423 0.115197 0.024856 -0.016246 0.144619 0.313554 0.003903 -0.026184 -0.143810 0.087001 0.106845 -0.044805 0.113068 0.029661 0.180495 0.021816 0.015887 0.328828 0.181134 -0.051915 -0.132401 0.055668 -0.302721 -0.123796 0.178253 0.187076 0.066297 0.121523 -0.269164 0.211866 0.120231 0.104844 0.136561 -0.303736 0.073900 0.025237 -0.334700 -0.242896 0.089009 0.093971 -0.172134 -0.030702 0.083003 -0.127088 -0.114235 -0.198096 -0.117434 -0.077664 -0.003892 -0.116710 0.221984 0.018517 0.328806 -0.296698 -0.225616 0.342755 0.364366 0.032822 -0.221959 0.055815 0.035630 -0.050528 -0.076213 -0.465486 0.099264 -0.035553 0.001373 -0.225046 0.006804 0.149550 -0.064682 0.038221 0.183440 -0.035844 -0.050584 0.014860 0.048960 0.128721 -0.226422 0.097394 -0.146439 -0.027889 0.149597 0.017031 0.117907 0.148867 0.214632 0.114615 0.061035 0.079948 -0.170095 0.170941 -0.205354 0.059692 -0.315633 -0.123280 -0.031866 -0.352019 0.164447 0.254680 0.232440 0.118888 0.217654 -0.130815 -0.103425 0.046823 -0.233581 0.113272 0.176190 0.130368 0.121064 -0.020998 0.022698 -0.337846 -0.188034 -0.069309 0.116032 -0.224359 0.182372 -0.427420 -0.242212 0.038356 0.125823 -0.083420 0.014137 -0.007467 -0.058181 -0.152017 -0.006265 -0.321462 -0.134345 -0.021485 0.333793 0.057458 -0.002164 0.110150 -0.061341 0.007326 -0.209004 0.020041 0.227780 -0.108551 -0.192129 -0.109735 -0.065060 -0.561195 -0.309479 -0.095320 -0.205250 -0.137279 0.048823 -0.055321 -0.100012 -0.071564 0.104845 0.165109 0.000025 -0.045028 -0.189467 0.237821 0.122202 -0.197286 -0.015949 -0.011896 0.000019 0.004815 0.402416 -0.155255 -0.049270 0.100098 -0.104259 -0.195722 0.274310 0.090707 -0.244067 0.220554 0.146314 0.107733 0.035815 0.018188 -0.029386 -0.037969 -0.048616 0.215295 0.089801 0.213377 0.227648 -0.082479 0.019490 0.396978 0.024989 0.315734 -0.019425 0.239672 -0.016334 0.080033 -0.241218 0.125455 0.154198 -0.494922 0.203977 -0.033594 0.030718 -0.021762 -0.039801 0.200559 0.036347 -0.181301 0.051570 0.232148 0.122509 -0.265418 0.005223 0.000271 -0.075692 0.245609 -0.017064 -0.040085 0.410726 0.170265 0.101877 -0.033271 -0.056397 -0.147821 -0.024446 -0.175446 -0.149214 0.187628 -0.110081 0.058892 0.067162 -0.144392 -0.065695 0.429304 0.235607 0.011595 0.143381 0.226760 -0.075745 -0.180605 0.223262 0.267924 0.005545 0.007583 -0.251516 -0.461914 0.153655 -0.551320 -0.086147 0.030194 0.114784 0.178162 0.023518 0.045960 -0.348307 -0.278974 0.123501 -0.107837 0.144120 0.100445 0.001882 -0.006696 0.120165 -0.125606 -0.088370 -0.016323 -0.036146 0.300204 -0.100324 0.249684 -0.101060 0.233007 -0.156299 -0.360317 -0.059559 -0.404777 0.064837 0.155118 -0.176716 0.085170 -0.195767 0.085781 -0.290394 -0.312767 0.034868 0.136457 -0.061151 -0.040011 -0.046684 0.032441 0.151327 0.106903 -0.178385 -0.012350 0.265408 -0.034896 0.289096 -0.246259 -0.072490 0.184724 -0.003763 -0.128589 -0.352987 -0.042637 0.160189 -0.171024 0.103905 -0.125621 -0.215409 -0.180554 -0.020383 0.423602 -0.282802 -0.006062 -0.093392 0.247583 -0.066701 -0.114692 0.238796 0.099318 0.117987 -0.088121 -0.375385 0.213849 -0.329467 0.231895 0.049787 0.087173 0.087922 0.149434 -0.030353 -0.070287 -0.101641 -0.080713 -0.082250 -0.068288 0.181299 -0.010154 0.210963 -0.150717 -0.094733 -0.335978 -0.126289 -0.070429 0.365290 -0.085776 0.035219 0.070252 0.177614 0.034361 0.038502 0.036851 -0.042874 0.070965 0.130190 -0.132484 0.139743 0.082340 -0.236365 -0.027224 0.171827 -0.301014 -0.067465 -0.016680 -0.244649 0.104971 0.297140 0.073612 0.032913 0.040868 0.072798 0.147493 -0.053597 -0.284819 -0.383775 -0.143550 -0.086705 -0.272675 0.117911 0.015644 0.199670 0.023358 0.130166 0.037024 0.000941 0.206919 -0.005314 0.115436 -0.146459 0.060480 0.198730 -0.157333 0.134987 0.333459 0.165982 0.168776 0.136642 -0.216580 -0.240381 -0.123484 0.233188 0.219612 0.094083 0.095102 0.097178 -0.048724 0.216261 0.009143 0.089197 -0.084336 0.280932 -0.076403 -0.139381 -0.128408 -0.272301 -0.064243 -0.256335 0.101814 0.162172 -0.337493 0.106357 -0.024416 -0.117395 -0.033334 -0.032484 -0.264366 0.150860 0.106223 0.119044 0.361449 -0.159897 0.102520 0.051729 0.178234 0.331696 0.035889 -0.102193 -0.323580 0.039480 0.027041 -0.201953 -0.128484 0.116945 -0.080183 -0.168835 0.161094 -0.054642 0.151826 0.314865 0.086252 0.164183 0.223706 0.273192 0.090899 0.046431 0.032263 -0.073404 -0.150103 -0.004486 -0.173139 0.050971 -0.006999 0.192776 0.006091 0.134125 -0.105286 -0.110113 0.165073 0.146044 -0.299956 -0.166070 0.070235 0.102337
ag̃okatkat 0.264113 0.136900 0.082577 -0.111832 0.263493 -0.023221 0.241079 -0.145644 -0.145520 0.285915 -0.177729 0.101261 0.185504 0.142277 0.021860 -0.134646 -0.183673 -0.067294 0.296976 0.166837 -0.131335 0.085356 -0.123868 0.225165 0.017091 0.044033 -0.011281 -0.265781 -0.138834 0.106956 0.020948 -0.102156 0.294104 -0.064118 -0.071054 -0.216933 -0.348037 0.086195 0.038012 -0.035782 0.172348 -0.128222 -0.310945 -0.058465 -0.107305 0.074807 0.043071 0.279097 0.120669 -0.020218 0.201794 0.103765 -0.153498 -0.227096 -0.104470 0.066431 -0.053207 -0.189121 0.083346 0.121534 -0.038529 0.014411 -0.174676 -0.006329 -0.279648 0.152163 -0.063364 0.234442 -0.336218 -0.079705 0.272336 0.148043 -0.207260 0.286593 0.050613 0.311336 0.267609 -0.174152 0.210461 -0.217961 0.077817 -0.151557 -0.021669 -0.174396 -0.077435 -0.061274 0.446891 0.075258 -0.030350 -0.005796 -0.172700 -0.156339 0.127213 -0.101921 0.004458 -0.047739 0.122047 0.093633 -0.058766 0.246235 -0.153985 -0.112475 -0.093934 0.171885 -0.258041 0.246864 0.213137 -0.120339 0.123564 0.018634 0.162811 -0.141044 0.052530 0.250994 -0.090787 0.169513 -0.031850 0.113976 -0.082089 -0.149248 -0.060918 -0.043889 -0.044147 0.115464 0.057893 -0.216419 -0.154804 0.087796 -0.240545 -0.219812 0.059196 0.018401 0.003841 0.200423 0.013739 -0.117665 0.031438 0.201403 0.001508 0.209332 0.098671 0.177634 0.110824 -0.057910 0.167051 -0.096325 -0.065634 -0.199858 -0.012806 -0.112787 0.012563 0.048749 -0.012318 0.218371 -0.127476 -0.019058 0.232623 -0.016867 0.056313 -0.066603 0.038153 0.232848 0.181816 -0.065636 0.241467 0.283556 -0.005192 -0.136562 -0.048042 0.090132 -0.287203 -0.098745 0.172767 -0.102718 0.094698 0.126901 0.043537 0.106707 0.063756 -0.144443 0.109001 0.209622 -0.261025 0.066527 0.109679 -0.027914 0.212281 -0.154238 0.053771 -0.038081 0.216845 -0.047709 0.189228 0.189034 0.307562 0.081513 0.235729 0.179802 0.188644 -0.245046 -0.119415 -0.324361 0.125325 -0.125389 -0.192788 -0.044357 0.028577 -0.021952 0.183644 -0.011307 0.186574 -0.028264 0.037178 0.094563 0.266673 0.024953 0.003529 -0.199793 0.124502 -0.067924 0.242871 0.061736 -0.030635 -0.144675 0.272572 -0.132155 0.002965 0.097868 -0.055266 0.082016 -0.303435 0.191161 0.359166 0.070628 -0.282334 -0.111682 -0.217895 -0.005457 0.146679 0.048044 0.121198 0.089450 -0.196059 -0.032074 -0.156225 -0.038974 0.040468 0.136660 0.195536 -0.237988 0.172441 0.007144 -0.176581 0.020773 -0.040614 0.214218 0.019906 0.184695 -0.035575 0.012089 -0.356197 -0.104717 0.291130 0.008024 -0.188127 0.305013 0.111225 -0.194706 -0.019817 -0.127898 -0.180512 -0.189881 0.095335 0.096898 0.240847 -0.323066 -0.212856 0.063218 0.144783 -0.047945 0.327060 -0.080215 -0.096161 0.330989 0.023759 0.061850 -0.032512 0.266935 -0.217261 -0.079690 0.016908 -0.042405 0.116259 0.169782 0.177585 0.079783 0.102020 -0.007867 0.094707 -0.081763 0.155805 -0.228825 -0.052605 -0.048121 -0.060070 0.054561 0.262683 0.077450 -0.071465 0.021947 -0.124191 -0.143637 0.087725 -0.010551 0.228432 -0.093190 -0.002260 0.074324 0.125743 0.384064 0.082162 0.099549 0.000549 -0.180484 0.230212 0.131407 0.181875 0.199841 0.174994 -0.368274 0.065138 0.186710 -0.097420 0.120747 0.204962 0.039414 -0.151434 0.144769 -0.167017 -0.019560 -0.068667 -0.166273 -0.186211 -0.177243 -0.056704 -0.218265 -0.120782 -0.026887 0.134315 0.128016 -0.010555 -0.046429 0.139513 0.124590 0.160853 0.063068 0.339043 -0.057796 -0.179190 -0.029393 -0.033485 -0.007916 0.075135 0.093975 -0.000406 -0.067987 0.128370 0.018109 -0.240347 -0.022295 0.152074 -0.106804 0.366277 -0.105993 0.018500 -0.155151 -0.128674 -0.170472 0.138041 0.171119 -0.267932 -0.121476 -0.043368 -0.031856 0.067874 0.022035 0.032505 0.114364 0.092918 -0.176893 0.133638 -0.288902 0.134585 0.006666 0.138537 -0.389131 0.022896 -0.103134 0.080478 0.117222 -0.051345 0.142919 0.212952 -0.207617 0.132846 -0.020570 0.231973 0.130580 0.179602 0.323596 0.101838 0.195200 0.049387 0.081983 0.360868 -0.253798 -0.076492 0.031985 0.185411 0.032450 -0.071487 0.120703 -0.141247 -0.156866 -0.212053 -0.229945 0.177854 -0.007362 -0.080137 -0.107950 -0.037157 -0.081349 -0.053044 0.067944 0.011978 -0.298298 -0.060245 0.217172 -0.190411 -0.012688 0.178600 -0.207638 -0.093338 0.016585 -0.071702 -0.205407 -0.088536 0.030689 -0.066515 0.026466 -0.008380 0.090999 0.133313 -0.295839 0.084497 0.050836 -0.346140 -0.005974 -0.446160 -0.089669 -0.087225 0.210627 -0.174689 -0.138944 -0.187950 -0.120495 -0.071033 0.100164 0.077709 -0.242295 -0.198262 -0.049473 -0.188960 0.045420 0.182011 -0.136815 -0.001061 0.028998 0.141652 -0.124418 0.009302 -0.128258 0.116715 -0.094805 0.019942 0.120761 0.271967 -0.167271 0.058436 -0.127079 -0.062090 0.032341 0.169779 0.178966 0.318078 0.020288 -0.089501 0.062216 0.083212 -0.085958 0.253826 -0.462540 0.091551 -0.100633 -0.138858 -0.052880 -0.103875 -0.151833 -0.075723 -0.200262 0.023585 0.079326
Awawa 0.052092 -0.108521 0.157878 -0.139740 0.092604 0.042441 -0.193153 0.032249 -0.254746 -0.192309 0.150936 -0.135856 0.069839 0.107500 -0.030710 0.318004 0.219888 0.034537 -0.025936 0.255397 0.122114 -0.130913 0.015364 -0.037492 -0.048456 0.000061 0.283303 0.263612 -0.034287 -0.159438 -0.022284 -0.052416 -0.185515 0.041317 -0.111079 0.171949 -0.320394 -0.052523 0.248621 0.179854 0.062998 0.259389 -0.054309 -0.115262 0.061044 -0.100582 0.136106 -0.033935 0.018132 0.014418 -0.093260 -0.070515 -0.050793 0.077083 0.060075 -0.027968 0.050847 -0.018395 -0.098739 -0.181750 -0.027417 0.153580 0.097555 0.007502 0.095944 0.046129 0.122274 -0.038392 0.249466 0.039148 -0.006560 -0.186827 0.150992 -0.254545 -0.163108 -0.197630 -0.077127 0.116662 -0.136372 0.228778 -0.179379 0.005410 -0.036173 0.182370 -0.168206 0.115952 -0.170000 0.023069 0.306579 0.093832 0.059430 0.099083 0.141775 -0.074948 0.393202 -0.065620 -0.076456 -0.213261 -0.107185 0.199878 0.020654 -0.123338 -0.162863 -0.188914 -0.203281 -0.212988 -0.151781 0.246676 -0.000618 -0.079331 -0.293719 0.161865 0.143290 -0.012146 0.160180 -0.050695 0.259942 0.020289 0.064447 0.041207 -0.059109 0.161122 0.102635 0.062156 -0.007996 0.151330 -0.101452 0.096843 -0.089986 0.103843 -0.089204 0.080909 -0.157617 -0.311438 0.025128 0.035842 -0.184534 -0.041407 -0.009510 -0.035277 0.126219 -0.021739 -0.146877 0.126272 -0.111638 -0.017006 -0.214580 0.136651 -0.004715 0.184663 0.146053 -0.099897 0.104079 0.220174 0.077532 -0.017761 -0.158688 0.105504 -0.233613 -0.144866 -0.034826 0.048667 -0.104412 0.016866 -0.106315 -0.101396 0.042652 0.110354 0.250028 0.090781 -0.010427 0.027616 0.021770 0.129315 -0.229408 -0.006515 0.208049 -0.063186 0.082935 -0.028555 0.030724 -0.090438 0.211832 0.168100 -0.099295 0.053824 -0.184893 -0.085284 0.087371 0.076884 -0.076725 0.014111 0.054182 0.039360 -0.013607 -0.185636 -0.106060 0.056386 -0.159554 0.175253 0.275796 -0.020909 0.015524 -0.000582 0.181069 0.036944 -0.011728 0.181945 -0.003408 0.017351 -0.216412 -0.043548 -0.056199 -0.057470 -0.327876 0.321843 0.193413 -0.051092 0.097457 0.093258 -0.300359 0.003511 0.150992 0.323364 -0.272643 0.035427 0.184627 -0.059483 0.094977 0.112368 0.135140 -0.080644 -0.172726 -0.054385 0.293999 0.144001 0.086433 0.171346 -0.178201 0.009066 -0.145796 -0.127596 -0.143435 0.011938 0.119301 0.407951 0.099899 -0.125280 -0.235698 -0.046230 -0.041811 -0.164654 0.024097 0.080570 0.269220 0.028093 -0.041715 0.211650 -0.087122 -0.003555 0.041505 0.167922 -0.145327 -0.087662 0.133214 -0.067215 -0.130573 0.099139 0.211341 0.240336 -0.125036 -0.058650 -0.253075 0.051900 0.101482 0.101731 0.252078 0.055216 0.063806 0.053731 -0.080662 -0.042720 0.238885 -0.252873 -0.087336 0.077687 -0.370055 0.012295 -0.000574 0.064141 0.062396 -0.119816 -0.005274 -0.071131 0.066939 0.107552 -0.118914 -0.276516 -0.035584 -0.012965 0.095542 0.020262 -0.021186 0.004576 -0.148175 0.064751 -0.101532 0.091946 0.131887 0.211244 -0.080201 0.124727 -0.186350 0.250871 0.008117 0.010745 0.056976 -0.128130 -0.122332 -0.046267 0.013192 0.173631 0.146551 -0.030408 -0.170562 0.106438 -0.200328 0.046830 -0.136972 0.292909 0.084488 -0.052311 0.292976 -0.118787 -0.164119 -0.035240 0.091367 0.114729 -0.021677 -0.009347 -0.041669 0.070335 0.013131 -0.143645 0.068624 0.027968 0.044166 -0.058253 -0.070608 -0.027431 -0.226099 -0.020618 -0.141717 -0.116362 0.105545 -0.054964 -0.194412 0.070699 0.156736 0.183292 0.070534 0.095536 0.062915 -0.186301 -0.043955 -0.111070 0.155602 -0.192203 0.038803 -0.029644 -0.067139 -0.162613 -0.215959 0.152298 -0.126378 0.096116 0.051802 0.209225 -0.089933 0.042621 0.145282 -0.000650 -0.099176 0.233675 0.018808 0.319760 0.023775 0.067662 -0.155084 0.195867 -0.122391 0.176866 -0.011939 0.036090 -0.429014 0.299414 -0.127054 0.169248 0.099531 -0.083627 0.044512 -0.101703 -0.107688 0.056719 -0.014607 0.124832 0.056515 -0.209888 0.061238 -0.218183 -0.150459 -0.230457 -0.010633 -0.089957 -0.200810 0.043255 0.192093 -0.191808 0.097921 0.137612 -0.131580 -0.294488 0.004095 0.151509 0.208466 -0.026592 0.010042 -0.097781 0.147623 0.088538 -0.099003 0.162454 0.027475 0.009897 0.127095 -0.051822 -0.200807 0.291791 0.146570 0.021380 -0.047212 -0.107199 -0.132186 0.162259 -0.020125 0.239808 -0.103054 0.163320 0.030648 -0.004229 -0.046725 -0.138840 0.241633 0.144903 -0.045954 0.044347 0.108843 -0.343468 0.003960 -0.083760 0.089154 -0.213719 -0.149298 -0.091582 0.196456 0.049574 -0.064569 -0.008227 0.101037 -0.127892 0.077587 -0.207556 0.185728 -0.158945 0.167776 0.095330 -0.015590 -0.260872 -0.038756 -0.372950 0.265612 0.005029 0.246167 0.043027 -0.154068 -0.037540 -0.139408 -0.017052 -0.204782 0.066192 0.009619 0.155857 -0.120720 -0.067199 -0.271157 -0.388271 -0.210125 0.029617 -0.108541 -0.050108 -0.099529 0.107556 -0.006661 -0.005321 0.018764 0.006018 0.104950 0.029145 -0.231617 0.018614 0.215693 -0.078090
Toxaw 0.297918 -0.014467 0.083231 0.141482 0.178418 -0.016010 0.058432 0.039749 0.195365 -0.043282 -0.033027 -0.207076 0.067226 0.075249 0.093545 0.168933 -0.177098 -0.010554 0.215210 0.236844 -0.217903 -0.053478 0.069580 0.073268 -0.031108 0.125992 0.083394 0.022889 -0.289921 -0.257540 0.172821 0.093384 -0.127593 -0.025479 0.146094 0.172868 -0.116829 -0.075288 0.169890 0.080427 -0.073560 0.107509 0.166177 0.111153 0.092984 0.114932 -0.048601 -0.127430 0.240509 0.155615 0.365135 0.356530 0.009411 0.007932 -0.181119 0.102971 -0.068524 -0.063316 -0.244076 -0.012948 0.109205 0.208596 0.090701 -0.005040 -0.039764 -0.106474 -0.045838 -0.032458 -0.168526 0.232928 0.017985 0.162303 -0.020895 0.142427 0.078563 -0.160020 0.125754 -0.139054 -0.051664 -0.018146 -0.217548 -0.207974 0.003121 -0.047425 -0.384628 -0.026908 0.131560 -0.142345 0.250325 -0.024841 0.079903 0.159581 -0.026643 -0.108895 -0.034209 -0.043541 -0.306486 -0.098032 0.237903 0.047182 0.128589 0.054242 -0.166032 -0.195769 -0.233590 0.219021 0.025446 -0.083199 0.161707 0.137728 -0.173308 0.051401 0.002689 0.145740 -0.054177 0.144768 0.231910 0.091737 -0.003065 0.028962 -0.003761 0.196961 0.313706 0.080335 -0.004119 -0.240188 -0.027297 0.331359 -0.020346 -0.140130 -0.201081 -0.145937 0.008056 -0.133792 0.156607 0.012073 -0.191122 0.056661 0.048085 -0.141987 0.108065 0.299007 0.129466 -0.041719 0.240629 0.044232 -0.170891 -0.152572 -0.160382 0.207851 0.099126 0.018604 0.097038 0.046613 -0.072746 -0.109514 -0.139716 0.025680 -0.221084 -0.230831 0.065834 0.259842 0.149933 0.283498 0.088435 -0.069589 -0.077995 -0.110864 0.138911 0.175582 0.197134 0.004865 0.015206 -0.099480 -0.293159 0.238993 0.099418 -0.116848 0.124662 -0.167947 -0.092811 -0.179559 0.227427 -0.140388 -0.063617 -0.052584 -0.023924 0.094443 0.073040 -0.130220 0.145690 -0.029511 0.149703 0.096740 0.149400 -0.131563 0.011686 0.119016 0.031400 0.188050 -0.104586 -0.122245 -0.134547 0.073020 0.159911 0.207153 0.080538 -0.115213 0.023113 -0.076324 0.172615 0.085470 -0.016707 -0.193093 0.189134 0.130195 0.358429 0.025980 0.174891 -0.020559 -0.226246 0.190524 -0.024786 0.109925 -0.023278 -0.095812 -0.180070 0.181392 0.308499 0.063926 -0.001325 0.077264 0.185133 -0.246784 -0.136880 0.066966 0.013095 0.071126 -0.093460 0.108861 0.128957 -0.045054 -0.019796 -0.285562 -0.077703 -0.161368 -0.170613 0.129852 -0.198747 -0.102077 -0.062905 -0.046003 -0.309308 -0.109559 -0.009871 -0.188609 0.034856 0.189809 0.326022 -0.268398 -0.198611 -0.018945 0.068317 -0.120549 0.267155 0.001300 -0.176445 0.008233 0.157683 0.046920 -0.289117 0.218564 -0.020661 0.109159 0.175647 -0.163809 -0.083813 -0.126243 0.097232 0.280217 -0.016825 -0.174249 -0.159449 -0.006536 -0.304578 0.242443 -0.025774 -0.012241 0.061264 -0.110944 0.174110 -0.113241 0.057080 0.033469 -0.358449 -0.030379 0.011032 0.308167 0.150901 0.253784 0.192153 -0.089107 -0.025226 -0.267094 -0.129457 0.224588 0.319905 -0.096617 -0.002043 -0.135043 0.029312 0.002800 -0.165561 0.058901 0.076955 -0.066815 0.010730 -0.248863 0.231228 0.189329 0.130124 0.205781 0.057493 -0.329712 0.292494 0.127464 0.053362 0.067749 -0.098333 0.134723 0.114496 -0.113406 -0.195480 0.168105 0.012115 -0.112937 -0.116647 0.017401 -0.128256 0.070875 0.036772 -0.020696 0.110953 0.047397 -0.015006 -0.113764 0.081511 -0.111274 -0.118994 -0.036641 0.148950 -0.225183 -0.289927 -0.056568 0.230884 -0.190315 0.101378 0.094756 -0.066216 -0.304061 0.105688 0.060216 0.132928 -0.072207 -0.181646 -0.116500 0.119980 0.287570 0.015014 -0.183880 0.053123 -0.061600 0.042824 0.232132 0.141195 0.248946 0.072239 -0.088406 -0.260184 0.032151 0.098389 -0.069208 -0.066854 0.120224 -0.091937 0.194007 0.100397 0.290822 0.317467 0.035999 0.236457 -0.058241 0.070268 -0.136981 -0.057217 0.021884 0.106799 0.128423 -0.192035 -0.037386 -0.008707 0.124961 0.068546 -0.118844 -0.170260 -0.101339 0.004452 0.028648 0.142673 0.034579 0.077130 0.086848 -0.240282 -0.059046 -0.074109 -0.073870 0.063839 -0.128736 0.152824 0.089894 0.024520 0.194550 0.192521 0.282058 0.091449 -0.109029 0.124704 -0.038060 -0.175974 -0.044559 -0.032793 -0.175314 -0.086122 0.399162 0.134061 -0.106338 -0.312952 -0.047870 -0.116644 0.287639 0.125716 0.037206 0.130317 0.064218 -0.190735 0.250513 0.070556 0.091967 -0.091398 -0.027624 0.066151 -0.183876 0.117605 -0.044751 -0.027685 -0.042544 -0.141021 -0.241095 -0.085754 -0.016971 -0.055214 -0.158659 0.188039 0.006056 0.026444 -0.056541 -0.131494 -0.162767 0.080823 -0.331523 -0.014144 0.106294 -0.065766 -0.069138 0.142340 -0.013444 -0.085389 -0.178679 0.043606 -0.149264 -0.014091 0.101132 0.017871 -0.195947 0.154949 -0.242439 -0.000851 0.261103 -0.166754 0.024394 0.134753 0.256489 0.111423 0.064335 -0.162095 -0.082099 -0.043596 -0.119910 0.020307 -0.043862 -0.071986 -0.160352 0.211831 -0.134387 0.073336 0.085572 0.182227 -0.066028 -0.309609 -0.182135 0.017627 0.200757
iwi -0.182807 0.059325 -0.064302 -0.005411 -0.330800 0.101118 -0.048547 0.269099 0.035089 0.053664 0.031140 0.029204 -0.021325 -0.206376 -0.171325 -0.033049 0.117970 -0.129921 -0.062702 -0.230841 -0.024624 -0.051239 0.099937 -0.164679 0.214298 -0.121624 -0.106517 0.300490 0.004616 0.011082 -0.261940 0.084154 -0.010566 0.074609 0.032211 0.000020 0.150962 0.206250 -0.081953 -0.074541 0.025614 0.053340 -0.181798 -0.116663 0.132062 0.091388 0.135868 0.080049 -0.167336 0.100430 0.227522 -0.084790 0.150091 -0.152782 -0.006732 0.009385 -0.236346 -0.113113 0.002341 0.065834 -0.183762 -0.096285 -0.254058 -0.239525 0.073450 -0.131297 0.127598 -0.054810 0.048669 0.103945 -0.007835 0.102911 0.120333 -0.095249 0.119594 0.163121 -0.016573 -0.116677 -0.059966 0.321027 0.242802 -0.118992 -0.029137 0.000623 0.179393 -0.131645 0.175965 0.010552 -0.248018 0.066317 0.077005 0.013440 0.099347 0.389359 -0.117612 -0.051944 0.086775 0.267396 -0.129131 -0.184159 0.004962 0.159432 0.492992 -0.168437 0.358247 -0.092343 0.206506 -0.041280 0.057032 0.180455 -0.086791 -0.040439 -0.151598 -0.117963 -0.071996 0.091259 -0.124597 0.022428 -0.146706 0.189476 0.096605 -0.086350 0.178400 0.099960 0.022089 0.029460 0.173228 -0.048839 -0.057316 0.317582 -0.245664 0.069091 -0.142437 -0.026184 0.071805 0.066662 0.010745 -0.139928 -0.121878 -0.076859 -0.203100 -0.129990 0.177373 -0.004182 -0.044733 0.016886 -0.111321 -0.117962 -0.121773 -0.086964 -0.196258 -0.184408 0.205360 0.250359 -0.220472 -0.018755 0.118999 -0.069131 0.270879 0.246667 -0.199794 -0.045807 -0.051650 -0.078594 -0.271406 -0.074412 0.096356 0.211877 0.059242 -0.129172 -0.181071 -0.154176 0.093989 -0.058736 0.205472 0.139623 -0.106517 0.016706 0.078951 -0.091442 -0.128620 0.201268 0.206972 0.027547 0.016881 0.263657 -0.105742 0.213086 -0.171072 -0.080126 0.117298 0.079229 -0.016360 0.024317 0.207443 0.048792 0.028717 -0.144312 -0.095057 0.079337 -0.157935 0.071247 -0.000833 0.084066 0.211045 -0.141900 -0.012272 -0.058788 0.111370 0.158430 0.182458 -0.030761 0.016658 0.136677 -0.138538 -0.057539 -0.054162 0.183538 -0.015676 0.006718 -0.029814 0.134044 0.088546 -0.174230 0.007084 -0.015664 -0.026660 -0.023753 -0.158253 -0.003689 -0.020177 -0.127801 0.063632 -0.000621 0.067621 0.010067 -0.008488 -0.282164 0.324660 -0.033194 0.065035 -0.059900 0.214979 0.062013 -0.022167 -0.126212 0.134705 -0.103952 -0.227417 0.226692 0.367712 0.042380 0.043472 -0.048780 -0.385118 -0.004515 -0.072216 -0.196890 0.086494 0.282270 0.229184 -0.097483 0.028871 0.163052 0.111385 -0.211874 -0.018528 0.031433 -0.225704 -0.164953 0.174436 0.087931 0.083376 0.118859 -0.119337 0.056644 -0.140464 0.295388 -0.134699 0.020853 -0.090452 0.407649 -0.096761 0.198702 0.192858 -0.244542 0.183980 0.033619 -0.409701 0.061755 0.095712 -0.010219 0.135217 0.052105 -0.331349 -0.218182 0.067782 0.074951 0.010017 -0.151079 -0.334425 0.181801 0.011999 0.133786 0.085524 0.008897 -0.043843 0.055306 -0.235503 0.074530 -0.101215 0.235457 0.272246 -0.105249 -0.054935 0.029164 -0.036665 0.000016 -0.096490 -0.259608 0.079987 -0.197554 0.041682 0.051151 -0.054337 0.047725 0.072865 -0.042638 -0.158843 -0.196237 -0.311904 -0.000672 0.173702 -0.130590 -0.284267 -0.189570 -0.010518 0.030254 -0.024582 0.125054 0.212878 0.105285 -0.107897 -0.009510 -0.144593 0.098794 -0.050869 0.191851 0.134995 -0.253797 -0.239897 0.117606 0.138402 -0.141512 -0.154742 0.103565 0.103934 0.041922 -0.134521 -0.197851 0.110106 -0.069441 -0.195312 0.014426 -0.146471 0.256532 -0.302209 0.138283 0.124470 0.016195 0.025858 -0.079626 -0.024120 -0.200607 0.044514 -0.018955 0.142489 -0.013877 -0.267759 -0.190572 -0.042284 -0.088726 0.166163 -0.108160 -0.042368 -0.138068 0.013381 -0.001222 0.331185 0.151511 -0.024467 -0.292369 -0.273898 -0.120884 0.161396 -0.074158 -0.071526 0.045530 0.071075 0.072452 0.039510 -0.048158 0.017545 0.097648 -0.008085 -0.031861 -0.121717 0.057793 -0.014604 0.144872 0.025297 -0.102858 0.073486 0.162688 -0.209436 0.018187 0.087630 0.053210 -0.070677 -0.037391 -0.054907 -0.149298 0.169221 -0.016099 -0.119247 -0.000888 0.074017 -0.145033 -0.058657 0.062433 0.191974 -0.266033 -0.114987 -0.114204 -0.060164 -0.006918 0.117185 0.082485 -0.048768 -0.013354 -0.043696 0.133310 -0.008799 -0.282849 -0.088241 -0.119539 0.017638 0.016695 0.069753 -0.002145 -0.091426 0.073444 -0.117310 -0.069064 -0.094931 0.028293 0.043839 0.023409 0.097259 0.126304 -0.098213 -0.085422 0.220752 -0.227901 0.213709 -0.107957 0.153937 -0.128473 -0.276329 0.225710 0.242423 0.281339 0.043408 -0.175143 -0.147669 0.146259 0.014952 -0.165466 -0.042823 0.154165 -0.083190 -0.116402 -0.164819 -0.183662 0.096970 -0.022898 -0.357185 -0.232302 -0.157701 0.094207 -0.332203 -0.036661 -0.169900 0.169002 0.078181 -0.224875 0.201834 -0.007420 0.218835 -0.029386 0.002210 0.130070 0.082791 0.143670 0.174029 0.078107 0.097440 -0.161557 -0.098879 0.254961 -0.094128 0.080524
oajẽm -0.085984 -0.236032 0.223188 -0.088858 0.062383 0.128461 -0.069648 0.021533 -0.085064 -0.203540 0.148076 -0.143052 -0.123338 -0.173864 0.101025 0.127973 0.076547 0.014258 -0.203656 0.330317 -0.015575 -0.345759 0.154365 -0.162872 -0.255382 -0.063739 0.140476 -0.234809 0.045228 -0.082030 0.066912 -0.101861 -0.169256 0.198629 -0.052650 -0.034059 0.033495 -0.135892 0.161598 0.200842 0.019285 0.136279 -0.043455 0.154724 0.040989 -0.103152 0.050591 -0.156899 -0.003040 -0.042362 -0.348378 -0.012086 0.075495 0.349719 0.082817 -0.080609 0.060211 0.115735 -0.161928 -0.174619 0.088402 0.289301 0.162697 0.158410 0.126355 0.008690 0.047835 -0.060879 0.157621 0.094210 -0.121459 -0.430784 0.145446 -0.096054 -0.153406 -0.289257 0.068002 0.037549 -0.193099 -0.000222 -0.221623 0.097176 -0.062004 -0.047436 -0.188240 0.054677 -0.310245 -0.030181 0.338586 -0.168661 0.115631 0.021221 -0.011038 -0.087336 0.197564 -0.213340 -0.034887 -0.161161 -0.057995 0.133658 0.111075 0.084126 -0.100504 -0.033356 -0.201503 -0.061036 -0.073402 -0.119982 -0.165476 -0.068267 -0.139800 0.066393 0.101359 -0.109750 0.191529 -0.225928 0.162047 0.134554 0.269868 -0.060178 0.060500 -0.067468 -0.027151 -0.092403 0.063746 0.106551 -0.241891 0.072120 0.008549 -0.047589 -0.115104 0.297737 0.062319 0.000440 0.106919 -0.066741 0.107321 -0.017006 -0.067041 0.054705 0.269972 0.111438 -0.101757 -0.015476 -0.146189 -0.017709 0.133384 -0.130851 -0.007594 0.227179 0.071098 0.131615 0.095810 -0.332107 0.132317 -0.041005 -0.150563 -0.242424 -0.165559 -0.329681 0.090830 -0.065770 0.222703 0.069346 -0.110329 -0.102773 0.288239 -0.199468 0.222922 0.150965 0.143437 -0.257870 -0.091609 0.123705 -0.268946 0.039134 0.098978 -0.073641 0.069555 -0.271781 -0.080901 -0.234647 0.354625 0.058660 0.161766 0.113072 -0.034950 0.002451 0.088125 0.049052 -0.082105 0.023828 0.088057 -0.071091 -0.332123 -0.007834 -0.021000 -0.049920 -0.247298 0.061241 0.178338 0.223850 0.143428 -0.089159 -0.157832 0.166109 0.064057 0.076826 -0.136708 0.074354 -0.043898 -0.121318 -0.325324 -0.208705 -0.155349 0.101698 0.124224 -0.091592 0.090872 0.005217 -0.192149 0.034589 -0.045969 0.111462 -0.243671 0.085323 -0.023118 -0.091189 0.092238 0.113238 -0.067936 -0.254296 -0.298048 0.045011 0.115661 0.173081 0.146478 0.161784 0.099467 -0.063645 -0.147993 -0.093036 -0.140178 -0.067374 0.171519 0.104415 -0.162997 -0.083238 -0.040585 -0.011971 -0.097881 -0.154493 -0.007851 0.029413 0.149803 -0.150943 0.019667 0.155601 -0.066015 -0.173393 0.035440 0.206424 -0.166595 -0.158605 0.101279 -0.116034 -0.317250 0.112828 0.331445 0.229528 -0.089479 0.136188 -0.280056 -0.009000 -0.144953 0.090988 0.243741 -0.024803 0.161946 -0.007531 -0.107009 -0.098726 0.158906 -0.135118 -0.175762 0.148966 0.027757 -0.093176 0.443443 -0.060477 0.051676 -0.164273 -0.221541 0.112497 0.095371 0.070016 -0.151129 -0.225103 0.049185 0.108547 0.099689 -0.067785 -0.028340 0.021369 -0.043849 0.100163 -0.150013 0.017434 0.115507 0.143500 -0.128780 0.086604 -0.224134 0.175852 0.006454 -0.064792 -0.074529 -0.144795 0.056704 0.056239 0.150709 0.312734 -0.068145 -0.150899 -0.253113 -0.007668 -0.198019 -0.029033 0.090692 0.404194 0.193140 -0.116323 -0.119082 -0.202918 -0.010309 -0.015135 0.068731 -0.070468 0.209452 -0.110136 -0.076113 0.179164 0.066370 0.057426 0.179377 -0.093191 -0.016373 -0.035824 -0.167451 0.014516 -0.158869 -0.171160 -0.000239 -0.039283 0.127613 -0.144111 -0.240933 -0.112744 0.313862 0.163741 0.041089 0.327140 0.188419 0.099416 -0.071917 -0.127694 0.247793 -0.259678 0.053403 0.067963 -0.122952 -0.079957 -0.051806 0.388197 0.004319 0.009831 0.090973 0.151569 0.222530 0.107794 0.298596 0.051662 -0.221185 0.145473 0.067661 -0.072314 0.030848 -0.037265 -0.255157 -0.100446 -0.100935 0.300135 -0.115975 0.086726 -0.341301 0.145186 -0.099425 0.227286 0.002197 -0.020992 0.266816 0.163408 -0.131327 -0.023428 -0.152268 -0.056234 -0.195843 -0.189110 0.065309 -0.351997 -0.138481 -0.215634 -0.003325 -0.101065 0.075932 0.029779 0.060225 -0.034610 0.102404 0.129729 0.175191 -0.040169 0.064724 0.158972 0.270067 0.246506 -0.139298 -0.004003 0.269514 -0.094636 -0.263397 0.162374 -0.028350 0.244926 0.001747 0.078544 0.141901 0.279731 0.240289 -0.141092 -0.049260 -0.009133 -0.187439 0.252308 0.055623 0.169072 0.053943 -0.084601 -0.091208 -0.094670 0.131331 0.029726 0.149093 0.234320 0.195446 0.050395 -0.026616 -0.208851 0.047607 -0.036328 0.276250 -0.037351 -0.175518 0.106328 0.037056 0.026306 -0.065922 0.123396 0.183899 0.023174 0.122555 -0.242202 0.163500 0.046163 0.063869 -0.024465 0.014000 0.005183 -0.044896 -0.050469 0.158978 0.180810 -0.048319 0.013839 -0.010447 -0.048899 0.114376 0.148209 0.009661 -0.053150 0.104107 -0.158269 -0.046482 -0.140575 -0.193794 -0.271623 -0.076875 -0.220527 -0.089120 -0.081961 -0.203345 0.092823 -0.152425 -0.098309 0.119395 -0.222127 -0.010292 0.142790 0.239242 0.039772 0.171444 -0.073067
'a -0.118961 0.046334 0.021798 0.135621 -0.133038 0.197083 0.089680 0.149303 -0.082724 0.207437 -0.048411 -0.016739 0.052663 0.011739 -0.070514 0.390431 -0.178037 0.072753 0.034175 0.017308 0.001367 -0.036415 -0.104651 0.141216 0.149510 -0.171817 0.052723 0.139833 -0.159668 -0.308367 -0.000648 0.028586 -0.286589 0.078052 0.087842 0.156690 -0.206070 0.082237 0.011735 0.071804 0.008810 0.268681 0.162999 0.139013 -0.006503 -0.123948 0.074824 -0.157381 -0.154511 0.126652 0.290436 -0.075275 0.131518 -0.084907 0.049915 -0.001936 -0.271720 0.035143 -0.043092 0.087920 -0.009349 -0.047755 0.024274 0.217970 -0.011543 0.095401 -0.118782 -0.153369 0.033251 -0.094331 0.134061 0.169887 0.224423 -0.143789 0.251429 -0.112396 -0.137436 0.060932 -0.036423 0.229670 -0.036420 -0.286683 0.221647 -0.159094 0.043885 0.037958 0.274232 -0.030581 -0.055191 0.271087 0.052806 0.268492 0.287943 0.150477 -0.062198 0.222014 -0.073658 -0.061346 0.266285 0.100453 0.118757 0.091478 0.167265 -0.164630 0.248104 -0.305458 -0.030369 -0.004016 0.161088 0.127897 0.034956 0.175042 0.029735 0.076857 0.122643 0.041954 0.147566 0.063289 0.214425 0.086450 -0.056134 0.064728 -0.255850 0.017636 0.069561 -0.047063 0.037546 0.183613 0.070337 0.222283 -0.096072 -0.006779 -0.190444 -0.278157 0.112384 0.118279 -0.442312 -0.195015 -0.026838 -0.148088 -0.124145 -0.113356 -0.072613 0.094739 0.008671 -0.036142 -0.177874 0.002360 -0.253201 -0.002109 -0.062782 0.128815 0.142845 0.199103 -0.269535 -0.018352 0.202521 -0.135496 -0.149244 0.055572 -0.116847 0.260560 -0.190753 -0.114960 -0.103320 0.017812 0.049118 0.188237 0.114218 -0.037504 -0.013990 0.091197 0.080635 0.039194 0.146950 0.110729 -0.067161 0.012434 0.153757 -0.180525 -0.021402 0.013560 0.144692 0.080961 0.031309 -0.234844 -0.330574 -0.145039 -0.236796 -0.197145 0.075583 0.153604 0.351158 0.123594 0.451844 -0.004578 0.243098 0.175127 0.091252 0.142091 -0.018339 -0.035578 0.034775 0.082214 -0.031917 0.126208 0.071638 -0.020041 -0.049328 0.048074 0.039690 0.173141 0.014093 0.236865 0.131616 0.232920 0.270696 0.227864 -0.080129 0.194258 -0.122664 0.055639 0.038723 -0.115421 -0.045968 0.143746 0.217125 0.158360 0.044205 0.106230 0.215982 -0.245447 0.083516 -0.152717 0.140953 0.073735 -0.027209 0.250981 0.059681 0.232890 -0.237233 -0.022273 -0.299277 0.065190 0.005002 0.034936 0.084899 0.101888 -0.047355 0.142928 0.209286 -0.084365 -0.159565 0.052109 -0.117941 0.005754 -0.177826 -0.085250 0.087000 -0.011430 0.039549 -0.016559 -0.078186 -0.053772 0.062572 -0.129256 0.108953 -0.083876 0.093049 0.081237 -0.382600 -0.107046 0.046664 0.095358 0.004321 0.133703 0.028020 0.020559 -0.106791 -0.070539 -0.023556 0.000950 0.151499 -0.012573 -0.028420 -0.237305 -0.098420 0.142378 -0.091938 -0.045701 0.078130 0.024401 0.125971 -0.096376 -0.008835 -0.057997 -0.012080 0.022797 0.182431 -0.197879 -0.071568 0.018975 0.059025 -0.088371 0.140621 0.066981 -0.001734 -0.086593 -0.072015 -0.103963 -0.015064 0.035593 0.296145 0.124512 -0.283194 -0.191652 0.098611 -0.182762 -0.166070 -0.175136 0.048502 -0.047423 0.037718 -0.084327 0.208392 0.041094 0.068268 0.179350 -0.300199 0.060832 -0.171405 -0.094509 0.124687 0.188431 -0.191000 -0.030827 -0.133990 0.227358 -0.022466 0.015538 -0.137427 -0.073047 0.005240 0.130402 0.235446 0.039024 0.044799 0.055357 -0.011489 -0.075547 0.033770 -0.024526 0.132967 -0.083467 0.039798 0.049979 0.039163 -0.181818 -0.294428 -0.098027 0.022856 -0.172576 -0.022577 -0.140877 0.012529 0.056824 -0.215513 0.104086 0.156917 -0.119983 -0.223630 -0.094412 0.160970 -0.183485 -0.150432 -0.061218 0.080763 -0.151366 -0.040983 0.061740 0.016338 0.053136 -0.075115 -0.033970 -0.125373 0.029635 -0.003297 0.114887 0.327665 -0.037772 -0.071014 0.118961 0.085918 -0.004376 0.026707 0.042920 -0.088993 0.032931 -0.045306 0.037311 -0.033100 -0.101285 0.190776 -0.057284 -0.013699 -0.025683 -0.286174 -0.059625 -0.080322 0.133135 -0.056059 0.036132 0.169448 0.016703 -0.092556 -0.248884 0.095004 -0.060767 -0.113575 -0.028986 -0.069997 0.003996 0.177546 0.168628 0.032742 0.138991 0.025085 -0.064131 -0.166339 -0.109283 -0.032823 -0.233320 -0.041024 0.050379 0.256177 -0.056063 -0.155208 0.245757 -0.035257 0.161525 -0.033879 0.140650 0.172457 0.001465 -0.059974 0.045094 0.011072 0.117791 0.270050 -0.110708 0.045042 0.022338 0.053544 0.021410 0.011732 0.044534 0.113122 -0.065252 -0.134327 0.014803 -0.001630 -0.088494 0.152296 -0.025908 0.031492 -0.275929 0.202884 -0.303043 -0.121195 -0.225456 0.207984 0.210040 0.175558 -0.020643 0.034435 0.121411 -0.046005 -0.306752 -0.231972 0.039921 0.034467 0.028241 -0.163346 -0.043628 0.160361 0.002046 -0.163883 0.028762 -0.028804 0.145525 -0.025049 0.027217 -0.154491 -0.022939 -0.018681 -0.256705 0.065990 -0.099611 0.096575 0.000519 -0.013417 0.197076 -0.110273 0.015418 0.253070 0.052570 0.210791 -0.009299 0.016807 -0.008059 0.068703 0.091674
bima -0.255597 0.152910 0.065488 0.070708 -0.108017 0.156060 -0.051997 -0.055970 -0.206208 -0.013627 0.033166 0.023662 0.113083 0.042643 0.151230 0.048231 0.139378 -0.195398 -0.026150 -0.098118 -0.073580 0.023512 -0.052008 0.170558 0.116091 -0.064886 0.017715 0.006915 -0.078727 0.269449 -0.220731 0.047445 -0.066551 -0.019554 -0.217773 -0.030555 -0.063221 0.171309 0.061768 0.132056 -0.070344 0.127187 -0.006403 0.048303 -0.211807 0.050548 0.210551 0.025800 -0.103381 0.067064 -0.047031 -0.221572 -0.057159 0.057899 -0.096262 0.128276 -0.238657 -0.071658 0.218921 -0.205877 -0.009870 -0.173190 -0.191258 -0.142211 -0.102897 0.094113 0.166920 0.082149 -0.226097 -0.144398 0.258338 0.153277 0.004882 0.090759 -0.118608 0.207252 0.010822 -0.207051 -0.044940 0.323575 0.032349 0.154408 0.024579 -0.001434 0.178882 0.103150 0.292476 0.049443 -0.176957 0.156452 0.051000 -0.019144 0.186998 0.240816 0.000375 0.248589 -0.013709 0.516477 -0.176281 -0.085422 -0.259347 -0.137580 0.233324 -0.053412 0.279123 -0.212481 0.185721 -0.094918 -0.002471 0.324970 -0.047641 0.254019 -0.078271 -0.165470 -0.051704 0.063616 -0.053441 -0.061873 -0.128660 0.166369 -0.138283 -0.113812 0.150743 0.231580 -0.306692 -0.156540 0.039226 -0.076086 0.139451 0.069043 0.172682 0.126104 -0.251414 -0.050698 0.144237 0.031172 -0.247352 -0.198592 -0.159892 0.072771 -0.153997 -0.266594 0.197345 0.097916 0.125002 -0.005967 -0.145355 0.322746 0.110724 -0.369698 -0.068109 -0.215275 0.120982 0.444426 -0.231742 0.018582 0.168649 0.189688 0.240149 0.262515 0.024479 -0.173281 0.026208 -0.012303 -0.023168 -0.172799 0.101434 0.049671 0.029914 0.030082 -0.162971 -0.018604 0.354406 0.202568 0.310486 -0.001245 -0.051626 0.011979 0.056359 -0.023221 -0.162116 0.240675 -0.040093 -0.140709 0.095650 0.046355 0.094051 -0.112924 -0.205187 -0.002563 0.198273 0.057131 0.092493 -0.024650 0.195840 -0.144679 0.189530 -0.065748 0.217813 -0.188543 0.133629 -0.174787 0.065025 -0.032014 0.160166 -0.113158 -0.109900 -0.036878 0.012095 0.085991 -0.099158 -0.269898 0.056071 0.040840 -0.158577 -0.047718 0.157011 0.282790 0.230760 0.158245 0.090546 0.082228 -0.321102 -0.176788 0.090846 -0.224223 0.165816 -0.112834 -0.273389 0.115376 -0.123775 -0.022717 0.022935 -0.108223 -0.105036 0.143249 -0.224037 0.002940 -0.034038 -0.164399 0.223363 -0.045846 0.124418 -0.053704 0.105992 0.085948 -0.082228 -0.111010 0.053047 0.174585 0.038631 0.053882 0.128978 0.006270 -0.215941 0.073637 -0.125707 -0.004368 -0.080757 -0.033062 0.167868 -0.204707 -0.059297 0.131173 -0.043225 -0.168767 0.238169 0.139046 -0.001680 0.013842 0.152273 -0.159695 -0.094119 0.054737 0.131009 -0.077772 0.007648 0.111415 -0.073508 0.223460 -0.219497 0.121856 -0.081829 0.111785 0.150466 -0.439360 -0.123174 0.133029 -0.335716 -0.097665 0.307661 0.037943 0.089263 -0.108745 -0.196284 -0.220074 0.134190 0.088862 -0.122875 -0.163556 -0.109679 0.159522 0.013978 0.125672 -0.089753 -0.016142 -0.093160 0.190837 -0.285275 0.050977 -0.031180 0.293403 0.269867 0.124094 -0.101923 -0.191073 -0.126682 0.254431 0.040686 -0.030033 0.017358 -0.250763 0.025459 0.119603 0.001438 0.023955 -0.132305 0.069022 0.007769 -0.335674 -0.065870 -0.060441 0.014785 -0.185488 -0.281892 -0.085555 -0.039150 0.320015 0.018654 0.124086 0.081873 0.236583 -0.039460 0.115665 0.008080 -0.104677 0.123351 0.242131 0.063691 -0.200950 -0.080857 0.130852 0.189511 -0.174589 0.022745 0.124808 -0.086054 0.048046 -0.265147 0.046996 0.114977 -0.088637 -0.120323 -0.140042 0.019253 -0.088689 -0.139109 -0.038275 -0.195434 0.057529 -0.087122 -0.147695 0.018381 -0.347107 0.043128 -0.051802 -0.180502 -0.039168 0.034122 0.053792 0.037243 -0.044198 0.231006 -0.212392 -0.048406 0.106207 -0.028497 -0.263593 0.198499 -0.007603 -0.136786 -0.414734 -0.039259 -0.170716 -0.054736 -0.235607 -0.181700 0.014854 0.009804 0.246082 0.182533 -0.014732 0.135354 -0.016875 0.063336 0.079219 -0.063585 -0.056816 -0.111803 0.248523 0.028703 -0.138096 0.297414 -0.027086 -0.048835 0.117022 -0.172435 0.021570 -0.161449 -0.140772 -0.166641 -0.067236 -0.156030 -0.051922 -0.203911 -0.074917 0.137623 -0.188434 -0.130178 -0.052072 0.105221 -0.104170 -0.295472 -0.362879 -0.127269 -0.146966 0.170044 0.137812 -0.000213 0.054209 0.086173 0.152259 -0.036176 -0.122834 -0.195388 -0.025790 -0.177928 -0.230844 0.138532 0.063430 -0.145321 0.056385 0.185009 -0.358589 -0.382035 -0.280877 -0.074540 -0.221451 -0.088111 0.111547 -0.051056 0.067246 -0.021827 -0.278985 -0.069799 -0.028527 -0.000932 0.092021 -0.097678 0.114436 -0.241343 0.228408 -0.155510 0.216897 0.020493 0.241986 0.049006 -0.073218 0.056041 0.234752 -0.130701 -0.102300 0.110218 -0.078965 0.003309 0.142540 0.004201 -0.246643 0.067076 -0.175388 -0.191637 -0.099112 0.014731 -0.019948 0.106377 -0.089845 0.027931 0.227957 0.121284 -0.092377 0.008370 -0.077653 -0.244173 0.328216 0.046069 0.049619 0.029408 -0.331264 -0.207767 0.080185 -0.019524 -0.054549
puje -0.012905 0.022114 -0.144577 0.153120 -0.004715 -0.045714 -0.053382 -0.084192 -0.029203 0.238496 -0.125711 0.065984 0.101213 -0.216046 0.063164 -0.082796 0.044041 0.031398 0.102085 -0.212853 0.041066 0.083862 -0.222189 0.033956 0.393780 -0.056512 -0.017513 0.090190 0.025443 -0.106237 -0.011969 -0.014249 -0.194587 -0.060915 -0.087788 -0.202837 -0.099608 -0.262215 -0.042136 -0.159871 -0.202132 -0.024170 -0.135120 0.150403 -0.158432 -0.288058 -0.140024 -0.054019 0.087936 0.000927 -0.380704 -0.013471 0.081583 -0.060689 0.030785 -0.037839 -0.051567 -0.141891 0.093748 -0.311668 -0.059266 -0.261237 0.121433 0.075889 -0.138101 0.245758 -0.189941 -0.028741 -0.028168 -0.044648 0.096206 -0.126204 -0.067821 -0.186471 0.050974 0.014789 -0.075444 -0.029078 0.145776 -0.123282 0.062218 -0.091360 0.063397 0.093774 -0.006788 0.082812 0.176520 -0.347264 -0.294242 0.064700 0.091343 -0.101503 0.077822 0.045563 -0.075267 -0.238630 -0.013748 -0.009388 0.052628 0.088414 -0.073274 0.007723 0.119764 0.216771 0.250417 0.050657 -0.091506 -0.077714 -0.104182 0.002192 0.143416 0.229510 0.010988 0.085726 -0.280477 -0.078983 0.040164 -0.045651 0.146803 -0.106429 -0.122509 0.190911 -0.237147 0.031376 0.008212 0.020173 0.136231 0.172667 0.031915 -0.038214 0.058464 0.155055 -0.155895 0.136226 0.089438 -0.082658 0.031738 -0.013206 0.024101 0.096123 -0.072888 -0.205192 -0.037876 0.138267 -0.018082 -0.095844 -0.006437 0.018266 0.100121 0.291289 -0.113269 0.022868 -0.027956 -0.083973 -0.067996 -0.075935 0.075828 -0.017516 0.224868 0.097432 -0.076186 -0.247348 0.135668 -0.207301 0.127046 -0.041709 0.084579 -0.052755 0.003573 -0.055753 0.073113 0.020855 -0.014601 0.080694 0.076163 -0.099767 -0.376374 0.267228 -0.283616 0.048165 0.005445 -0.083300 -0.050801 0.241217 -0.010938 -0.046398 -0.187087 0.065497 0.089268 -0.097472 0.096773 0.076426 0.035384 -0.000050 0.055566 0.077550 0.044783 0.086296 0.011998 -0.240869 -0.123176 -0.071704 -0.112154 -0.065197 -0.052140 -0.021301 -0.155572 -0.097309 0.088544 0.022577 0.035977 0.199019 0.058058 0.155274 -0.033620 0.083087 -0.033018 0.120443 0.119160 -0.058056 0.224686 -0.010761 0.082156 -0.183427 0.011979 -0.092706 -0.207374 -0.205758 -0.125072 -0.106212 0.247426 0.076121 0.036401 0.164731 -0.028589 -0.115197 0.073228 -0.147143 0.106185 0.043626 0.109996 0.045270 -0.122651 -0.084483 0.125773 -0.115247 0.189853 -0.048048 0.081602 0.034088 -0.075032 0.072311 0.078291 -0.015413 -0.044414 -0.094462 -0.069589 -0.063031 0.063251 0.043825 0.077740 -0.177673 0.109699 0.064807 -0.035992 0.075296 0.221488 0.096858 0.035743 -0.072868 -0.085087 0.067168 0.235383 -0.008047 0.117631 -0.124233 0.007930 0.229370 -0.208813 -0.377809 0.206139 0.096303 0.463639 -0.124688 0.067877 -0.063440 -0.162571 0.133850 -0.066060 -0.051982 0.120340 -0.158380 -0.056990 -0.070271 0.006592 -0.060246 -0.048097 -0.199148 0.107795 0.048501 -0.040157 0.394937 0.227574 -0.009236 0.176118 -0.054394 -0.247478 -0.079034 0.039987 0.105959 -0.036798 0.297553 0.357465 -0.139882 -0.054586 0.002488 0.027255 -0.089264 0.207365 -0.129286 0.132177 -0.137853 -0.012972 0.198678 0.004146 0.125302 -0.061670 -0.071601 -0.023947 0.053764 -0.259042 -0.160283 -0.126922 -0.079016 -0.035328 0.204600 -0.145965 -0.156655 -0.063665 -0.047484 0.231140 -0.280439 -0.032233 0.213792 0.107117 0.146136 -0.103173 0.059661 -0.081435 0.010995 -0.056918 0.082586 0.027240 0.218164 -0.085030 0.213371 0.051153 -0.057897 -0.282571 0.007247 -0.229976 -0.161727 0.093974 -0.039780 0.097471 0.130628 0.094552 0.162659 -0.109812 0.151552 -0.128388 -0.092362 0.045604 -0.207292 0.001065 -0.020714 -0.313128 -0.102538 -0.090167 -0.202846 0.019120 0.216608 0.078096 -0.277963 -0.050152 -0.087886 -0.018508 -0.086306 -0.127541 0.054669 0.180242 0.046331 -0.251494 -0.046560 0.053170 -0.096357 0.053229 -0.041441 -0.234371 0.122536 -0.095619 -0.007389 0.103973 0.110954 0.037707 0.056548 -0.421738 -0.149998 -0.073698 -0.089317 0.220300 -0.073944 0.267553 0.010658 -0.103984 0.005596 -0.062987 -0.045836 -0.065682 -0.207636 0.046594 0.148496 0.098934 -0.069680 0.140267 0.086883 -0.044402 -0.145364 -0.095053 -0.101382 0.022198 -0.298527 0.032226 0.043402 0.040924 -0.186302 0.279849 0.124004 0.003695 0.204672 -0.080080 0.230631 -0.161732 -0.005048 0.016431 -0.055985 0.137965 -0.064735 0.057312 -0.103793 0.037289 0.182280 -0.018019 0.092059 -0.095302 -0.018924 -0.069314 0.142710 0.182259 0.199193 -0.105587 0.277763 0.097454 -0.032491 -0.147983 -0.233522 0.194317 0.068328 -0.140353 0.331676 0.027919 0.064853 -0.005582 0.288836 -0.019833 0.051776 0.058429 -0.110078 0.089735 0.125733 0.053824 0.093986 -0.338974 0.075735 0.013139 0.001316 0.088422 -0.074753 0.078265 0.063293 -0.089845 0.106353 0.009091 -0.022204 0.099093 0.041108 0.102342 -0.128608 0.155045 0.124158 -0.079614 -0.003311 -0.144237 -0.183571 0.127305 -0.066162 -0.154856 0.146090 0.312633 0.207377 -0.087354 0.127168
puybit 0.009012 -0.061235 0.061379 -0.185296 -0.356479 0.176134 -0.146808 0.301234 -0.036292 0.464021 -0.248560 -0.021358 -0.326163 -0.180524 -0.390226 0.132361 -0.285628 0.158493 -0.209324 0.026168 0.161413 -0.180782 -0.127292 -0.270542 0.082146 -0.157358 0.114997 0.171924 0.009453 0.063141 0.201417 0.224184 -0.147614 0.591859 0.266690 0.109913 0.205734 0.407269 -0.194584 0.013428 0.267868 -0.090128 -0.091817 -0.043380 0.186878 -0.130429 -0.101717 0.089999 -0.131134 0.088873 0.090777 -0.038352 0.126487 -0.090591 -0.005019 -0.249405 -0.046628 -0.020139 0.016212 0.134853 -0.138541 -0.044329 -0.171026 0.045700 0.056743 0.033971 -0.099874 -0.042510 0.013373 0.186502 -0.226832 -0.132119 0.035715 -0.017065 0.150984 0.019054 0.333215 0.047350 -0.218325 0.080291 0.235128 0.063236 0.149301 -0.195498 0.354255 -0.108000 0.136598 0.421348 -0.174490 -0.101817 -0.077286 0.151091 -0.096665 0.004578 0.113151 0.056959 0.199587 0.065944 0.109947 0.246785 0.034588 0.172633 0.230353 -0.137713 0.303970 -0.106753 0.318924 -0.029280 -0.001604 -0.076022 -0.078234 -0.164932 -0.002819 0.092322 0.315360 -0.091102 -0.028965 0.361807 0.080542 0.035910 0.277971 -0.146921 -0.268061 -0.028479 0.247055 -0.017264 -0.049878 0.141637 -0.298788 0.080224 0.102376 -0.054648 0.245821 -0.111566 -0.039377 0.050978 -0.051047 -0.032756 -0.025857 0.083282 -0.015360 0.041409 -0.043849 -0.175786 -0.257975 -0.029927 -0.128120 -0.175294 -0.295933 -0.113562 -0.190914 0.351642 0.095763 -0.144132 -0.055492 -0.007789 0.166388 -0.325158 -0.178273 0.262064 0.035347 0.404495 -0.038707 -0.230446 0.039707 0.264874 0.192751 0.220355 -0.170365 -0.095312 -0.013812 -0.264642 0.136027 0.008089 0.169355 0.251952 0.083899 -0.115840 0.249866 0.132733 -0.026672 0.062797 0.024682 -0.008800 0.105221 0.090370 -0.157788 -0.173071 -0.114222 0.145208 -0.226104 0.316487 -0.024680 0.184390 0.383464 0.102782 0.180176 -0.108432 -0.139313 0.416376 -0.167502 0.205150 0.119023 0.077945 -0.313567 0.123462 0.347265 -0.195416 -0.175836 -0.145243 -0.134168 -0.042300 -0.337641 0.303140 -0.002801 -0.065199 -0.192106 -0.212582 -0.379979 -0.098013 0.168693 0.168704 0.108702 -0.120082 0.142295 0.434256 -0.169077 -0.062041 -0.025446 0.097647 -0.033072 -0.189126 -0.058630 0.278128 0.300370 0.196755 -0.123912 0.177443 0.259045 -0.072885 -0.486065 -0.118582 -0.248529 0.021140 -0.250808 -0.025834 -0.359827 0.059618 0.279430 -0.320708 0.267594 -0.048362 -0.072769 0.148615 -0.042571 0.096552 0.147723 -0.175172 0.105408 0.067951 -0.106551 -0.111837 -0.034143 0.140730 -0.105268 -0.171520 -0.255973 -0.361051 0.159926 -0.148421 -0.399482 -0.156376 0.288277 -0.070411 -0.347167 0.212590 0.115871 -0.265810 -0.132041 -0.116764 -0.093203 -0.070656 -0.084491 -0.071391 0.305290 -0.165479 0.207440 -0.146839 0.031522 -0.050255 0.078152 0.291563 -0.129802 0.191409 0.176985 0.076070 -0.038154 -0.273859 -0.017654 -0.000836 0.035487 -0.152915 -0.021826 0.096112 0.013035 0.049864 0.230506 -0.081560 -0.036779 -0.123565 0.256848 -0.331724 -0.004500 -0.163612 -0.258477 -0.187963 0.057767 0.033557 -0.398605 -0.116590 0.132941 0.151485 -0.273980 0.058587 0.084840 -0.023984 0.181816 0.081255 0.061763 -0.003602 -0.060092 0.305427 0.234765 -0.042785 -0.072861 -0.202372 0.150810 -0.035781 -0.254392 -0.054493 -0.100428 0.001984 0.107247 -0.052185 -0.224794 0.230395 -0.201876 0.090850 -0.028646 -0.050792 -0.035196 0.001773 0.200935 -0.098730 0.023615 0.058559 0.004781 -0.079456 0.219616 -0.124888 0.029832 -0.007716 0.026278 0.207091 -0.188181 0.109653 -0.135809 0.028589 0.250793 0.041100 -0.083227 -0.157832 0.448606 -0.260758 0.016012 -0.167288 0.176453 -0.019601 0.060880 0.175198 -0.185941 -0.013460 -0.078354 0.095527 0.164080 -0.165441 -0.100703 0.220258 0.270766 -0.121308 -0.175901 -0.018886 0.278623 0.149105 0.074013 -0.112006 0.123300 -0.061932 0.420440 -0.081781 0.049386 -0.075189 0.084324 -0.283890 -0.236157 -0.338923 -0.061242 0.206905 0.101146 0.214991 -0.024180 0.110948 -0.052105 0.240596 0.078942 -0.294498 -0.165055 0.292833 0.179472 0.391677 0.013110 -0.196576 0.126455 -0.220287 -0.033594 0.388428 -0.048954 0.067712 0.138236 0.136760 -0.103504 0.052944 0.116170 0.019745 0.035988 0.090556 -0.090287 0.019680 -0.016896 -0.122920 0.066336 -0.150690 0.034674 0.216425 0.279408 0.030422 -0.068461 0.136001 0.106790 -0.029701 -0.110832 0.314130 0.128950 0.107670 0.392533 0.156765 -0.099233 -0.172801 -0.257331 0.104076 0.433834 0.053674 0.304787 -0.042698 0.037383 -0.005074 0.252177 -0.194618 0.027646 -0.134216 0.086381 -0.057112 0.281746 -0.310274 -0.173589 0.123464 -0.014356 -0.004673 -0.245135 0.212820 -0.063528 -0.246562 -0.136266 -0.033516 0.218913 -0.041167 -0.114192 0.040143 0.020557 -0.044396 -0.215904 -0.128421 -0.051751 0.043078 -0.139155 -0.045757 0.048970 -0.261218 0.191126 0.048452 0.190744 -0.200175 0.053195 -0.194165 -0.016562 -0.222644 0.308426 0.044452 0.003390 -0.019161 0.241742 -0.044329
uktup 0.009616 -0.045227 -0.173014 -0.112257 0.230602 -0.147771 -0.033772 -0.190595 -0.083470 0.075506 0.222839 0.003031 0.097822 -0.097137 0.202706 0.065565 0.201876 -0.387337 0.177696 0.030204 -0.069662 -0.053106 0.030714 0.093475 -0.210512 -0.269963 -0.026679 0.069690 -0.066002 -0.108276 -0.038871 0.062014 -0.080893 -0.369360 0.032178 -0.287609 -0.325690 -0.214079 -0.030905 0.047928 -0.072464 -0.012403 -0.081416 0.190208 -0.031291 -0.183438 -0.194935 -0.103555 0.300222 -0.222675 0.039931 0.078269 -0.236200 -0.164205 -0.185276 0.055112 0.125006 -0.086374 0.170752 -0.013359 0.064317 0.052941 0.057781 -0.088280 -0.094293 0.139586 -0.105664 0.155624 -0.074909 0.166329 0.092926 0.150412 0.321889 0.005214 -0.034178 0.085810 -0.108209 -0.048187 0.029483 -0.108041 -0.108527 -0.132778 -0.011400 -0.155251 -0.080458 -0.056223 0.236901 0.018895 -0.023805 0.132490 0.191656 -0.013990 0.132092 -0.137733 0.053466 -0.236610 0.029345 -0.012939 -0.179361 0.252393 -0.146354 -0.174683 -0.132437 0.174508 -0.362951 0.215480 -0.054786 -0.082815 -0.154645 -0.088523 -0.236004 -0.200693 0.084882 0.055830 -0.118401 0.069539 0.060238 0.082091 -0.135729 -0.214659 -0.151211 -0.008403 -0.205405 0.116047 0.221066 -0.030478 -0.112173 0.105455 -0.057930 -0.161940 -0.077244 0.008127 -0.122572 -0.009667 -0.171888 -0.259214 0.152871 0.143775 -0.152337 -0.137178 -0.139995 0.002741 -0.016808 0.347070 0.011481 -0.158393 0.003476 -0.187030 -0.073273 0.273986 -0.165266 -0.147498 -0.007423 0.057781 -0.079120 -0.120783 -0.081781 -0.199117 -0.194009 -0.048748 -0.149709 0.115626 0.046493 -0.210951 0.118868 0.173911 -0.168305 -0.023237 -0.002732 0.013353 0.024786 0.050161 -0.053402 -0.033242 -0.316908 0.140938 -0.115065 0.094896 0.018579 0.016107 0.126250 -0.081224 -0.039236 0.222035 0.290829 -0.141785 0.226461 0.048148 0.132774 -0.191844 -0.134673 0.032996 0.036091 0.131288 -0.242596 0.196883 0.206290 0.130442 0.101406 -0.173823 0.073861 -0.081040 -0.055900 -0.197738 0.001138 0.047164 0.125625 0.160751 0.310017 -0.026456 0.083436 0.226257 -0.166976 0.033450 -0.261474 0.226335 0.005884 -0.082533 -0.109897 0.272964 0.120181 0.074613 -0.113109 0.021623 -0.154791 -0.029480 0.061271 0.166567 0.001064 -0.223748 -0.292682 -0.113204 0.115693 0.060039 -0.003938 -0.037531 -0.068043 0.087438 0.340544 0.153613 0.057173 0.129485 -0.249341 0.108863 0.042444 -0.111642 -0.026536 0.027550 0.043199 -0.071649 -0.008926 0.054655 -0.089057 0.306149 0.157327 0.020271 0.115490 0.009694 0.099829 0.076020 -0.300314 0.003697 0.039486 -0.112037 0.090232 0.111658 0.086945 0.023792 0.210372 -0.025660 -0.254155 0.186844 -0.070571 -0.279896 0.366313 -0.109439 -0.063230 -0.167064 0.111250 -0.264653 0.274831 0.124302 0.191023 -0.028049 0.292137 -0.055404 0.209631 0.253656 0.047303 0.147413 -0.314274 -0.158546 0.155240 0.216171 -0.032258 0.055090 -0.100788 -0.164653 -0.044746 0.036113 0.109070 0.053996 0.119054 -0.180029 0.036405 -0.078718 -0.006948 -0.259357 -0.097960 0.385656 -0.093767 -0.111563 0.157301 0.209151 0.260865 -0.203817 0.123704 -0.040290 0.213664 0.120371 -0.016189 0.023525 -0.002178 -0.062473 -0.157705 0.218477 0.122231 -0.111573 0.017298 0.123412 0.142445 -0.099234 -0.069947 -0.150074 0.291635 0.114582 -0.088928 -0.190086 0.038689 0.170273 0.418978 -0.167933 -0.165974 -0.105774 0.210965 0.232177 0.142579 0.010866 -0.029718 0.244305 -0.090987 0.025730 -0.302975 0.145470 -0.062580 -0.186095 0.139101 -0.265513 -0.005124 0.064914 -0.056155 0.132995 -0.060306 -0.111473 -0.064485 -0.165449 -0.053803 -0.003081 -0.230384 0.269502 0.066981 -0.044970 0.180916 0.230405 -0.123417 -0.123296 -0.092903 -0.363187 0.043874 -0.002434 0.168563 0.152540 -0.165214 0.039132 0.006662 0.185204 -0.170476 0.039879 0.047466 0.244204 0.054289 0.339186 -0.160183 0.201159 -0.185410 -0.289017 -0.149714 -0.130567 -0.298014 -0.002153 -0.071789 0.100408 0.153422 -0.110563 -0.057515 0.187061 0.234118 -0.097392 0.133108 0.024260 0.010038 0.046893 0.014939 -0.109250 0.297932 -0.177487 0.178486 -0.130006 0.241583 -0.074907 0.192040 -0.083375 0.029637 0.174091 0.364137 0.016597 -0.226744 -0.030101 -0.013278 -0.272383 -0.169681 -0.070892 0.059736 0.141370 -0.062059 -0.101477 -0.006300 0.369281 0.088248 0.107020 -0.013026 0.033087 -0.145340 0.006694 0.120239 -0.056552 0.030908 -0.002651 -0.139593 -0.122296 0.092644 0.086429 0.140787 0.230304 0.116979 0.270328 -0.015437 -0.125563 -0.053018 -0.180816 -0.160172 0.237098 -0.201559 -0.200858 0.083765 -0.078830 0.112164 0.167859 0.006753 0.036039 -0.189332 -0.051584 -0.004592 0.258826 -0.001493 -0.362402 0.093266 -0.309788 0.104508 -0.124407 0.024662 -0.147999 0.074765 0.395034 -0.127074 0.041608 0.279896 0.009470 0.131479 -0.045256 0.146722 -0.123002 0.211728 -0.119226 0.256643 -0.194612 -0.063479 -0.188234 0.209117 -0.048314 0.202264 0.156090 -0.069057 -0.349118 0.143625 0.030472 -0.228207 0.025769 0.244815 0.002931 0.148470 0.221545
